441.68998866798154,-59.84247059300742,-250.97435152107528,-556.4284793483141,-806.8431293076233,-1109.0681577214516,-1375.058165053229,-1680.5729218970032,-1902.3328833110063,-2187.7650655051893,-2231.9126092733586,-2501.658871656261,-2045.9441793207557,-2505.8539044101676,-699.7076113828389,-2338.119567824202,3094.1662586253665,-2626.1995092089187,9393.969264216115,2484.2264608108103,-410.1690982529337,148.80574455652288,417.43371860922394,807.0304584374978,1178.361671048622,1632.6395327569414,2084.6065198829533,2642.275157911852,3119.3895202562317,3804.2474695360656,4109.192298376131,5018.3470282690905,4538.462913651987,6154.15184516299,3046.5190979432896,7299.69526368902,-3550.167987061357,8273.716398902041,-14247.422868624171,-10625.09905095492,0.0,0.0,1.9,0.0
441.7637583425585,-58.09579450558567,-247.54245279992188,-551.0515017852281,-798.8930090581348,-1097.8972275180809,-1360.0699117063355,-1660.4739259321757,-1877.1614713560643,-2154.731729811656,-2193.9134610322335,-2451.2946258151483,-1996.571970945733,-2434.163438539982,-654.6660768988031,-2241.8824396104574,3081.9308000945744,-2516.698945121844,9291.460377935442,2327.9144028156106,-410.46718267809206,141.7478722700863,403.5662917687082,785.3034644144468,1146.2372641505676,1587.500654847145,2024.0428134091533,2561.060244880043,3017.67826879142,3670.768190761103,3955.647438471834,4814.837964780316,4338.962420377486,5864.468969411458,2864.5177525886293,6910.825590202511,-3500.727621868634,7831.252566142488,-13833.210621463539,-9993.481918541856,0.0,0.0,1.9,0.0
441.6565066395973,-60.63523888395059,-252.5319960674476,-558.8689417454402,-810.4514704790581,-1114.1383360475465,-1381.8609214825756,-1689.6953039959221,-1913.757495675779,-2202.7579890684074,-2249.159378728419,-2524.517819212222,-2068.3528683240993,-2538.3922373530513,-720.1507264811376,-2381.7989564473637,3099.7195971156643,-2675.8988069971947,9440.495231529483,2555.172209647374,-410.22541521710923,147.47230370507725,414.8137514765524,802.9255865722876,1172.2924203335997,1624.111463493089,2073.1642442319676,2626.9312584701,3100.17325619549,3779.0292854047366,4080.1831324222185,4979.898146296426,4500.771369168333,6099.422180998194,3012.1336601334447,7226.226279446961,-3540.827239610381,8190.121892636321,-14169.165922570875,-10505.767891155789,0.0,0.0,1.9,0.0
441.6544343489477,-60.68430539520011,-252.62840277859743,-559.0199883715591,-810.6748001892217,-1114.452142697814,-1382.2819619412046,-1690.2599121782746,-1914.464594934689,-2203.685940477298,-2250.2268265779367,-2525.9326195012586,-2069.739800928979,-2540.4061202205944,-721.4160045557394,-2384.5023885058304,3100.0633078168444,-2678.9748270409104,9443.374845816827,2559.5632283387536,-410.28913186915673,145.96365737327415,411.8495376372022,798.2813611500252,1165.4257094053833,1614.462861198217,2060.218527713246,2609.5712700830386,3078.4320995716457,3750.4975953122303,4047.362350062085,4936.397330410701,4458.127400008216,6037.501393651672,2973.2301986381567,7143.103946809741,-3530.2591784799797,8095.543610002827,-14080.626520970829,-10370.757390312792,0.0,0.0,1.9,0.0
441.7611845534661,-58.15673520857797,-247.66219012404133,-551.2391019906352,-799.17038499558,-1098.2869759922332,-1360.5928447806004,-1661.1751704003414,-1878.039690020505,-2155.884247278808,-2195.2392333518537,-2453.051810544982,-1998.2945439571465,-2436.6646850056977,-656.2375547450969,-2245.24010752223,3082.3576894596617,-2520.519368042164,9295.036864523221,2333.3680566267512,-410.4085556001398,143.1360106295176,406.29372949755475,789.5767174046188,1152.5554744705103,1596.378544020903,2035.9544492086275,2577.033548394761,3037.682780646481,3697.020820398023,3985.846555344172,4854.864013172153,4378.200065429342,5921.443634836053,2900.3136750485464,6987.308259339188,-3510.4515251473977,7918.276104446222,-13914.677653767129,-10117.708021663526,0.0,0.0,1.9,0.0
442.0498693844707,-51.32142115673912,-234.2320494622627,-530.1972324932619,-768.0589676977934,-1054.571477324497,-1301.938913794191,-1582.5212342177515,-1779.5357332570034,-2026.6140149708672,-2046.536154553543,-2255.9600660027445,-1805.0849660515933,-2156.1164756672915,-479.97531831120756,-1868.6327907120515,3034.476343737394,-2092.007894398914,8893.88610984033,1721.667917200194,-410.2316994967543,147.3235081622248,414.52139547196833,802.4675335255998,1171.6151668445984,1623.1598361964116,2071.8874274610366,2625.2190686295453,3098.028958245586,3776.2152472367698,4076.9460674610186,4975.607725509921,4496.565457899819,6093.3150258162605,3008.296669573926,7218.028047378897,-3539.784927455601,8180.793777254698,-14160.433413046067,-10492.452006212903,0.0,0.0,1.9,0.0
441.4763047643903,-64.90195566307852,-260.91531336094965,-572.0036268467359,-829.871734885593,-1141.4262777919107,-1418.4736812724848,-1738.7923998524852,-1975.2453047056601,-2283.450619279355,-2341.982315103077,-2647.5457659871863,-2188.9575020804496,-2713.515098264535,-830.1765476679209,-2616.8835107755303,3129.607929915066,-2943.3827997638714,9690.900208206358,2937.005616068035,-410.29325972397197,145.86592035546516,411.6575022976802,797.9804869663036,1164.980852439388,1613.8377805731877,2059.3798449374517,2608.446610567486,3077.0236079235674,3748.6491818207096,4045.23606954043,4933.579148427667,4455.364728478864,6033.489881598032,2970.7098543178927,7137.718901599825,-3529.57453110334,8089.4163959113275,-14074.890533236208,-10362.010792043282,0.0,0.0,1.9,0.0
441.6638693070888,-60.460909866461975,-252.18947146432026,-558.3322863096171,-809.6579995747571,-1113.0234084980248,-1380.3650016017932,-1687.6893005644997,-1911.2452339266533,-2199.46105896952,-2245.366829991179,-2519.491157673602,-2063.42521822689,-2531.2370878721704,-715.6553042777336,-2372.1938990709045,3098.4984230889604,-2664.969977131217,9430.264214112998,2539.5713047490963,-410.20163725742987,148.035304626781,415.9199452077334,804.6587317967703,1174.8549590043867,1627.7121562806567,2077.9953634613375,2633.4097082040203,3108.286682724638,3789.6768224858693,4092.4312851274226,4996.131904222828,4516.685366601593,6122.529956149534,3026.6517643009274,7257.246107439215,-3544.7710586550147,8225.416884559854,-14202.207307732213,-10556.151493015774,0.0,0.0,1.9,0.0
441.645883460318,-60.886768442319635,-253.0262055972538,-559.6432517620018,-811.5963251241183,-1115.7470024493598,-1384.01930034083,-1692.5896537885233,-1917.3822971880038,-2207.514944514303,-2254.6314344977227,-2531.770507095477,-2075.462698154365,-2548.716001056103,-726.6369189372967,-2395.6575547840857,3101.481560592183,-2691.667402374057,9455.256992468703,2577.6818799608877,-410.334696227236,144.8848106407097,409.72980132325284,794.9602332516322,1160.5152618797792,1607.5630578192477,2050.9609279232327,2597.15698427553,3062.884800455021,3730.094323865118,4023.891909670024,4905.289500772485,4427.632309267551,5993.221274655713,2945.4099789965667,7083.662409676232,-3522.7018617135045,8027.9098186882175,-14017.311188484597,-10274.21015150604,0.0,0.0,1.9,0.0
441.82438891038333,-56.66021865537846,-244.72180908776443,-546.6322169555264,-792.3588836319698,-1088.7159501552717,-1347.7512140998529,-1643.9547593716084,-1856.4733361193496,-2127.5819569908995,-2162.6823358533256,-2409.9007488673633,-1955.9934398077376,-2375.2417516766154,-617.6468839212957,-2162.7860930543443,3071.874597398163,-2426.701511429982,9207.209335278658,2199.4430639510424,-410.19980449483603,148.07869973623315,416.0052086516296,804.7923195465049,1175.052474924607,1627.989691272905,2078.367737533834,2633.909055580281,3108.912051202522,3790.497515695407,4093.375350940599,4997.383173393766,4517.911989202454,6124.311062334949,3027.7707939330785,7259.637060576941,-3545.075041208417,8228.137359725046,-14204.754078898844,-10560.034971382625,0.0,0.0,1.9,0.0
441.5897834761204,-62.21507172998918,-255.63607836393237,-563.7323081273282,-817.6421918638996,-1124.2422142514133,-1395.4174905008385,-1707.8744353259713,-1936.5245236649055,-2232.635966500251,-2283.5288321829858,-2570.0712508901497,-2113.009022376026,-2603.2347994609595,-760.8898744524456,-2468.8434732812075,3110.7863194479196,-2774.939830672866,9533.212425432395,2696.5532734458366,-410.36493049992686,144.16894080718134,408.32324817378003,792.7564955077594,1157.2569295107355,1602.9846863790058,2044.8180383171277,2588.9194725003217,3052.5683745644865,3716.5557126722324,4008.3180754548866,4884.647869277087,4407.39726128177,5963.839157371888,2926.9498444059427,7044.219918210961,-3517.6871966081694,7983.031348760744,-13975.298236235283,-10210.146134553705,0.0,0.0,1.9,0.0
441.6895740916558,-59.85228669988942,-250.99363837286478,-556.4586973064047,-806.887808013309,-1109.1309369863634,-1375.142397208307,-1680.685875802153,-1902.474343575056,-2187.9507088215764,-2232.1261598501674,-2501.9419125733393,-2046.2216451077315,-2506.256796082121,-699.9607393105782,-2338.6604087441415,3094.2350204109184,-2626.814889021419,9394.545351654204,2485.1049155018422,-410.4087934524082,143.13037889657346,406.28266417395423,789.5593806465162,1152.5298412390562,1596.3425260700274,2035.90612322663,2576.9687440646517,3037.6016215431982,3696.9143124314223,3985.724036321327,4854.701625895708,4378.0408767368635,5921.212486343551,2900.1684495620984,6986.9979660966765,-3510.412074883343,7917.923046476586,-13914.347138764082,-10117.204031403668,0.0,0.0,1.9,0.0
441.99779841457865,-52.55432775097654,-236.65448519226993,-533.9926191372592,-773.6706296132913,-1062.4565761177346,-1312.5185035170957,-1596.708286320071,-1797.3031945526952,-2049.930883903792,-2073.3581857075837,-2291.5101094519623,-1839.934771178284,-2206.7198180585406,-511.76827939283476,-1936.5626094212184,3043.112849161047,-2169.2998253302467,8966.242903836524,1832.0021505570066,-410.26319568479727,146.57775943961826,413.0561357724926,800.1718164373124,1168.2208385841227,1618.3903732312087,2065.4881466550637,2616.6377405629046,3087.281946591731,3762.111563092096,4060.722214396138,4954.104556041735,4475.485841875557,6062.706561198043,2989.0660480701004,7176.93930987209,-3534.560960851557,8134.042175059981,-14116.666929167655,-10425.714092901024,0.0,0.0,1.9,0.0
441.5814481073804,-62.412431808718566,-256.02385478601354,-564.3398625128009,-818.5404902794143,-1125.5044377881838,-1397.1110402596462,-1710.1454571041127,-1939.3686868677435,-2236.368462635688,-2287.822424428054,-2575.761997798351,-2118.587677183106,-2611.3352344061577,-765.9791986115484,-2479.717479844455,3112.168825958612,-2787.312496759362,9544.795089241721,2714.215254599043,-410.19263587590206,148.24843416602778,416.3387057340844,805.3148309801632,1175.8250332420207,1629.0752339767196,2079.8242311990425,2635.8621891181547,3111.3581001985126,3793.707552451985,4097.067943893446,5002.277353075559,4522.70976697243,6131.277631884152,3032.147735536193,7268.988968655445,-3546.26403017331,8238.778151162705,-14214.71544931249,-10575.224701429312,0.0,0.0,1.9,0.0
442.04687190203276,-51.3923938292927,-234.37149776963952,-530.41571517041,-768.3820048566822,-1055.0253856230217,-1302.547931346891,-1583.337916525695,-1780.558522994549,-2027.956258179444,-2048.0801735750756,-2258.0065159150226,-1807.0911065152636,-2159.029473670779,-481.80549054496265,-1872.5431930079378,3034.9735070043475,-2096.4572297553323,8898.051352419387,1728.019343537097,-410.17686925699047,148.62174716775155,417.0721974287407,806.4640398345941,1177.5241938695585,1631.4627707930679,2083.0276355717733,2640.157900572408,3116.737927271509,3800.7676901200457,4105.1894130757555,5013.041585682113,4533.261973728304,6146.5998676766885,3041.774357478324,7289.5575052466465,-3548.879086142142,8262.18145091862,-14236.624434105135,-10608.632912417861,0.0,0.0,1.9,0.0
441.54588673847104,-63.254433540932496,-257.678234029226,-566.9318854132756,-822.3729209526255,-1130.8894903689031,-1404.3362695726114,-1719.83436824366,-1951.5028041194328,-2252.2924945989566,-2306.1402733056043,-2600.0405589469137,-2142.3880172862155,-2645.8943016635867,-787.6918963978219,-2526.1094978934493,3118.067044489541,-2840.098279541598,9594.210467596635,2789.566960852222,-410.38553008514174,143.68119561972412,407.3649181813219,791.2550179611945,1155.0369226570137,1599.8652943646982,2040.6326896539588,2583.306990248247,3045.5394611254264,3707.3314205419765,3997.70712028777,4870.584060497197,4393.610470950387,5943.820173934405,2914.3723597729413,7017.34647761608,-3514.270543658262,7952.4542008478065,-13946.67345786686,-10166.497255137805,0.0,0.0,1.9,0.0
441.92921104730993,-54.178300140398505,-239.84529361121895,-538.9918649404617,-781.0622552661694,-1072.8427503727526,-1326.453834613405,-1615.3953312339622,-1820.7063190953788,-2080.643633378469,-2108.687900242263,-2338.336275581544,-1885.838590305168,-2273.3740408842255,-553.645653733817,-2026.0390957318498,3054.488768808448,-2271.1079933968003,9061.550558272587,1977.3333130447827,-410.41626934416604,142.95336904798444,405.93487222371203,789.0144725207208,1151.7241683329944,1595.2104531575874,2034.3871990791347,2574.9318922991274,3035.0507262152514,3693.5666821191585,3981.873165743259,4849.5976643216745,4373.037449202327,5913.947304925195,2895.6038967244667,6977.245202083214,-3509.1721216365218,7906.826152994208,-13903.958788699867,-10101.363215674864,0.0,0.0,1.9,0.0
441.8159737061248,-56.859469036150244,-245.11329960686385,-547.2455904571488,-793.2657858907517,-1089.9902631863345,-1349.460984567208,-1646.2475328473975,-1859.344740530866,-2131.350202729586,-2167.0170518433215,-2415.6460013763835,-1961.6255266046821,-2383.4197720566003,-622.7849532934815,-2173.7642501393384,3073.2703454653224,-2439.1926821004154,9218.902937081282,2217.274210402722,-410.21234054069816,147.78187841939882,415.4220091086053,803.8785831240169,1173.7014716244103,1626.091359788616,2075.8207094258637,2630.4935336723765,3104.63454852867,3784.8839973908566,4086.917967521002,4988.824527710904,4509.521925358768,6112.128346482188,3020.116662947759,7243.283008845288,-3542.995809154225,8209.529386659347,-14187.334236263034,-10533.472089362735,0.0,0.0,1.9,0.0
441.6273919599108,-61.32459959339883,-253.8864636488007,-560.9910736580584,-813.5891447003586,-1118.5471674400048,-1387.7763359259252,-1697.6277753973202,-1923.6918976633244,-2215.795256757726,-2264.1565038197386,-2544.3950777819227,-2087.8385994340533,-2566.686315886042,-737.9272703835994,-2419.7808670178497,3104.5485659373394,-2719.1153982404776,9480.952417060329,2616.8638947422587,-410.32710052573736,145.0646572327937,410.08316696246504,795.5138740312373,1161.3338464385147,1608.7132732434075,2052.50419423213,2599.226478468757,3065.4765762342386,3733.495603040631,4027.804494001667,4910.475258038545,4432.715921343906,6000.602887307807,2950.047683004027,7093.571470729379,-3523.9616863551223,8039.184550125376,-14027.866021442367,-10290.30483091791,0.0,0.0,1.9,0.0
441.3089956658845,-68.86340464686452,-268.6988353293018,-584.1985738398051,-847.9025512482517,-1166.7618682964214,-1452.4669336028355,-1784.3767802078555,-2032.3338885649835,-2358.369990440558,-2428.164113916504,-2761.771518494499,-2300.9333206474985,-2876.10856660436,-932.3304285525663,-2835.148635285764,3157.357863119705,-3191.729302803488,9923.3896355497,3291.5202554155367,-410.45984203937985,141.92167974913957,403.9077916363762,785.83851433627,1147.0283612214894,1588.6122468614385,2025.534257935696,2563.060246938314,3020.1830145897616,3674.055257412797,3959.4286410152886,4819.849588022604,4343.8753283907245,5871.602712784246,2868.9997258075246,6920.401912064349,-3501.945142499343,7842.148700152257,-13843.411030670733,-10009.03615011506,0.0,0.0,1.9,0.0
441.72016776394844,-59.12790725523166,-249.5703653874964,-554.2287635202631,-803.5907435305646,-1104.498142002469,-1368.9264864776592,-1672.3504439274861,-1892.0352853302375,-2174.2511628468046,-2216.367197959137,-2481.054912005519,-2025.7460611468218,-2476.525410724622,-681.2811673124384,-2298.749060562838,3089.1607454955574,-2581.4029443753466,9352.032987372308,2420.2793633761103,-410.4905758148522,141.19398299180807,402.4780007440342,783.5983685205828,1143.716197763623,1583.958235895235,2019.28988131211,2554.6866427782825,3009.696150459357,3660.2929740798318,3943.5975106283704,4798.866934997771,4323.3059760642145,5841.735171924396,2850.2346103180876,6880.307789027753,-3496.847629835708,7796.528790554152,-13800.70398012581,-9943.913728015046,0.0,0.0,1.9,0.0
441.9794949522282,-52.98770664872927,-237.5059953804938,-535.3267351908288,-775.6431844411438,-1065.2282665593943,-1316.2373342484007,-1601.6951758617324,-1803.5486334415891,-2058.126994624118,-2082.78639571805,-2304.0063023611233,-1852.184823371137,-2224.5073948663685,-522.9438205815151,-1960.4406145240046,3046.148666487187,-2196.4687057465817,8991.677034667331,1870.785728034809,-410.51566385314095,140.59996277328958,401.31085977483656,781.769733317988,1141.0124725624717,1580.159158073257,2014.1925850412051,2547.851254102671,3001.135703732981,3649.0587965564864,3930.674529400485,4781.738756243762,4306.515175439741,5817.354242678521,2834.916611584784,6847.578881699381,-3492.686520752666,7759.289173361951,-13765.84213520647,-9890.754173531448,0.0,0.0,1.9,0.0
441.69437559363195,-59.73859948537677,-250.7702638111034,-556.1087219414444,-806.3703525836673,-1108.4038462874573,-1374.1668455396166,-1679.3776774017615,-1900.8359930369475,-2185.8006433660994,-2229.652880835076,-2498.663817191752,-2043.0081192116986,-2501.590625048427,-697.0290872291073,-2332.396550717658,3093.4386419586654,-2619.687743811701,9387.873279011836,2474.9309155403353,-410.3009245772405,145.6844364048353,411.3009195525913,797.4218057363238,1164.1548153339393,1612.6770933714915,2057.822528443057,2606.358275310516,3074.4082361318324,3745.216936761257,4041.28786430734,4928.346179054498,4450.234834244697,6026.041065359581,2966.02992778324,7127.719626596055,-3528.3032367819433,8078.03901720443,-14064.239607099946,-10345.769583650184,0.0,0.0,1.9,0.0
441.95319902444373,-53.61032656748239,-238.72932952707936,-537.2434118749848,-778.4770832135446,-1069.2102548061207,-1321.580044978424,-1608.8596612039662,-1812.5212314909213,-2069.902052930196,-2096.3315668827418,-2321.9591345188887,-1869.7840339897487,-2250.0621684875214,-538.9993197796971,-1994.7452880337567,3050.5101163547665,-2235.5012617860393,9028.217338194832,1926.504702768405,-410.5164508926349,140.58132771964938,401.2742453034042,781.7123670607505,1140.9276537874134,1580.0399769063617,2014.032677361194,2547.6368205905737,3000.867153289483,3648.7063682955313,3930.2691215463306,4781.201426809417,4305.988429921143,5816.589386641514,2834.4360694496154,6846.552140589238,-3492.555982273685,7758.120926419375,-13764.748481542541,-9889.08650099526,0.0,0.0,1.9,0.0
441.9149379364947,-54.51625068333692,-240.5093045538133,-540.0322138060034,-782.6004611604676,-1075.0041253137783,-1329.3537932203876,-1619.2841270125373,-1825.576536528982,-2087.034992261309,-2116.04005492309,-2348.0808552092003,-1895.391228448579,-2287.2448621693284,-562.3603840344846,-2044.6592565895685,3056.8561109180864,-2292.294391570944,9081.384192003756,2007.5768969637375,-410.31750346949013,145.29189083692563,410.5296393905829,796.2133912447867,1162.368116322791,1610.1665539899836,2054.4540891481106,2601.84125479695,3068.7512478764065,3737.7930706535362,4032.747988367254,4917.027388206605,4439.13899252356,6009.929449362783,2955.90735571366,7106.091427705302,-3525.5534567793075,8053.430012107147,-14041.201901987602,-10310.640228255867,0.0,0.0,1.9,0.0
441.61988333393396,-61.50238453950169,-254.23577851767936,-561.5383678429962,-814.3983455069352,-1119.6841975035074,-1389.3019111772865,-1699.673546182893,-1926.2539629175196,-2219.157545761049,-2268.024236689618,-2549.5213887158193,-2092.863936106993,-2573.983310269665,-742.5118106038022,-2429.576336688071,3105.793948724248,-2730.2608830897507,9491.386255904745,2632.7740746437566,-410.25533712538567,146.76382995073368,413.42173025250116,800.744616946135,1169.0677517154368,1619.5803939104462,2067.084820439599,2618.7788532888035,3089.963415383957,3765.6305495898882,4064.770200672558,4959.469775670661,4480.745381396853,6070.343627697391,2993.8642480802214,7187.191291623523,-3535.8643839678825,8145.707088649759,-14127.587030909031,-10442.365757346404,0.0,0.0,1.9,0.0
441.782300738304,-57.6567582878979,-246.67982701241283,-549.6999702046753,-796.89470453438,-1095.0893554787701,-1356.3025354245838,-1655.4219376230853,-1870.8345046187503,-2146.428627207588,-2184.362175335661,-2438.6353078257357,-1984.1620067889467,-2416.1436630205835,-643.3446503936277,-2217.692731453483,3078.85535326365,-2489.1754026242434,9265.694230415114,2288.6245452033836,-410.4014864885719,143.30338901489984,406.6225973782573,790.0919759726006,1153.317309074012,1597.4490185446834,2037.3907256032437,2578.9595709138443,3040.094876570971,3700.186299337064,3989.487892221662,4859.690257816807,4382.931246295339,5928.313502957706,2904.629861282474,6996.530355627768,-3511.6240100167497,7928.7691933858405,-13924.500752577362,-10132.68690639033,0.0,0.0,1.9,0.0
441.7645180439531,-58.077806727137954,-247.50711010927114,-550.9961281067725,-798.8111364084192,-1097.7821860307831,-1359.915558315624,-1660.266940627836,-1876.902248837238,-2154.391542916131,-2193.522134755449,-2450.775960167964,-1996.063521588926,-2433.4251492783815,-654.2022260808267,-2240.8913616830605,3081.8047957849626,-2515.57127647508,9290.404711619243,2326.3046557951225,-410.37192104080304,144.00342277446214,407.99803554529456,792.2469638598284,1156.5035624341922,1601.92610980778,2043.397725635703,2587.0148570525907,3050.183088248325,3713.425416932121,4004.7172107719643,4879.875266665305,4402.7186658477085,5957.045645448257,2922.681631082729,7035.1003223193575,-3516.527743500725,7972.654886859537,-13965.584317755534,-10195.333734928468,0.0,0.0,1.9,0.0
441.7705321974654,-57.93540704932184,-247.22732081309732,-550.5577641313547,-798.1629941615522,-1096.871463730664,-1358.693624571833,-1658.628348003689,-1874.8501219526768,-2151.6984641019512,-2190.4242126430363,-2446.669959952729,-1992.0383983127444,-2427.580505654987,-650.530165729304,-2233.0455245704557,3080.807286649056,-2506.644123250074,9282.047562573529,2313.561144338981,-410.22781826114107,147.41540582296489,414.7019575523411,802.7504318069392,1172.033445577244,1623.747571019912,2072.6760026541974,2626.2765347164386,3099.353298752895,3777.953226203398,4078.9453121336696,4978.257533593487,4499.16307203424,6097.0868677809085,3010.666434477355,7223.091359973547,-3540.428670181737,8186.554917425374,-14165.826700902948,-10500.67603395187,0.0,0.0,1.9,0.0
441.97311220263816,-53.13883374010743,-237.8029324452864,-535.7919656845534,-776.3310501285031,-1066.1948053466217,-1317.534158053359,-1603.434194800156,-1805.726531390895,-2060.9851272627575,-2086.0741837522123,-2308.363951742782,-1856.4566390152272,-2230.710245897759,-526.8409347270245,-1968.7673084955463,3047.2073111145405,-2205.942987696979,9000.546377935205,1884.3102657615282,-410.48920450441983,141.22645208461438,402.54179656850914,783.6983215613452,1143.8639831483692,1584.1658931583956,2019.568499083348,2555.060264528761,3010.164063733328,3660.907033246349,3944.3038796588185,4799.803159759169,4324.223759766547,5843.067831397112,2851.0718907970904,6882.096748256665,-3497.0750756964094,7798.564304792183,-13802.60952553837,-9946.819424640817,0.0,0.0,1.9,0.0
442.04836833643606,-51.35696211556888,-234.30188093873744,-530.3066419817395,-768.2207348947163,-1054.7987808131304,-1302.2438912857847,-1582.9302039111233,-1780.047915290575,-2027.286169599482,-2047.3093523803805,-2256.9848659584504,-1806.0895802599061,-2157.5752165857816,-480.89181297526994,-1870.5910014036785,3034.7253079987972,-2094.2359863953734,8895.971936800335,1724.8485185921827,-410.58747094954975,138.89975552716396,397.9702638122258,776.535805693086,1133.2738585318093,1569.2854210132114,1999.603081487159,2528.286974913377,2976.633955886361,3616.904284798566,3893.6863163337666,4732.714408532889,4258.456472877505,5747.571040970735,2791.0733690006114,6753.902060821946,-3480.7765762387457,7652.701779094841,-13666.060411074432,-9738.600665532027,0.0,0.0,1.9,0.0
441.73403305400126,-58.79961286368314,-248.92532701361222,-553.2181402050949,-802.0964882934715,-1102.3985233256542,-1366.1093874458134,-1668.5727614475745,-1887.304223037198,-2168.0424221852777,-2209.2251140056023,-2471.5887610863138,-2016.4663674297412,-2463.0509159106573,-672.8154401693147,-2280.660927513337,3086.861044683934,-2560.8218982756625,9332.766053618347,2390.899919552848,-410.23797319722473,147.17496315425342,414.2295317144901,802.0102517196538,1170.9390536684866,1622.2098111870514,2070.6127605079673,2623.5097616603234,3095.888270720521,3773.4059471584596,4073.714452852717,4971.324528647261,4492.36662826286,6087.2181534538795,3004.4661394821196,7209.843618945527,-3538.7443702762866,8171.481367929413,-14151.715606736132,-10479.1585416663,0.0,0.0,1.9,0.0
441.7935726063224,-57.38986945147769,-246.15543931291438,-548.8783780992037,-795.6799410438773,-1093.3824582568504,-1354.012358372938,-1652.3508486671835,-1866.9883599957946,-2141.3811953556765,-2178.555976623153,-2430.9397453486467,-1976.6180257796805,-2405.1894940480765,-636.4623882474583,-2202.98787842881,3076.9857981056393,-2472.4439214278887,9250.031064497205,2264.7403553776458,-410.4045795522336,143.23015323812217,406.4787024831285,789.8665265405575,1152.9839712314265,1596.9806364761616,2036.7622883124077,2578.1168470638686,3039.0394731449937,3698.801256030123,3987.8946390777314,4857.57855277248,4380.8611360466875,5925.307618209811,2902.7413303616086,6992.495262364389,-3511.1109937078427,7924.177982107151,-13920.202692939381,-10126.13295217404,0.0,0.0,1.9,0.0
441.7262824356519,-58.98312756135283,-249.28589979617868,-553.783072890508,-802.9317684727926,-1103.5721982248228,-1367.6841297829928,-1670.6844644690598,-1889.9488599521023,-2171.5130729042003,-2213.217498316487,-2476.8802856135358,-2021.6536634411614,-2470.5830818785626,-677.5477334949726,-2290.7720910161684,3088.1465643596102,-2572.3265859969147,9343.536160013953,2407.3228615571893,-410.3867361903408,143.652638123663,407.30880793489206,791.167106407865,1154.9069411944333,1599.6826538744772,2040.3876373732573,2582.9783792551107,3045.127918047455,3706.7913379796905,3997.0858485663593,4869.760624099936,4392.80325399129,5942.648061894501,2913.6359476963235,7015.7730369179535,-3514.0704985321554,7950.663907982236,-13944.997476292183,-10163.941612029153,0.0,0.0,1.9,0.0
441.6738327671189,-60.22500076216238,-251.72595326694716,-557.6060623874109,-808.584242535769,-1111.5146432763063,-1378.3406620912042,-1684.9746952854857,-1907.845539340501,-2194.9995193178743,-2240.234599078337,-2512.6888752178015,-2056.756922073291,-2521.5544491252367,-709.5719164564828,-2359.1959455039746,3096.845880822582,-2650.180640894062,9416.419186013747,2518.4595269034344,-410.2020267659719,148.02608204882824,415.9018245336164,804.6303409633038,1174.8129817913443,1627.6531729558624,2077.9162243931787,2633.3035840423754,3108.1537758378518,3789.502404069248,4092.2306468594034,4995.865977339461,4516.424677748288,6122.15142527247,3026.413941720869,7256.737968398655,-3544.7064545437133,8224.838713612824,-14201.666053353041,-10555.32615397348,0.0,0.0,1.9,0.0
441.8040316015815,-57.142227353628186,-245.66886793037463,-548.1160352623073,-794.5527804497968,-1091.7986542476456,-1351.8873378680025,-1649.5012318662168,-1863.4195808122172,-2136.697759996584,-2173.1684930175443,-2423.7991498001747,-1969.6180803727916,-2395.025287021688,-630.0764417238241,-2189.3434686331257,3075.2510662691257,-2456.919034132319,9235.497450726365,2242.5785783671035,-410.41423874612974,143.00144838636766,406.0293393207536,789.1624802281584,1151.9430048554452,1595.5179463076895,2034.7997685922583,2575.485141085932,3035.7435992895707,3694.475964002124,3982.919137527062,4850.984000134606,4374.396478003101,5915.920670327929,2896.8437185719513,6979.894243583409,-3509.5089171954487,7909.840286353139,-13906.780467804563,-10105.665891123213,0.0,0.0,1.9,0.0
441.87867797711624,-55.37479323777279,-242.19618348477877,-542.6751560677216,-786.5081785614822,-1080.4949653233161,-1336.720959575052,-1629.1633733405442,-1837.9490241674462,-2103.271846128088,-2134.717751380018,-2372.836359994376,-1919.6591177071577,-2322.4828299233486,-584.4996199904008,-2091.962629215187,3062.870197840375,-2346.1171321486954,9131.77031776784,2084.408860490842,-410.27663437059016,146.25956592150487,412.43094376862945,799.1922877108876,1166.7725581951954,1616.3553550630684,2062.7577233772645,2612.9762888125597,3082.6964483652564,3756.0938513117253,4053.7998761823537,4944.929657136116,4466.491663306942,6049.646646056526,2980.8607921683297,7159.407707689377,-3532.3320166230515,8114.0943611134635,-14097.99279530849,-10397.238587990072,0.0,0.0,1.9,0.0
441.86674497745497,-55.6573359589205,-242.75132820373665,-543.5449371823948,-787.7941918234676,-1082.3019775364944,-1339.1454628493675,-1632.4145915042689,-1842.0207574968867,-2108.6153260314522,-2140.8645022520313,-2380.9832918693783,-1927.6455773762154,-2334.0794960059848,-591.7855488651699,-2107.529968987132,3064.8494083966243,-2363.8299683260457,9148.352178549088,2109.693934588744,-410.2322897217713,147.30953317395824,414.4939371749837,802.4245128392419,1171.5515586865583,1623.07045864461,2071.767507868324,2625.0582584709027,3097.827564167518,3775.950950653595,4076.6420398825676,4975.204765959627,4496.170435546822,6092.7414372037,3007.93629653175,7217.258063250785,-3539.6870327132083,8179.9176736349,-14159.613249176457,-10491.20136827432,0.0,0.0,1.9,0.0
441.640865490372,-61.005581063782074,-253.25965064486581,-560.0090052083822,-812.1371092067078,-1116.506872873223,-1385.0388332010302,-1693.9568302280727,-1919.094510147905,-2209.7619422428206,-2257.2162173538227,-2535.19639018081,-2078.8211007417085,-2553.59253897135,-729.7007398782696,-2402.2038088633435,3102.3138424985386,-2699.1158635644833,9462.229864873207,2588.314558484662,-410.3959785348555,143.43380320690676,406.8788373852587,790.4934437570922,1153.9108985240537,1598.283087227545,2038.509811703464,2580.460246576565,3041.9742801675748,3702.6527072618146,3992.3250686187257,4863.450664462113,4386.61758324663,5933.6662149809545,2907.9928518875663,7003.7158248113865,-3512.5375608659247,7936.944966535393,-13932.154497624524,-10144.357822767844,0.0,0.0,1.9,0.0
441.85772434962576,-55.870921219390425,-243.1709841357033,-544.2024392577719,-788.7663403029619,-1083.6679698073433,-1340.9782411275469,-1634.872316388352,-1845.0987423691022,-2112.6546746277554,-2145.5110752632404,-2387.1418811087005,-1933.682859303825,-2342.8458762881364,-597.2932717539168,-2119.2979391479425,3066.3455722322324,-2377.219804397237,9160.887065419725,2128.807925919064,-410.2349392316868,147.24679958614843,414.3706771622532,802.2313934086666,1171.2660223097932,1622.6692437145282,2071.2291900287296,2624.336383290283,3096.9235081850006,3774.7645259581113,4075.2772631524185,4973.3958846045625,4494.39718419179,6090.1666037106115,3006.3185855828756,7213.801612270978,-3539.2475842029344,8175.984853328939,-14155.931541845997,-10485.587267188132,0.0,0.0,1.9,0.0
441.7520394305702,-58.37326818865165,-248.08763778589116,-551.9056783432488,-800.1559502311395,-1099.6718205118518,-1362.4509174860084,-1663.6668146864529,-1881.1601545888552,-2159.979343485342,-2199.949934361738,-2459.295395328468,-2004.4151472502408,-2445.552051317744,-661.8212904817246,-2257.1704890710234,3083.8745020592887,-2534.093999097299,9307.744747104465,2352.7458428043196,-410.30276990288024,145.64074377505278,411.21507154594565,797.2873021074807,1163.9559452471099,1612.397655599399,2057.44760137681,2605.8555044101035,3073.778580131519,3744.390616882332,4040.3373259841023,4927.086331187707,4448.9998019255945,6024.247747918424,2964.90322608968,7125.3122810948025,-3527.9971701251816,8075.299890474144,-14061.67537528192,-10341.859480174873,0.0,0.0,1.9,0.0
441.9306905005212,-54.143270495295496,-239.77646677194116,-538.8840294824668,-780.9028153487892,-1072.61871700816,-1326.153244710331,-1614.9922452233047,-1820.201505618813,-2079.981148768449,-2107.9258261017885,-2337.3262190109826,-1884.848429077788,-2271.9362862849284,-552.7423443106594,-2024.1090570294468,3054.2433862938337,-2268.9119560610698,9059.494739260199,1974.1984696930795,-410.40029708138536,143.33155114457054,406.67793080223964,790.1786704278678,1153.4454909985934,1597.6291304550518,2037.632385239435,2579.283632427677,3040.5007220101847,3700.718904686212,3990.1005627005165,4860.50229408769,4383.727287679289,5929.469387605224,2905.3560780475727,6998.08201270893,-3511.821285602846,7930.534700408241,-13926.15353089984,-10135.207167708588,0.0,0.0,1.9,0.0
441.8301822332801,-56.52304767778651,-244.4522932303198,-546.2099490405888,-791.7345401856352,-1087.8386681971017,-1346.574147910299,-1642.376333384065,-1854.4965602223363,-2124.9877639472916,-2159.698164743527,-2405.9455147541603,-1952.1161129548814,-2369.6117145050903,-614.1096560577084,-2155.228343184102,3070.913715285151,-2418.1021497346856,9199.15904807275,2187.1674749138665,-410.34672806504403,144.59992759450972,409.17005830980577,794.0832476811748,1159.2185964903201,1605.7410780066543,2048.516342335193,2593.8788360629173,3058.779340699778,3724.7065835756994,4017.6942448692207,4897.075087340047,4419.579697244272,5981.528552646969,2938.063700309169,7067.9661246340265,-3520.7062572277027,8010.050265955275,-14000.591979086694,-10248.715639531105,0.0,0.0,1.9,0.0
441.72496735701316,-59.01426524207852,-249.34707963756432,-553.8789273029277,-803.0734938371019,-1103.771340389297,-1367.9513226806816,-1671.0427656567535,-1890.3975861875526,-2172.1019522408023,-2213.894902300599,-2477.778119969404,-2022.5338129237293,-2471.861094924598,-678.3506808329951,-2292.487692998132,3088.364683677531,-2574.2786328637712,9345.363567494873,2410.109408517898,-410.16774639873336,148.83775295496025,417.49660925714926,807.1289932773095,1178.5073595565489,1632.8442436403366,2084.8811844402444,2642.643478468157,3119.850794465716,3804.8528160224205,4109.888644973211,5019.269969250634,4539.367675228874,6155.465595976586,3047.3444985300353,7301.458839974435,-3550.3922057687682,8275.723031909885,-14249.301376890404,-10627.963519624798,0.0,0.0,1.9,0.0
441.868472133455,-55.61644135352549,-242.67097779052426,-543.4190469967265,-787.6080571215011,-1082.0404346041846,-1338.794545632909,-1631.9440174118272,-1841.4314238625598,-2107.8419226240803,-2139.9748351894295,-2379.8041230532835,-1926.4896349502637,-2332.401020326475,-590.7309997094801,-2105.276786821542,3064.562941859993,-2361.2662517796707,9145.952156870493,2106.0342291458765,-410.20699221009386,147.90851315720954,415.6708231783061,804.2684162137052,1174.2778586171264,1626.901256831373,2076.907363968073,2631.9507191610064,3106.459486265518,3787.2789278385826,4089.6729214236857,4992.47595628452,4513.101430806833,6117.3259347942585,3023.382192754463,7250.260240290423,-3543.882884939072,8217.468222669931,-14194.766172752457,-10544.804777966583,0.0,0.0,1.9,0.0
441.9345170161203,-54.05266844911807,-239.5984503394851,-538.605119630572,-780.4904337023315,-1072.039268339956,-1325.3757872129183,-1613.9496877789798,-1818.89583627282,-2078.2676726277095,-2105.9547676994944,-2334.71376913923,-1882.2874373013613,-2268.2176214814344,-550.4059894418467,-2019.117129342876,3053.608719349368,-2263.2320390938175,9054.17748845798,1966.0903880724422,-410.3160216740681,145.32697597118317,410.59857525046885,796.321397516057,1162.5278087932966,1610.3909422257047,2054.7551551871557,2602.2449792992384,3069.2568609806704,3738.4566046443124,4033.511269638261,4918.039044714289,4440.130722173107,6011.369481375908,2956.8120959851417,7108.024523602953,-3525.7992279817013,8055.629527981859,-14043.260977432474,-10313.780037221235,0.0,0.0,1.9,0.0
441.84873507232464,-56.08376417534589,-243.589181575996,-544.8576562194451,-789.7351101321519,-1085.0292146445133,-1342.804649682229,-1637.3214995800358,-1848.1660298684433,-2116.6799846824206,-2150.141499356819,-2393.279066498066,-1939.6991589787772,-2351.581789481129,-602.7818528441773,-2131.0250103536337,3067.8365362303985,-2390.563104805063,9173.378387958188,2147.8554875862656,-410.3615964264628,144.24788308041843,408.4783552888962,792.9995118501452,1157.6162408758019,1603.4895645507145,2045.4954431360447,2589.827860983035,3053.7060145122796,3718.0486778802906,4010.0354741091774,4886.924117351837,4409.62867351451,5967.079259197968,2928.985528737976,7048.569423979686,-3518.240186898558,7987.9803049904385,-13979.931198591625,-10217.210769695022,0.0,0.0,1.9,0.0
441.7995123621522,-57.24923131520336,-245.87911112407608,-548.4454368638754,-795.03981657974,-1092.4830019609888,-1352.8055404455304,-1650.7325260985435,-1864.9616187536246,-2138.721431019094,-2175.496377064398,-2426.8845380221474,-1972.6426949116492,-2399.4171510380356,-632.835752772286,-2195.239097505193,3076.000628562894,-2463.627200711094,9241.777296777165,2252.1544863282174,-410.33681579753744,144.83462457386725,409.6311949066203,794.8057401938102,1160.2868364619853,1607.242091045959,2050.5302805934084,2596.5794934364512,3062.161567325724,3729.145199403726,4022.800105882128,4903.842419008744,4426.213731045795,5991.161441056716,2944.1158310943742,7080.897293454156,-3522.3503085703587,8024.763613146815,-14014.365870085854,-10269.718943017655,0.0,0.0,1.9,0.0
441.7682592586143,-57.98922439405578,-247.33306204217774,-550.7234357501391,-798.4079476275803,-1097.2156545085031,-1359.1554320026687,-1659.2476240110366,-1875.62568564356,-2152.7162638106156,-2191.5950154455813,-2448.2217473719184,-1993.5596197771326,-2429.789381438938,-651.9179535415673,-2236.010714703198,3081.1842769181167,-2510.017976960302,9285.205993665611,2318.377320598398,-410.23703220165305,147.19724342398138,414.2733083797587,802.0788394411339,1171.0404639241917,1622.352305490717,2070.8039478781147,2623.766140708798,3096.209352565218,3773.827314236264,4074.1991629124614,4971.966965587858,4492.996410959615,6088.132623686063,3005.0406809089764,7211.071201831851,-3538.9004435068723,8172.878136734491,-14153.023191001539,-10481.152429169546,0.0,0.0,1.9,0.0
441.6423477747092,-60.970484376586455,-253.19069208157555,-559.9009633689059,-811.9773641450399,-1116.2824107415913,-1384.7376680133161,-1693.5529727700368,-1918.588730532827,-2209.0981897347547,-2256.4526847157913,-2534.1844005106823,-2077.829044491692,-2552.152032721477,-728.7957016539654,-2400.2700763512944,3102.06799035818,-2696.9156233371414,9460.170111326597,2585.1737155041105,-410.03104984444593,152.07437567278055,423.8559803151315,817.0926309843268,1193.2390776923123,1653.5441814926257,2112.6546918503745,2679.887285365553,3166.4938809068226,3866.064190853929,4180.301761221035,5112.595837364041,4630.85527978422,6288.309339609614,3130.807285208183,7479.78799759984,-3573.064734069573,8478.62957864108,-14439.252216851313,-10917.61262019719,0.0,0.0,1.9,0.0
441.61651153066043,-61.582220169306765,-254.39264091286998,-561.7841342974991,-814.7617230442382,-1120.1947891651382,-1389.9869818956854,-1700.5922145085294,-1927.4044770483486,-2220.667406215964,-2269.7610704075737,-2551.823396113494,-2095.120600274577,-2577.2600789380344,-744.5705319020337,-2433.975063947419,3106.353196968159,-2735.2658445328616,9496.071647505676,2639.9186572329772,-410.4859540220742,141.30341516337762,402.69301492402064,783.9352451359349,1144.2142860605918,1584.6581133096881,2020.2289203897894,2555.945878407778,3011.2731814129265,3662.362567672329,3945.9782206614173,4802.0223390250285,4326.399227288935,5846.226699216018,2853.056537598526,6886.337205667498,-3497.614201725494,7803.389183579057,-13807.12633287126,-9953.70693923232,0.0,0.0,1.9,0.0
441.91424278373506,-54.53271011408583,-240.54164432140715,-540.0828826105625,-782.6753774277324,-1075.1093921987615,-1329.4950318380222,-1619.4735256263782,-1825.8137339760056,-2087.34627487468,-2116.3981318147817,-2348.555451968382,-1895.8564769536229,-2287.920422027263,-562.784823355091,-2045.5661266995746,3056.9714091593632,-2293.3262468476782,9082.350162691082,2009.0498703984567,-410.2099978158652,147.83734813320882,415.53099693757486,804.0493414025843,1173.9539459605817,1626.4461183465976,2076.2966958511915,2631.131823473793,3105.433924554913,3785.9330468713742,4088.1247177891164,4990.423960066799,4511.089853284919,6114.4050419593295,3021.5470603733165,7246.339239989394,-3543.3843742550953,8213.006828686699,-14190.589641495902,-10538.436137944424,0.0,0.0,1.9,0.0
441.8407786411888,-56.27215199454997,-243.95932914945035,-545.4375903491368,-790.5925706688988,-1086.234055767406,-1344.4212083450955,-1639.4892775919036,-1850.880893509364,-2120.2427964219,-2154.239899006793,-2398.7111042431416,-1945.0242004833717,-2359.3139675384464,-607.6398093436044,-2141.4046696571795,3069.156192097548,-2402.3732925128024,9184.434487975492,2164.7145308423546,-410.2324662761694,147.30535279814956,414.48572350564393,802.4116439500325,1171.5325314159272,1623.0437229078188,2071.731636013647,2625.0101549154597,3097.7673206410614,3775.8718909387853,4076.5510953339663,4975.084227636078,4496.052271497954,6092.569858171435,3007.828497219965,7217.027735924565,-3539.6577492079637,8179.655602513359,-14159.36791145613,-10490.827261741193,0.0,0.0,1.9,0.0
441.75323012291636,-58.345075659849044,-248.03224462803212,-551.8188903024933,-800.0276299335403,-1099.4915141715073,-1362.2089969780343,-1663.3424033490173,-1880.7538710396325,-2159.44616318965,-2199.336602505586,-2458.482482465641,-2003.618246540373,-2444.3949188942406,-661.0942897665198,-2255.6171569777416,3083.6770135141205,-2532.3265862116086,9306.090184608698,2350.2228608678797,-410.44235160403946,142.33580828604363,404.72147838538024,787.1133699658283,1148.91329665665,1591.2608209128211,2029.087901021079,2567.825622622713,3026.1510358115065,3681.8873031007997,3968.438057075303,4831.790709504203,4355.581242540089,5888.6001788978465,2879.6788579181525,6943.219274259154,-3504.8461111179963,7868.110759470347,-13867.715396665542,-10046.096990447411,0.0,0.0,1.9,0.0
441.7653438379469,-58.0582540528784,-247.46869268368607,-550.9359370431339,-798.7221410221796,-1097.6571361930833,-1359.7477765270398,-1660.0419480678302,-1876.6204745423572,-2154.021760526162,-2193.096763972887,-2450.212171776499,-1995.5108382818762,-2432.622630512158,-653.6980212850963,-2239.81406220606,3081.6678293846394,-2514.345503194515,9289.257204711317,2324.554864402993,-410.4120722205724,143.05274611396726,406.13012996759653,789.3203954469857,1152.1764901125414,1595.8460227918295,2035.2399551643398,2576.0754238839127,3036.4828527089985,3695.446112454273,3984.035125788608,4852.463136108192,4375.8464790567905,5918.026131161715,2898.1665330582546,6982.7206097084545,-3509.868257567956,7913.056183281549,-13909.791027752697,-10110.256584069659,0.0,0.0,1.9,0.0
441.88906766672284,-55.12879210603455,-241.71283630251128,-541.9178647922594,-785.3884869453045,-1078.9216561773299,-1334.6100202319258,-1626.3326391404903,-1834.4038930176612,-2098.6194449210834,-2129.3659672076205,-2365.7430806382717,-1912.7055564941218,-2312.385974642482,-578.1559890802658,-2078.4086322582507,3061.1469609681867,-2330.6951184200707,9117.33300902078,2062.393935510344,-410.3391427995174,144.7795272347007,409.5229387088835,794.6361282204309,1160.036056985446,1606.889713987081,2050.057489466979,2595.9454884810675,3061.3675575157567,3728.1031922018738,4021.6014565371443,4902.253723655838,4424.656328631479,5988.900029055147,2942.6950359374205,7077.861578814536,-3521.9643519104266,8021.309515215466,-14011.13231841396,-10264.788218133774,0.0,0.0,1.9,0.0
441.641346703736,-60.99418715605009,-253.23726370452687,-559.973930140331,-812.0852490306604,-1116.4340027284888,-1384.9410619175464,-1693.8257205787525,-1918.9303121456167,-2209.546459386752,-2256.9683415395843,-2534.8678544363556,-2078.499036250302,-2553.124888157061,-729.4069252129366,-2401.576035408928,3102.2340282279956,-2698.4015701438034,9461.561179520935,2587.2949046157864,-410.3631261419963,144.21166336957185,408.40719018544326,792.8880128844554,1157.4513842845422,1603.2579200713094,2045.1846412520745,2589.4110808782048,3053.1840509403814,3717.363686593045,4009.2475099228413,4885.879745995704,4408.60487340854,5965.592659571266,2928.0515310640494,7046.573815816982,-3517.9864679716084,7985.709661387876,-13977.805536968246,-10213.969425894422,0.0,0.0,1.9,0.0
441.81172427428,-56.960084644919675,-245.3109908574918,-547.5553261177799,-793.7237449802495,-1090.6337539591625,-1350.324368596553,-1647.405316327564,-1860.794715693039,-2133.253056505345,-2169.205956511546,-2418.547185690641,-1964.4695655475111,-2387.5494329220533,-625.3795278997911,-2179.3078980623313,3073.975157377599,-2445.50035758983,9224.807863645585,2226.2784173160817,-410.39646603732126,143.42226044256506,406.85615795982085,790.4579104398563,1153.8583608002623,1598.2092650451893,2038.410763050173,2580.327423997912,3041.8079369394436,3702.434409151482,3992.073954339262,4863.117836442336,4386.291311024794,5933.192454371498,2907.6951985717096,7003.079849581476,-3512.4567038348005,7936.221340969686,-13931.477075994026,-10143.3248472498,0.0,0.0,1.9,0.0
441.6417975121359,-60.98351318536993,-253.2162913042688,-559.9410713266319,-812.036665691312,-1116.3657369576995,-1384.849468410442,-1693.702895224924,-1918.7764891588502,-2209.344592031973,-2256.736128007702,-2534.5600775535386,-2078.197321727442,-2552.6867863301804,-729.1316755219455,-2400.987928453001,3102.1592571048122,-2697.732410075211,9460.934745732622,2586.3396785951018,-410.28538587538696,146.052352876727,412.023808061075,798.5544018889298,1165.8294132851086,1615.0301165007743,2060.9796251355283,2610.591888941742,3079.7102936555775,3752.1750146933446,4049.2919313888824,4938.954806375922,4460.634500713243,6041.141806415369,2975.5173894804916,7147.990829125743,-3530.880490098855,8101.104004209858,-14085.831880616122,-10378.694853183606,0.0,0.0,1.9,0.0
441.78861640417614,-57.50721956213181,-246.38601079597413,-549.2396293452886,-796.214068407229,-1094.1329751428889,-1355.01934141084,-1653.7011960053642,-1868.6794966673306,-2143.600533923901,-2181.1089423920243,-2434.323457919935,-1979.9350884968117,-2410.0060047801585,-639.488495437674,-2209.453552144954,3077.8078351315107,-2479.8006966386665,9256.918105124763,2275.2421521733663,-410.3886543046065,143.60722216511647,407.2195738823861,791.0272976557932,1154.7002272179507,1599.392194446655,2039.9979223326081,2582.45577793407,3044.473426987503,3705.9324261755073,3996.09781885865,4868.451084982333,4391.51950920069,5940.784011954747,2912.464806336415,7013.270740261416,-3513.7523599147335,7947.816743894349,-13942.332105368532,-10159.877285219356,0.0,0.0,1.9,0.0
441.6901116002377,-59.83955987789011,-250.96863249803187,-556.4195189857317,-806.8298809797379,-1109.0495421358098,-1375.0331881613965,-1680.5394283047037,-1902.2909368867886,-2187.710017726715,-2231.8492863101187,-2501.5749431099366,-2045.8619039360306,-2505.734437187337,-699.6325527676083,-2337.959195279752,3094.1458690776763,-2626.017034063235,9393.798440221488,2483.9659775299747,-410.28698688003624,146.0144451963141,411.9493264110123,798.4377066722586,1165.6568737886396,1614.7876765607512,2060.6543387742486,2610.1556853951074,3079.164004717434,3751.458100365414,4048.4672452575714,4937.861763584479,4459.562987866113,6039.58592593659,2974.539864179463,7145.902218495313,-3530.6149469636603,8098.727540505955,-14083.607155569427,-10375.302451185775,0.0,0.0,1.9,0.0
441.5556939009927,-63.0222251556595,-257.22198706785184,-566.2170538060735,-821.3160080002684,-1129.404393231229,-1402.3436859888416,-1717.1623471288938,-1948.156440731831,-2247.9009433684396,-2301.0885519852454,-2593.3449842750897,-2135.8243270661014,-2636.3635550104914,-781.7039390200334,-2513.315443949521,3116.440425747372,-2825.5409444488487,9580.582627229403,2768.786364638282,-410.5125439680186,140.6738336234945,401.45600247121854,781.9971377620931,1141.3487009837108,1580.63160177308,2014.826471900911,2548.701285733362,3002.200259215775,3650.455850432022,3932.281598629417,4783.86877319067,4308.603236896885,5820.386193314953,2836.8215191275212,6851.648965755653,-3493.203985743011,7763.920197876617,-13770.177465979987,-9897.364961146824,0.0,0.0,1.9,0.0
441.65607458194035,-60.64546890216525,-252.55209617949708,-558.900433890769,-810.4980331320456,-1114.2037624979982,-1381.948705417755,-1689.813020778548,-1913.9049208323565,-2202.9514603245257,-2249.381933998288,-2524.812794990473,-2068.642033888854,-2538.812117579694,-720.4145279434497,-2382.362602766086,3099.7912583464317,-2676.5401352541917,9441.095610583909,2556.0877057574507,-410.34827640960066,144.56326677942684,409.0980265201812,793.9703908202921,1159.0517321869834,1605.5066124353898,2048.201755338489,2593.4569801847433,3058.251020374081,3724.0132500946793,4016.8966844299403,4896.017997065839,4418.543428748159,5980.023848407724,2937.118327907545,7065.946212878145,-3520.4494483747167,8007.751969229518,-13998.440430008763,-10245.434820896688,0.0,0.0,1.9,0.0
441.7976882762635,-57.2924209692336,-245.96397088797096,-548.5783921405284,-795.2363973590956,-1092.7592229606319,-1353.176151509264,-1651.229509309227,-1865.5840264180222,-2139.5382386478077,-2176.4359731882932,-2428.12988304572,-1973.8635100552126,-2401.189824557229,-633.9494843469843,-2197.6187306502275,3076.3031719080846,-2466.3347957588553,9244.312010230731,2256.019578324087,-410.11593826357205,150.06443626691225,419.9068173823921,810.9052221387797,1184.0906957707125,1640.6895412181589,2095.407372103477,2656.7589193040058,3137.5285718455016,3828.0519895741036,4136.575287916443,5054.6405685421305,4574.04157075558,6205.813510434024,3078.9769798886873,7369.045772771252,-3558.9851171411483,8352.624820269019,-14321.292939157007,-10737.740824445777,0.0,0.0,1.9,0.0
441.8729080214501,-55.51141093996762,-242.46461225727023,-543.0957207764691,-787.1300037353838,-1081.3687087884723,-1337.893278099912,-1630.7354327896073,-1839.9178267922948,-2105.8555755642255,-2137.689885916352,-2376.7756407777615,-1923.5208054669965,-2328.0901584921635,-588.022580541231,-2099.4898951053456,3063.8272042607423,-2354.6818085501845,9139.78813435626,2096.6349362732276,-410.3409149301385,144.7375677115915,409.44049593323393,794.5069597913238,1159.845075245432,1606.6213603477786,2049.6974341946398,2595.462660407878,3060.7628773449283,3727.3096489899003,4020.6886221081913,4901.043848704842,4423.470284898098,5987.177845044964,2941.613025804984,7075.549722679092,-3521.6704256433554,8018.679038230401,-14008.669798989453,-10261.03321216942,0.0,0.0,1.9,0.0
441.75229881373457,-58.36712666360745,-248.07557081345556,-551.8867722376137,-800.1279966435155,-1099.632542165549,-1362.3982169683118,-1663.5961441774007,-1881.0716488496712,-2159.8631942681523,-2199.8163247449097,-2459.1183085280672,-2004.2415485736374,-2445.2999789396504,-661.6629189801216,-2256.832107649117,3083.8314807024435,-2533.7089818255577,9307.3843134212,2352.1962306370788,-410.45683487166986,141.99288169109332,404.04769042519047,786.0577028057616,1147.3524419325129,1589.067621480393,2026.1452428813418,2563.879567485066,3021.2091083844434,3675.4018366510463,3960.9776478914137,4821.902648859199,4345.88794956231,5874.525121040153,2870.8358102948687,6924.324946663295,-3502.4439118205346,7846.612408800653,-13847.589728799077,-10015.408094324588,0.0,0.0,1.9,0.0
441.75236802425843,-58.365487939038985,-248.07235101925312,-551.8817275782269,-800.1205378714506,-1099.6220616422572,-1362.384155047068,-1663.5772873774545,-1881.0480331285407,-2159.8322025207885,-2199.7806740914666,-2459.0710569878975,-2004.1952277594298,-2445.232719222437,-661.6206611875166,-2256.74181834822,3083.820001441734,-2533.6062488192943,9307.288139978036,2352.049579274236,-410.3586236770284,144.31827014913995,408.6166529902568,793.21619179959,1157.936612614224,1603.9397275949864,2046.0994356081485,2590.6378047427256,3054.7203650829288,3719.379846071481,4011.5667532354987,4888.953681748677,4411.618261060732,5969.9682216889305,2930.8005999900297,7052.447561055051,-3518.733248009578,7992.392928322171,-13984.062073231838,-10223.509789613097,0.0,0.0,1.9,0.0
441.7993131809337,-57.253947405464714,-245.88837737944584,-548.4599549041645,-795.0612822020585,-1092.5131638903213,-1352.8460092904247,-1650.7867941395173,-1865.0295825077285,-2138.81062226121,-2175.5989761864766,-2427.0205233699435,-1972.7760017217383,-2399.61071797756,-632.9573666012284,-2195.4989413506905,3076.033664756723,-2463.9228563275974,9242.054074599057,2252.576534738698,-410.4327180881471,142.5639051452025,405.16964695424593,787.815544630923,1149.9514957122747,1592.7196226439578,2031.0452035497385,2570.450332434403,3029.43814786693,3686.2010967083343,3973.4003316787102,4838.367731085598,4362.028714840638,5897.96217237834,2885.5607914088732,6955.786794305139,-3506.44392864711,7882.410339682377,-13881.101939960101,-10066.509641557355,0.0,0.0,1.9,0.0
441.82636439062725,-56.61344436005493,-244.62990616214995,-546.488226700732,-792.1459871070023,-1088.416803457023,-1347.3498431829003,-1643.4165277140728,-1855.7992700714492,-2126.697356235,-2161.6647554440324,-2408.5520431129007,-1954.6712998563432,-2373.321950392152,-616.4407152248689,-2160.2089559118212,3071.5469436618114,-2423.76919231274,9204.464246525524,2195.2571783374583,-410.1080438074731,150.25135675185447,420.2740818997991,811.480639206838,1184.9414776083381,1641.8849979236652,2097.011339508309,2658.9098126533854,3140.2222896119347,3831.587050835557,4140.641765431912,5060.030296544839,4579.325135902627,6213.485463124899,3083.7970981213925,7379.3445856715725,-3560.2944943064813,8364.343019293481,-14332.262924025707,-10754.468553850349,0.0,0.0,1.9,0.0
441.7399522367122,-58.65946183800929,-248.64995590927117,-552.7866984950233,-801.458580950219,-1101.5021823662755,-1364.906749425913,-1666.9600440645597,-1885.2845015704759,-2165.391870148563,-2206.1761116072553,-2467.5475992844645,-2012.5048054287026,-2457.2985658576044,-669.2013658278777,-2272.9389850921616,3085.8792873507746,-2552.0357149521733,9324.540873458112,2378.3576426408326,-410.2636455598181,146.56710766573065,413.03520696830117,800.139025939498,1168.1723562454113,1618.3222493848007,2065.3967435662025,2616.5151705604935,3087.1284433967144,3761.9101154141817,4060.490483627679,4953.797419018034,4475.184754606708,6062.269370171287,2988.791370614125,7176.352425571327,-3534.4863451743026,8133.374406151874,-14116.041797711097,-10424.760852768355,0.0,0.0,1.9,0.0
441.84986195708564,-56.05708244792254,-243.5367568659252,-544.7755190379219,-789.6136663537561,-1084.8585706884278,-1342.5756933822302,-1637.0144730277957,-1847.781518530575,-2116.1753768311646,-2149.561035163713,-2392.5097165872025,-1938.9449631499865,-2350.4866662921095,-602.0938111590071,-2129.554919324969,3067.6496308436404,-2388.8904052998196,9171.812491339262,2145.4677089915785,-410.37410943797016,143.95160714024746,407.8962273141635,792.0874543209687,1156.2677199015707,1601.5947210491934,2042.9530949228138,2586.418614734792,3049.436371296869,3712.445473821124,4003.589955448079,4878.381197274093,4401.254025524946,5954.918927795601,2921.3454614079933,7032.245421086499,-3516.1647752129984,7969.406522104861,-13962.543363071996,-10190.696694158629,0.0,0.0,1.9,0.0
441.7857446386565,-57.57521557939572,-246.51961052104832,-549.4489486702566,-796.5235571088247,-1094.5678461354546,-1355.6028162416055,-1654.4836259521906,-1869.6593897202893,-2144.8864822934092,-2182.588203922797,-2436.2840779561043,-1981.8570896972542,-2412.796829132728,-641.2419086673242,-2213.1999487931857,3078.28414694284,-2484.0634230301785,9260.908653836315,2281.3271942037277,-410.3171788837693,145.29957623894927,410.54473979036754,796.237050022666,1162.40309696136,1610.2157062394922,2054.5200376707485,2601.9296906598843,3068.862002438979,3737.938417791244,4032.9151851483357,4917.2489915902115,4439.356230927742,6010.244888411498,2956.1055390924503,7106.514872410201,-3525.6072929676375,8053.9118161148,-14041.652942515713,-10311.328003487752,0.0,0.0,1.9,0.0
441.76835282833383,-57.98700890217958,-247.32870900656133,-550.7166155676464,-798.3978636595176,-1097.2014852505356,-1359.1364208350792,-1659.2221303544698,-1875.5937581119679,-2152.6743641796693,-2191.546817155747,-2448.1578651370323,-1993.4969958467962,-2429.6984489311826,-651.8608226571589,-2235.8886470994603,3081.1687574088664,-2509.879085956278,9285.075970938431,2318.1790536811404,-410.42525857727605,142.74052711885838,405.5166768042547,788.359258723039,1150.7554031833881,1593.8492148947737,2032.5607993462386,2572.482720936552,3031.983453531006,3689.5413915062827,3977.2427640145615,4843.460508574425,4367.021178585858,5905.211433926126,2890.1153421437466,6965.518187518682,-3507.681164839838,7893.4829170341145,-13891.467526494409,-10082.315746005783,0.0,0.0,1.9,0.0
441.758286982247,-58.22534224420838,-247.796990387346,-551.4503022771162,-799.4826547888918,-1098.7257547727359,-1361.181562765864,-1661.9646313294772,-1879.0283884759133,-2157.181751290129,-2196.7317876528004,-2455.0300488800412,-2000.2338164242929,-2439.480587943864,-658.0067242955968,-2249.0201696102736,3082.838281449683,-2524.820399656859,9299.063272646334,2339.507779363418,-410.2503988721373,146.88075502926904,413.6514666335773,801.1045597783702,1169.5999445297766,1620.3281925062217,2068.0881562970426,2620.1243098173904,3091.648426945943,3767.841849958466,4067.3139198819727,4962.8412328084305,4484.050430079666,6075.142693559467,2996.8793950447302,7193.6335473836625,-3536.6834436662866,8153.037218433128,-14134.449127435271,-10452.829517795522,0.0,0.0,1.9,0.0
441.95455693922617,-53.57817463197898,-238.66615686160435,-537.1444351756979,-778.3307413981053,-1069.0046259403719,-1321.3041487481878,-1608.4896889934137,-1812.057888797879,-2069.2939918982893,-2095.6320976709103,-2321.0320548082846,-1868.8752152061616,-2248.7425264431627,-538.170217863185,-1992.9738033729927,3050.284892187124,-2233.4856304676796,9026.330406165878,1923.6273890098996,-410.18693902393375,148.38332095339115,416.60373357708613,805.7300672320202,1176.438980036365,1629.9379073161151,2080.981696722056,2637.414330941102,3113.3019585539323,3796.258546639577,4100.002422179324,5006.166724091443,4526.5225280501545,6136.813916909721,3035.6260609992996,7276.420865845228,-3547.2089115465105,8247.234315115345,-14222.631682038947,-10587.295875685282,0.0,0.0,1.9,0.0
442.0511403587113,-51.29132776058407,-234.17292144783312,-530.1045928114897,-767.9219954669882,-1054.3790139176936,-1301.680681914475,-1582.174949605156,-1779.1020562386066,-2026.0448852553134,-2045.8814690978443,-2255.092342888675,-1804.234334702507,-2154.8813241572752,-479.1992999297986,-1866.9747259636595,3034.2655396231085,-2090.1213145650727,8892.119989277533,1718.974824446379,-410.42447959687536,142.75897144804753,405.55291652096844,788.4160378386108,1150.8393538337655,1593.9671762415642,2032.7190703656,2572.694959717972,3032.249255353015,3689.890212656549,3977.64402250878,4843.992338429722,4367.542532850973,5905.96846164349,2890.5909659185763,6966.534419908632,-3507.8103672535244,7894.639206939498,-13892.549986583188,-10083.966349877022,0.0,0.0,1.9,0.0
441.87492501911674,-55.463653621322806,-242.3707778703997,-542.9487043767408,-786.9126329092369,-1081.06327512805,-1337.483471844016,-1630.1858894842774,-1839.2295943578076,-2104.9523837573383,-2136.6509197133355,-2375.398590193913,-1922.170879001691,-2326.1300100528956,-586.7910626196036,-2096.858596028607,3063.4926644493526,-2351.687862881297,9136.985353944328,2092.3610787554585,-410.29368790013785,145.8557822043523,411.637582693926,797.9492776308035,1164.9347079372374,1613.7729416757393,2059.292849335181,2608.3299509246326,3076.8775067000124,3748.457448007727,4045.015512899745,4933.286821640841,4455.078159728355,6033.073772051084,2970.448421890852,7137.160317033273,-3529.503513415897,8088.7808270177875,-14074.29554580459,-10361.103517430713,0.0,0.0,1.9,0.0
442.0561784428753,-51.17203889179302,-233.93854066045628,-529.7373732817696,-767.3790437091503,-1053.6160976346857,-1300.6570623658624,-1580.802292985264,-1777.382980056303,-2023.7888806769552,-2043.2863254163215,-2251.652727517864,-1800.8624703176147,-2149.985239162335,-476.1231979896956,-1860.4022319270878,3033.4299216061936,-2082.642997019265,8885.119166868442,1708.2995259612226,-410.4301134150871,142.62557707250983,405.2908210051618,788.0053958458002,1150.2321998778493,1593.114047700405,2031.5744112861703,2571.15999111826,3030.326904256875,3687.3674432054754,3974.7420119096396,4840.146000233768,4363.771956965718,5900.49343124161,2887.1511253817657,6959.18475079499,-3506.8759402465107,7886.276603766293,-13884.72134072344,-10072.028733636733,0.0,0.0,1.9,0.0
441.6393897400787,-61.04052303390324,-253.3283052187595,-560.1165707671291,-812.2961500650048,-1116.730345509084,-1385.338670763469,-1694.3589073626206,-1919.5980601366152,-2210.4227687330467,-2257.9763841137055,-2536.2039187005057,-2079.8087837137246,-2555.0266950427713,-730.6017884256837,-2404.129016909629,3102.558610850234,-2701.3064044813236,9464.280538416622,2591.441555697451,-410.4013730953063,143.30607389866327,406.62787267936346,790.1002411304617,1153.329529506102,1597.4661898075208,2037.4137646180357,2578.990465846534,3040.1335685068775,3700.237076135987,3989.546302159745,4859.767674617862,4383.00713819747,5928.423701103851,2904.69909634091,6996.678285383673,-3511.642817606355,7928.937510874679,-13924.658322892403,-10132.927179608352,0.0,0.0,1.9,0.0
441.4627187412585,-65.22363772306403,-261.5473597155311,-572.9938947244023,-831.3358936288732,-1143.4836070661297,-1421.234039794458,-1742.4939942614437,-1979.8810764590037,-2289.5343067893536,-2348.9805470012584,-2656.8212547304133,-2198.0502891434576,-2726.718196972207,-838.4717626387821,-2634.6073222715877,3131.8613113757274,-2963.549313380731,9709.779077627847,2965.7933147659833,-410.39124235427687,143.54594377076842,407.09917306304243,790.83865790516,1154.4213142658966,1599.0002862691683,2039.4720915444418,2581.750647678594,3043.5903418747557,3704.773522294558,3994.764700073823,4866.684163212825,4389.7873909431255,5938.26890540079,2910.884620503124,7009.8944665973295,-3513.323105040229,7943.975150971356,-13938.735800497563,-10154.39341122316,0.0,0.0,1.9,0.0
441.6504768450781,-60.77800890670471,-252.81251302256567,-559.3084457918743,-811.101298375317,-1115.0514268998654,-1383.0860331583822,-1691.3381581738258,-1915.8149596089784,-2205.4580718809398,-2252.265357731082,-2528.634498067194,-2072.3884598999784,-2544.252081375612,-723.8323369077822,-2389.6651985430335,3100.719700512913,-2684.849177427186,9448.874115347055,2567.9488636664587,-410.29822077529997,145.74845548325663,411.4267053198211,797.6188824292306,1164.4462027139332,1613.0865297051578,2058.371877099167,2607.094942630659,3075.3308173700534,3746.4276728060736,4042.680607046594,4930.192126686729,4452.044421772823,6028.66866046228,2967.680787684674,7131.246904647827,-3528.751690150434,8082.052425994831,-14067.99675729078,-10351.4987248006,0.0,0.0,1.9,0.0
441.801932265135,-57.19193423671061,-245.76653285546115,-548.2690532131678,-794.7790248587792,-1092.1165564202918,-1352.313873368498,-1650.0732088072207,-1864.135908495421,-2137.637822193532,-2174.2498722373284,-2425.232414791496,-1971.0231139759474,-2397.065453279037,-631.3582330710778,-2192.0821834579688,3075.599262773675,-2460.0351996262325,9238.4146471527,2247.026904688815,-410.06079595169257,151.37006439246227,422.4721375976644,814.9244751482479,1190.033354883158,1649.0397331791048,2106.610986332119,2671.7827777883044,3156.3440256960366,3852.744176267152,4164.9793846507655,5092.287488988826,4610.946950154756,6259.40163074266,3112.6452109352595,7440.982350979716,-3568.131036558317,8434.47572374621,-14397.917612523157,-10854.582991220519,0.0,0.0,1.9,0.0
441.8856701142277,-55.20923741333286,-241.87089660197478,-542.1655080810814,-785.7546394723327,-1079.43614705266,-1335.3003226006917,-1627.2583230215419,-1835.563193230787,-2100.140835663207,-2131.1160645297405,-2368.062667678014,-1914.9794540330613,-2315.687766870732,-580.230432128108,-2082.8409510908364,3061.7104799991525,-2335.738301039378,9122.054181352993,2069.5930788290098,-410.39827915897104,143.37933035161495,406.7718081970561,790.3257542100887,1153.6629614535732,1597.9347041062483,2038.0423793239763,2579.8334276078003,3041.1892698857396,3701.622510457378,3991.1400050981238,4861.879975821858,4385.077832863124,5931.4304344490265,2906.5881604167535,7000.714517802285,-3512.155978745944,7933.530018307541,-13928.957595924812,-10139.482984083805,0.0,0.0,1.9,0.0
441.6313150387511,-61.23171118962705,-253.70395494030424,-560.7051254682244,-813.1663565314293,-1117.953096284678,-1386.9792591539074,-1696.5589088357417,-1922.3532795254125,-2214.038540750382,-2262.135705417598,-2541.716702286004,-2085.212980587032,-2562.873809933279,-735.5319571953888,-2414.6629671729775,3103.8978830630604,-2713.292147586525,9475.500984514798,2608.551204279442,-410.2512352096429,146.86095268197244,413.6125586512666,801.0436001244069,1169.5098127480678,1620.2015458866417,2067.9182320765985,2619.8964442911893,3091.3630546306067,3767.467345758032,4066.883117472498,4962.270245313014,4483.4906894718615,6074.329927303108,2996.3687519781674,7192.542491697688,-3536.5447283193616,8151.795793057222,-14133.286967826836,-10451.05738304072,0.0,0.0,1.9,0.0
441.5732830984915,-62.60575822274211,-256.4037057923306,-564.9349996391895,-819.4204291780051,-1126.740863869368,-1398.7699770720478,-1712.3700635031369,-1942.1547207669964,-2240.0246736270574,-2292.028263787963,-2581.336436629556,-2124.052314862657,-2619.2701118197233,-770.9645066334242,-2490.369242331688,3113.52307665958,-2799.4322890129497,9556.141025370354,2731.5162583374686,-410.0669472442063,151.22441766226154,422.185968430119,814.4761154212608,1189.370433432616,1648.1082442205545,2105.3611895585664,2670.1068213110084,3154.245105381122,3849.989688777708,4161.810822461117,5088.087862091119,4606.830044384313,6253.423715184389,3108.889418773604,7432.957609906058,-3567.1107818138576,8425.345009950175,-14389.369900371708,-10841.548897048266,0.0,0.0,1.9,0.0
441.9171771677102,-54.463231448592296,-240.4051314647486,-539.8689990935484,-782.3591403487412,-1074.6650388773376,-1328.8988343831948,-1618.674034854258,-1824.812474429939,-2086.0322864990826,-2114.8866150994263,-2346.5520807619578,-1893.8925666638816,-2285.0687439627245,-560.9931770840362,-2041.7380401583082,3056.4847114049944,-2288.9705720320962,9078.272600368524,2002.8321444921903,-410.3834584142179,143.73024746760518,407.4612960799238,791.4060194459666,1155.2601856227286,1600.1790072311387,2041.0536042804815,2583.871429692354,3046.2463490608957,3708.2590946240607,3998.774249120339,4871.998437959987,4394.996989057412,5945.833454934185,2915.6372597072814,7020.049101728615,-3514.6141516384014,7955.529301594209,-13949.552211554423,-10170.886961532264,0.0,0.0,1.9,0.0
441.51922946128343,-63.88560927283038,-258.91837878409706,-568.874900362772,-825.2457621195493,-1134.926197632661,-1409.7523978679237,-1727.0973053070297,-1960.598700309975,-2264.229361423393,-2319.8715772287874,-2618.24009231823,-2160.229069781729,-2671.8002395808917,-803.9680243584601,-2560.8855736041496,3122.488427796346,-2879.6672066042715,9631.252894530657,2846.0516052344433,-410.1326514788906,149.66871038426757,419.12928846538637,809.6870173314796,1182.289521297555,1638.1586619776363,2092.0116424208063,2652.20530284323,3131.825751861161,3820.5679768678815,4127.96622369901,5043.2300752353985,4562.855832860909,6189.571361518226,3068.772396871413,7347.242346768642,-3556.2130590006977,8327.816438195952,-14298.068587411108,-10702.326858410928,0.0,0.0,1.9,0.0
441.7391570915824,-58.67828883270954,-248.68694750623763,-552.8446556215772,-801.5442733523512,-1101.6225910916041,-1365.0683041437724,-1667.1766862277204,-1885.5558180650078,-2165.747928397048,-2206.58569513467,-2468.0904631757157,-2013.0369763905244,-2458.071299859876,-669.6868575148499,-2273.9763015657227,3086.0111703664165,-2553.2159947579694,9325.64579167876,2380.0424920929545,-410.14861796210414,149.29066514849694,418.3864987906252,808.523240735067,1180.5688215588664,1635.7408599727078,2088.767630656648,2647.855137560835,3126.377728358351,3813.418342610029,4119.741804144305,5032.329391732534,4552.169862916523,6174.054896105652,3059.023744753411,7326.413076750621,-3553.5648537368015,8304.116470638732,-14275.881877238382,-10668.495154124463,0.0,0.0,1.9,0.0
441.5355606311002,-63.498929198483665,-258.1586232321421,-567.6845422300712,-823.4857602993582,-1132.453171204048,-1406.4342904252399,-1722.647778964405,-1955.026239836034,-2256.9164241198896,-2311.4593057203074,-2607.0904289723176,-2149.2990242136602,-2655.929366380776,-793.9967056635633,-2539.580547329632,3119.779735525406,-2855.425913891766,9608.559423145582,2811.4471592698665,-410.4013706693456,143.30613130041377,406.62798546995583,790.100417842289,1153.3297907861543,1597.46655693696,2037.414257204492,2578.9911263952013,3040.134395760522,3700.238161769127,3989.547550994118,4859.76932982781,4383.008760804955,5928.426057195627,2904.7005766216166,6996.681448196337,-3511.6432197217996,7928.9411095870655,-13924.661691824407,-10132.932316771863,0.0,0.0,1.9,0.0
441.75563638517383,-58.28810155852102,-247.92030095043083,-551.6435009065399,-799.7683082661111,-1099.1271342430186,-1361.7201013728852,-1662.686802554943,-1879.9328152170863,-2158.368662544845,-2198.0971240857734,-2456.8396720673136,-2002.0077949999263,-2442.0564773903006,-659.6250986773596,-2252.4780380993097,3083.2779101792353,-2528.7548328332396,9302.746489863734,2345.1241828256943,-410.31244790543997,145.41159358603898,410.76483337671885,796.5818848657901,1162.9129518857685,1610.9321172589773,2055.481260208947,2603.2186739351832,3070.476288501415,3740.056902581357,4035.3521360627237,4920.478937538796,4442.522555803606,6014.842521631959,2958.99413038247,7112.686725422509,-3526.3919740254105,8060.934276145176,-14048.227014189895,-10321.352565358593,0.0,0.0,1.9,0.0
441.6929969509462,-59.77124220607027,-250.8344007793113,-556.2092094763659,-806.5189282421977,-1108.6126139869987,-1374.4469532038595,-1679.753297074612,-1901.306408451434,-2186.417986180909,-2230.3630271353495,-2499.6050483644094,-2043.9308107123065,-2502.9304108455863,-697.870845019542,-2334.195076309657,3093.667304075006,-2621.734142853472,9389.789014228381,2477.852150217862,-410.233222334188,147.28745130719722,414.45055035040167,802.3565358961648,1171.451051503208,1622.9292332672587,2071.5780230453365,2624.8041625060278,3097.5093415948704,3775.533335897132,4076.161646222702,4974.568049993226,4495.5462611383045,6091.835110433698,3007.366871463068,7216.041412131208,-3539.5323493326932,8178.533343217412,-14158.317309100597,-10489.22523656825,0.0,0.0,1.9,0.0
441.608036453987,-61.78288817688929,-254.78691680877137,-562.4018718292037,-815.675077731534,-1121.478168679042,-1391.7089170386494,-1702.9013006098828,-1930.29631092913,-2224.4624622708307,-2274.1266270366077,-2557.609524947253,-2100.7927582448183,-2585.4962843006892,-749.745157611813,-2445.0313284294475,3107.7588755056304,-2747.845887391711,9507.848446956004,2657.8766687273405,-410.3384992338058,144.79476518278227,409.55287849252716,794.6830368110606,1160.1054135980917,1606.987168848097,2050.1882465424433,2596.120831521517,3061.5871521628733,3728.3913740362173,4021.9329599726843,4902.69309983318,4425.087050304099,5989.525454539653,2943.0879769401326,7078.701148648898,-3522.0710936855376,8022.26479486873,-14012.026602878897,-10266.15187986235,0.0,0.0,1.9,0.0
441.771464724156,-57.913327212316744,-247.18393797662668,-550.489793436687,-798.0624962168138,-1096.7302513346858,-1358.504157166261,-1658.3742753952288,-1874.5319286309548,-2151.2808877325497,-2189.9438631407793,-2446.033302513139,-1991.4142812780597,-2426.674262194436,-649.9607930018769,-2231.828985285174,3080.652617486923,-2505.2599200794953,9280.751741619346,2311.585194279125,-410.24813705573115,146.93430905300295,413.75669048001225,801.2694207837012,1169.8436994624678,1620.6706991939668,2068.547704150202,2620.7405557702773,3092.420195881554,3768.8546696763215,4068.4789940642986,4964.385427488758,4485.564208360871,6077.3407615373635,2998.2603925512567,7196.584229140767,-3537.0585893605116,8156.394564218699,-14137.592104644455,-10457.622128989467,0.0,0.0,1.9,0.0
441.85281582717516,-55.987142401930214,-243.3993374809446,-544.5602152044834,-789.2953292684429,-1084.4112665911152,-1341.97553681411,-1636.2096731514298,-1846.7736100129068,-2114.8526627747,-2148.0394810593075,-2390.4930417791065,-1936.968011303165,-2347.616051353038,-600.2902672687326,-2125.701411963444,3067.159701119458,-2384.505806155749,9167.707851521647,2139.2086936132064,-410.47363460519813,141.59510725602684,403.2661364818031,784.833191726741,1145.5419433347993,1586.5236406575161,2022.7319345529645,2559.302378354852,3015.4767666587895,3667.8790815171615,3952.324017201843,4810.433086944819,4334.644306549892,5858.198891524677,2860.578401296162,6902.408651043638,-3499.657503589822,7821.675601379817,-13824.245151742924,-9979.810801099906,0.0,0.0,1.9,0.0
441.54385829521885,-63.30246184904672,-257.77260086294814,-567.0797360304498,-822.5915252104568,-1131.196657156962,-1404.7484012000602,-1720.387029832597,-1952.194941804294,-2253.2008114037985,-2307.1851349341505,-2601.4254233544207,-2143.7456036646763,-2647.8655726096645,-788.9304023444909,-2528.755727800176,3118.4034825873478,-2843.109213813891,9597.02915188083,2793.8650695967335,-410.1431341312836,149.42050822721023,418.6416166551852,808.9229503927487,1181.1598115294125,1636.5712760594083,2089.8818159953644,2649.3492413868476,3128.2489015713836,3815.8739495126047,4122.566555828976,5036.073330608566,4555.840056467039,6179.384167252364,3062.3720079730915,7333.567078951244,-3554.4744039164316,8312.25644001369,-14283.50210460323,-10680.11496061368,0.0,0.0,1.9,0.0
441.8006332811369,-57.22269083266349,-245.82696393592346,-548.3637344928363,-794.9190156902804,-1092.3132613451571,-1352.5777961749714,-1650.4271248571758,-1864.5791429091728,-2138.2194944176745,-2174.918985683323,-2426.1192608299243,-1971.892491580733,-2398.3278251182305,-632.1513533841949,-2193.7767887178366,3075.81471259799,-2461.963355996548,9240.219689561927,2249.7793479580127,-410.42188477998974,142.82041004124335,405.6736321071514,788.6051707510954,1151.1189959519756,1594.3601089883118,2033.2462758397041,2573.4019334029304,3033.134649125565,3691.052146272589,3978.9806264814433,4845.763879482371,4369.279179405154,5908.4901434685535,2892.1752828497583,6969.919520202855,-3508.240744333978,7898.490842982653,-13896.155693315864,-10089.464560425416,0.0,0.0,1.9,0.0
441.96831565122204,-53.25240373964459,-238.02607670081034,-536.141580214032,-776.8479720453697,-1066.9211463923373,-1318.5087038977297,-1604.74104440714,-1807.363192738364,-2063.1329759335185,-2088.544912739364,-2311.6386673054767,-1859.666851665673,-2235.371605963158,-529.7695641836273,-1975.0247082884778,3048.002868475667,-2213.0627845972595,9007.211571462423,1894.4737760107064,-410.3029972825163,145.6353600529469,411.20449351038104,797.2707288203075,1163.9314408405535,1612.363223793744,2057.4014035544933,2605.793553908108,3073.7009950801094,3744.288799271966,4040.220202404983,4926.931095058363,4448.847623521294,6024.026778652207,2964.764395985324,7125.015652423678,-3527.959457156513,8074.962380331814,-14061.359415367751,-10341.377684438707,0.0,0.0,1.9,0.0
441.91715750346697,-54.463697056202136,-240.40604629693917,-539.8704324212842,-782.3612595921389,-1074.6680166843505,-1328.902829764182,-1618.6793925932975,-1824.8191843100312,-2086.041092112593,-2114.896744437054,-2346.5655062326696,-1893.9057276896692,-2285.0878543104345,-561.0051836928697,-2041.7636938484516,3056.4879729810345,-2288.9997613240275,9078.299925907708,2002.8738122032264,-410.30962239218997,145.47849444644714,410.89628132290386,796.7878328570778,1163.2174559100272,1611.359984144413,2056.055337494749,2603.988501931029,3071.4403992295984,3741.322139246182,4036.807572354433,4922.407979493123,4444.413600924079,6017.588396489932,2960.719302838945,7116.372781965199,-3526.8606142769067,8065.128346335902,-14052.153290440647,-10327.3396006619,0.0,0.0,1.9,0.0
442.03842362199447,-51.59242736764054,-234.76452704859162,-531.0314995474847,-769.2924717102794,-1056.3047073636737,-1304.2644220965255,-1585.6397017874333,-1783.441213510705,-2031.7393150733114,-2052.431927241221,-2263.7743502385647,-1812.7453303267298,-2167.239637901577,-486.96375518751444,-1883.5644999296878,3036.3747410839387,-2108.9974971890533,8909.790916127942,1745.920575616814,-410.0774192118936,150.97646836870172,421.6987934714543,813.7128269177872,1188.2418746283438,1646.5224755456566,2103.23353302568,2667.2536696390516,3150.6718992269825,3845.3004437469417,4156.416655832614,5080.938408832306,4599.821415740517,6243.246899741858,3102.4955506616056,7419.296274599431,-3565.373898089825,8409.800864462566,-14374.818258054189,-10819.359628973925,0.0,0.0,1.9,0.0
441.7206635865938,-59.11616744475157,-249.54729881030994,-554.1926236220863,-803.537308951308,-1104.4230596214006,-1368.8257469935054,-1672.2153539712217,-1891.866102504278,-2174.0291382302626,-2216.1117969789543,-2480.7164023717532,-2025.4142192241102,-2476.043562680594,-680.978432841091,-2298.102228777909,3089.0785081755685,-2580.66696599909,9351.344001663705,2419.2287542272743,-410.185246827236,148.4233878279607,416.6824576481276,805.8534093240442,1176.6213472579848,1630.1941564601416,2081.3255111596827,2637.8753803268974,3113.879363715665,3797.016295890191,4100.874081837362,5007.322025811399,4527.655073495545,6138.458419217663,3036.6592654357155,7278.628442229938,-3547.4895798276775,8249.746140477622,-14224.983125820483,-10590.88150645055,0.0,0.0,1.9,0.0
441.8289713889421,-56.55171735947613,-244.50862390529596,-546.2982059506285,-791.8650322768042,-1088.0220261839074,-1346.8201628712886,-1642.7062353142608,-1854.909720034067,-2125.5299682058553,-2160.321877110673,-2406.77218599396,-1952.926501039464,-2370.7884311482467,-614.8489611052732,-2156.8079650917057,3071.1145462811846,-2419.899475705576,9200.841613683537,2189.733157784449,-410.1713604439335,148.75218168410447,417.32847737324965,806.8655701891408,1178.1178758342628,1632.2969694694516,2084.1468960878947,2641.6588101229995,3118.6176237833997,3803.2344824472743,4108.027031661904,5016.802578406619,4536.948885214636,6151.9534139485895,3045.137872223009,7296.744094323916,-3549.792779373279,8270.358498305764,-14244.279372028957,-10620.305647769386,0.0,0.0,1.9,2.6
441.7047063878837,-59.493992866205076,-250.2896565869346,-555.3557235379767,-805.2570081837018,-1106.8394557888964,-1372.0678725174093,-1676.562989837912,-1897.3109582380675,-2181.1746153130453,-2224.3314344214,-2491.610747641114,-2036.093975780894,-2491.551005999928,-690.7214165779353,-2318.919387556792,3091.725173631791,-2604.353153140715,9373.517811306812,2453.0407869764313,-410.4343660665917,142.5248852121755,405.09297993730644,787.6954254547259,1149.773893729544,1592.4700692647625,2030.7103729509627,2570.0013302243133,3028.875830247084,3685.4631473725885,3972.551448404141,4837.242617288526,4360.9257626992385,5896.360640757723,2884.554584505406,6953.636901679397,-3506.170594201102,7879.964148075681,-13878.811939178591,-10063.017702980307,0.0,0.0,1.9,2.6
441.61117472340777,-61.708582029400645,-254.6409188336902,-562.1731273641511,-815.3368680251585,-1121.002941021344,-1391.0712948888995,-1702.04626001792,-1929.2254823654762,-2223.057176008977,-2272.5100878689827,-2555.46695649974,-2098.692392517749,-2582.4464673599896,-747.8290250664154,-2440.9372606838397,3107.2383612592175,-2743.1875737446935,9503.48756947404,2651.2269258874853,-410.589433986843,138.85327585219704,397.8789397611236,776.3927223987587,1133.0623029913397,1568.9881585689036,1999.2042387101017,2527.7521334490457,2975.9641356201255,3616.025255932448,3892.675145421364,4731.37419795518,4257.142660771156,5745.663332057846,2789.874797673978,6751.34115645312,-3480.4509863152507,7649.7879299582055,-13663.332612982515,-9734.441145816048,0.0,0.0,1.9,2.6
442.0377989192453,-51.6072187179451,-234.79358934446145,-531.0770333246,-769.3597955926488,-1056.3993059817824,-1304.3913468942233,-1585.809905808926,-1783.6543721954208,-2032.0190507670025,-2052.7537148498823,-2264.20084901479,-1813.1634282473688,-2167.8467331822867,-487.345179728213,-1884.3794633377115,3036.4783544316874,-2109.92477914989,8910.658990570915,1747.2442706362026,-410.47068584831527,141.66492625617866,403.40331803010577,785.0481229286474,1145.8597294646227,1586.970170593685,2023.3310524129138,2560.1057853420443,3016.4829307607497,3669.1995063157897,3953.8429379099844,4812.446271437682,4336.617836831063,5861.064538210287,2862.3788237432213,6906.255489031483,-3500.146585376849,7826.05261197204,-13828.342687538183,-9986.058983833247,0.0,0.0,1.9,2.6
441.7244758788079,-59.02590217354134,-249.36994407869315,-553.9147504998789,-803.1264601594626,-1103.845764809026,-1368.051179366053,-1671.1766717940793,-1890.5652864327808,-2172.322031213709,-2214.148065154045,-2478.113663179501,-2022.8627468532923,-2472.3387204435826,-678.6507623850985,-2293.12885647473,3088.4462003368994,-2575.00816172388,9346.046515493883,2411.1508109792894,-410.35699404603827,144.35685558511307,408.6924663131193,793.3349734293483,1158.1122369761483,1604.18650216103,2046.430537822933,2591.0818072496304,3055.2764212188545,3720.109578237866,4012.4061840775057,4890.06626724642,4412.708931677336,5971.551920031459,2931.7956026404468,7054.573514326563,-3519.0035388375472,7994.811881243822,-13986.326574533985,-10226.962844970363,0.0,0.0,1.9,2.6
441.797206642431,-57.303824823505465,-245.98637737300305,-548.613497829461,-795.2883028103292,-1092.8321567222085,-1353.274008149137,-1651.360733419663,-1865.7483677684486,-2139.7539096245023,-2176.6840654029384,-2428.458705608192,-1974.1858557152464,-2401.65788363938,-634.2435555190402,-2198.2470521612377,3076.3830558547666,-2467.049712765821,9244.981279347112,2257.040122381005,-410.2066857495953,147.9157693455304,415.68508026118786,804.2907537061286,1174.3108856759463,1626.9476640495668,2076.96962943167,2632.034216101386,3106.564055463536,3787.416157701685,4089.8307806832427,4992.685183673153,4513.306536989925,6117.623757360858,3023.5693080876763,7250.660036667503,-3543.9337145105264,8217.923119128496,-14195.192023794478,-10545.454142673152,0.0,0.0,1.9,2.6
441.87329514055233,-55.50224495315183,-242.44660277176683,-543.0675041511122,-787.0882840962582,-1081.3100873886206,-1337.814624632821,-1630.6299598113553,-1839.7857354286998,-2105.682227387903,-2137.49047877478,-2376.5113456351046,-1923.2617162137935,-2327.7139502992686,-587.7862172530864,-2098.9848740305215,3063.7629965617634,-2354.1071852861496,9139.250201135324,2095.814661558301,-410.3991285208963,143.35921964674526,406.7322943439169,790.26384530226,1153.571426152147,1597.8060853645275,2037.8698090678372,2579.602013793192,3040.8994537939116,3701.2421745323786,3990.7024942959233,4861.300096992607,4384.509376055739,5930.605011915148,2906.069565690427,6999.606472356212,-3512.0151033439024,7932.269261636241,-13927.777339335305,-10137.683253905601,0.0,0.0,1.9,2.6
441.7319231091849,-58.84957092282764,-249.02348545415634,-553.3719313782105,-802.32387594899,-1102.7180319049883,-1366.5380782933132,-1669.1476286727138,-1888.0241704301623,-2168.9872346556226,-2210.311957594588,-2473.0292685777113,-2017.8785008755972,-2465.1013914300656,-674.1037085976301,-2283.4134814701565,3087.2110006784474,-2563.953810217736,9335.697991075622,2395.370723920339,-410.2800351820313,146.17904349671358,412.2727319395587,798.9444070160871,1166.4060546483652,1615.8403709629442,2062.066759237089,2612.049717509035,3081.5360367678245,3754.5710020620427,4052.048101098023,4942.6078463836175,4464.215585855662,6046.341688506938,2978.784360418945,7154.971139735882,-3531.76795736431,8109.046343757341,-14093.267096939562,-10390.03254308675,0.0,0.0,1.9,2.6
441.7207011478838,-59.115278092129074,-249.5455513948749,-554.1898858336135,-803.533260999054,-1104.4173717336935,-1368.8181154443666,-1672.2051201920672,-1891.8532860097716,-2174.0123186904516,-2216.0924490029793,-2480.690758475341,-2025.3890804421692,-2476.0070601409843,-680.9554991025557,-2298.05322784688,3089.072278263598,-2580.611211742299,9351.291807350723,2419.1491650227495,-410.0977797501967,150.49438320752665,420.7515843926176,812.2287732265982,1186.0476297830282,1643.4392824306717,2099.096753126132,2661.7063172835683,3143.7245526210545,3836.1831946619436,4145.928835203691,5067.037803135918,4586.19461383946,6223.460226048894,3090.064021104034,7392.73468610947,-3561.9968935960496,8379.578548225425,-14346.525655143945,-10776.21727178025,0.0,0.0,1.9,2.6
441.82246115614123,-56.705862920141044,-244.8114917104732,-546.7727285181024,-792.5666367430281,-1089.0078697027675,-1348.1428882085995,-1644.4799877723942,-1857.131117257465,-2128.4451864829116,-2163.6753323139465,-2411.216870943358,-1957.2836378895518,-2377.115172060313,-618.8239125230918,-2165.3009685747743,3072.1943352759954,-2429.5629880054753,9209.888104829246,2203.527821835114,-410.2178100332344,147.65237490871118,415.16755842032836,803.4799187830685,1173.1120271990862,1625.2631153938976,2074.7094378848515,2629.003337203131,3102.7682687758033,3782.4348123517107,4084.1006030793524,4985.090379922556,4505.861330036999,6106.813012357705,3016.7771560501524,7236.14771567304,-3542.088637615201,8201.41070479723,-14179.73393718978,-10521.8826707999,0.0,0.0,1.9,2.6
441.84611127150976,-56.145889033157005,-243.71124554652363,-545.0489017328478,-790.0178758325364,-1085.4265364215241,-1343.3377440032789,-1638.0363701097192,-1849.0613134252494,-2117.8548970126512,-2151.4930330988927,-2395.070395535846,-1941.455203748867,-2354.1316383095027,-604.3838664801622,-2134.4479219732675,3068.2717205926315,-2394.457763345019,9177.02437017639,2153.415112745043,-410.1574699142334,149.08107369813706,417.97468996374334,807.8780332268183,1179.614851188676,1634.4004102578351,2086.9691233202616,2645.4433694341255,3123.357298424279,3809.4545253982797,4115.182116947483,5026.285961351342,4546.245471533444,6165.452437511278,3053.61901023665,7314.8651547130285,-3552.096666521894,8290.977009802165,-14263.581378989893,-10649.738573451137,0.0,0.0,1.9,2.6
441.77981913018175,-57.71551636988454,-246.79527588805433,-549.8808514191817,-797.1621461212383,-1095.465144925981,-1356.806739402665,-1656.0980666874561,-1871.6812694648072,-2147.5398667142317,-2185.640464490187,-2440.3295581498633,-1985.8228850301725,-2418.555326156003,-644.8598450150876,-2220.9301428937597,3079.266953382282,-2492.858995281765,9269.142623434309,2293.882873816401,-410.4973237296871,141.03420976014627,402.16407559090595,783.1065216945393,1142.9889785446462,1582.9364003922199,2017.9188648314516,2552.848132709252,3007.3936526415223,3657.27132462029,3940.1216247283796,4794.259979840516,4318.789765283716,5835.177449159806,2846.11453810942,6871.504715999364,-3495.7284190178448,7786.512474811856,-13791.327212252996,-9929.615437040417,0.0,0.0,1.9,2.6
441.809902291655,-57.00322451188447,-245.39575279672079,-547.6881281276821,-793.9200991463154,-1090.9096565390462,-1350.6945524297562,-1647.9017266297637,-1861.4164058626977,-2134.068922540727,-2170.144469494452,-2419.791095114745,-1965.6889733684588,-2389.320062951806,-626.4919755951014,-2181.6847880310315,3074.277351958378,-2448.2048313943474,9227.339655147034,2230.1390537431016,-410.4085221072827,143.13680366552455,406.29528766614874,789.5791586894212,1152.5590840266802,1596.3836159072132,2035.9612542560485,2577.042673849613,3037.6942091066076,3697.03581837151,3985.8638079224725,4854.886879818887,4378.222481665898,5921.4761841282125,2900.3341250492263,6987.351953439455,-3510.4570803562474,7918.3258204832755,-13914.724195404904,-10117.778991307732,0.0,0.0,1.9,2.6
441.682190220532,-60.0271177738872,-251.3371494235638,-556.9968982744379,-807.6835640606927,-1110.2490754531127,-1376.642625238472,-1682.6976563899198,-1904.9938404704199,-2191.257133859569,-2235.9296308748453,-2506.9830505622704,-2051.1634865087963,-2513.432551916372,-704.4691080309615,-2348.293128044262,3095.4597113346867,-2637.775193184064,9404.805833709292,2500.750749975491,-410.23824190297796,147.1686007614186,414.2170308000392,801.9906657137568,1170.9100948261218,1622.1691203222726,2070.558164792934,2623.4365497183708,3095.7965821672033,3773.2856210175764,4073.576038409865,4971.141073504879,4492.186786685947,6086.957016125929,3004.30207267487,7209.4930687550495,-3538.6998017978694,8171.082504785116,-14151.342211246858,-10478.589164518833,0.0,0.0,1.9,2.6
441.9252725221778,-54.27155428160836,-240.0285209252836,-539.278939017122,-781.4867081122657,-1073.4391606117802,-1327.2540497788957,-1616.4684063288134,-1822.050207880608,-2082.4072662432573,-2110.716655294251,-2341.0251968579273,-1888.474547209506,-2277.2015581196088,-556.0503981778767,-2031.177146691704,3055.142013671399,-2276.954172403666,9067.023455188142,1985.6787337119567,-410.3159848405243,145.32784810166902,410.6002888260079,796.324082286427,1162.5317783549938,1610.3965199652666,2054.7626389479383,2602.2550148970754,3069.269429278227,3738.4730984666826,4033.5302429324856,4918.064192005783,4440.155374131928,6011.405277028374,2956.834585602125,7108.072575610287,-3525.80533724893,8055.684202534157,-14043.312160981004,-10313.858085146738,0.0,0.0,1.9,2.6
441.79740286859317,-57.299178693925455,-245.97724857881826,-548.5991951576766,-795.2671556212458,-1092.8024422317521,-1353.234139641818,-1651.3072704212063,-1865.6814122268363,-2139.6660414951452,-2176.582988293989,-2428.324737542965,-1974.0545264535208,-2401.46718817992,-634.1237457783245,-2197.9910629843457,3076.350509737313,-2466.758443068835,9244.708607399409,2256.624334876312,-410.08472803932494,150.80341413765132,421.35877359161464,813.1800957929403,1187.4542060074127,1645.4157009418827,2101.7485521103795,2665.2623351763514,3148.1780084780285,3842.0276225622615,4152.651840238019,5075.948504928281,4594.929799253492,6236.144072536721,3098.0330013867524,7409.761454534853,-3564.161653941729,8398.95195204261,-14364.662055309518,-10803.87280622109,0.0,0.0,1.9,2.6
441.7880367444221,-57.520944417400074,-246.41297762311797,-549.2818800169308,-796.2765380594822,-1094.2207529506618,-1355.1371145948938,-1653.8591278670015,-1868.8772860471393,-2143.860099934588,-2181.4075282630647,-2434.719205006935,-1980.3230404516362,-2410.569326886158,-639.8424182602735,-2210.2097545364804,3077.903977682696,-2480.661119117549,9257.723589103278,2276.470405283725,-409.96098316301874,153.7333744549377,427.1156091761752,822.1997022272786,1200.7901284468671,1664.1543682967276,2126.8905849191888,2698.977378837439,3190.401772019889,3897.439363383425,4216.393479086331,5160.431966213664,4677.749168135642,6356.401183443861,3173.5878850393146,7571.194343281041,-3584.6860134325525,8582.633579996878,-14536.61549928364,-11066.078334754377,0.0,0.0,1.9,2.6
441.8327153114511,-56.463070897768375,-244.3344498395528,-546.0253161821806,-791.4615516141964,-1087.4550845297945,-1346.059486277165,-1641.686180779111,-1853.6322326928398,-2123.853476308394,-2158.393362693362,-2404.2161241159192,-1950.4207865675367,-2367.1500312523667,-612.5630349026004,-2151.923784845564,3070.4935782010634,-2414.34215596994,9195.639132204826,2181.800083714699,-410.5611492904667,139.5229846677919,399.19479497325295,778.4543578137668,1136.1105302297883,1573.271305571314,2004.951019975042,2535.4584705898296,2985.6153334803275,3628.6908648111153,3907.2447412329257,4750.684807250472,4276.072904043426,5773.150819530489,2807.144578248836,6788.240300908145,-3485.1422937159846,7691.772527869423,-13702.636468709168,-9794.374160391724,0.0,0.0,1.9,2.6
441.8585564091909,-55.85122019242533,-243.1322752242321,-544.1417915043334,-788.6766696788935,-1083.5419711745544,-1340.8091863222962,-1634.645616734283,-1844.8148301581728,-2112.2820865747435,-2145.082477049888,-2386.5738150655807,-1933.1259826031999,-2342.037268542762,-596.7852413874575,-2118.2124658381636,3066.2075666212604,-2375.984730762332,9159.730851988741,2127.0448582761,-410.2664731945668,146.50015647313978,412.9036601458372,799.9329230207466,1167.8676231615273,1617.8940606354477,2064.8222344341702,2615.7447634619807,3086.1636074202397,3760.6439269772504,4059.033952488955,4951.8669259462395,4473.292286953293,6059.5214297357525,2987.0649004017905,7172.663596202075,-3534.0173523890035,8129.1771809826005,-14112.112567928722,-10418.769313734643,0.0,0.0,1.9,2.6
441.9323534951189,-54.103895066517794,-239.69910126268508,-538.7628159387538,-780.7235952871471,-1072.3668900250793,-1325.815363571017,-1614.5391522913988,-1819.6340648936384,-2079.2364762013276,-2107.0692089096174,-2336.1908546447366,-1883.7354282747694,-2270.3201635972646,-551.7269701619532,-2021.9395773865924,3053.9675615817023,-2266.443477948542,9057.183874981767,1970.6747171227798,-410.2262979576268,147.45140269919045,414.77268482350075,802.8612447945394,1172.1972879154252,1623.9777903458023,2072.984892381234,2626.6907506517073,3099.8720510309586,3778.6340031966047,4079.728428501954,4979.295479629744,4500.180573381203,6098.564321352236,3011.594685886715,7225.0746904910175,-3540.680828145562,8188.811591273132,-14167.939284748876,-10503.897435926983,0.0,0.0,1.9,2.6
441.7358668142805,-58.75619413240031,-248.84001715700742,-553.0844797376627,-801.8988648565692,-1102.1208372588364,-1365.7368106736117,-1668.0731422544377,-1886.6785141435403,-2167.221282236147,-2208.2805342954834,-2470.336810794339,-2015.239077123675,-2461.2688401905016,-671.6958013995333,-2278.26867287431,3086.556896660047,-2558.099942236735,9330.217896134398,2387.0143272339083,-410.4873448593628,141.27048370782506,402.628310644312,783.8338687576822,1144.0643962041956,1584.4474989951327,2019.9463350863036,2555.5669362624267,3010.7986050281256,3661.7397642687974,3945.261792896818,4801.072782370655,4325.468374295645,5844.875062598012,2852.2073341988894,6884.522771559437,-3497.3835170232614,7801.324683505337,-13805.193652386977,-9950.75986532344,0.0,0.0,1.9,2.6
441.72615847908526,-58.98606253408923,-249.29166648022192,-553.7921079271837,-802.9451272095641,-1103.5909689492378,-1367.7093148273616,-1670.7182371905085,-1889.9911559496777,-2171.568579440257,-2213.2813490009944,-2476.964913604209,-2021.7366244929149,-2470.7035447182298,-677.6234176340979,-2290.9338000743687,3088.167123829594,-2572.5105818545035,9343.70840762124,2407.585515656673,-410.4359221563765,142.48804104605676,405.02058789030116,787.582004159451,1149.606194879928,1592.2344310518988,2030.3942125966928,2569.577364501424,3028.3448676106746,3684.766346294541,3971.7498990925897,4836.180240145295,4359.884311470425,5894.8484109792535,2883.6044839734277,6951.606887655753,-3505.9125009598465,7877.654356784176,-13876.649629470521,-10059.720475850956,0.0,0.0,1.9,2.6
441.6750491158258,-60.19620076768604,-251.66936654837127,-557.5174043192178,-808.4531573116235,-1111.3304518632137,-1378.0935289052163,-1684.6432938350658,-1907.4305015716213,-2194.454850550108,-2239.608051718583,-2511.8584464661135,-2055.942850489103,-2520.3723838907686,-708.8292510062429,-2357.6091436596325,3096.644136981266,-2648.375145447234,9414.728972556566,2515.882182093641,-410.2379372589481,147.17581398398488,414.23120345563484,802.0128709334754,1170.9429263099437,1622.2152527352332,2070.6200615430234,2623.519552221859,3095.9005321450377,3773.4220382573917,4073.7329628856287,4971.349061927769,4492.39067830671,6087.253075099397,3004.4880799807506,7209.8904976883505,-3538.750330376154,8171.5347075179,-14151.765540559434,-10479.234683930348,0.0,0.0,1.9,2.6
441.98465310221985,-52.86557493503676,-237.26602892250878,-534.9507642304959,-775.0872932713113,-1064.4471687569703,-1315.1893202028764,-1600.289806631511,-1801.788588914567,-2055.8172258357517,-2080.1294055972294,-2300.484715435232,-1848.732602046143,-2219.4946283072068,-519.7944101953781,-1953.7114874047502,3045.293134350872,-2188.8121678893076,8984.509371421065,1859.8560200548636,-410.2646141145722,146.54417468132328,412.9901478697552,800.0684289256944,1168.067975168969,1618.175580689278,2065.1999553422615,2616.251280853894,3086.797955423047,3761.4764043346554,4059.991573930037,4953.136161807849,4474.53652235114,6061.328110421749,2988.199997927708,7175.088880495097,-3534.325699759216,8131.936718835872,-14114.695907607424,-10422.70855408844,0.0,0.0,1.9,2.6
441.59039064458386,-62.200695539244634,-255.60783178183,-563.6880523808711,-817.5767576119667,-1124.1502708040234,-1395.294128197412,-1707.7090085491932,-1936.317347866082,-2232.3640823594287,-2283.216076430303,-2569.656722977059,-2112.602659525553,-2602.6447439820436,-760.5191556421653,-2468.05138406722,3110.6856142954225,-2774.03857543724,9532.368715894432,2695.2667315705703,-410.2577448092909,146.70682218877346,413.3097204378918,800.5691239290439,1168.8082768392044,1619.215798704039,2066.5956359919783,2618.1228651617453,3089.141874476624,3764.552412351163,4063.5299899612373,4957.825994690034,4479.133978391681,6068.003804628024,2992.394188983968,7184.050318134344,-3535.465044839825,8142.13322505659,-14124.241360686256,-10437.264066976619,0.0,0.0,1.9,2.6
441.91954228051134,-54.40723166860391,-240.2951021488251,-539.6966090526805,-782.1042533716445,-1074.3068902532402,-1328.418299439561,-1618.0296455669823,-1824.005459580106,-2084.973212320372,-2113.6683331466384,-2344.937364258675,-1892.309655645815,-2282.770292423452,-559.5491108060062,-2038.6526037221254,3056.092433181167,-2285.4598996266295,9074.986086534233,1997.8206595549232,-410.4028025408936,143.27222829079324,406.5613722589784,789.9960506216426,1153.1754788227556,1597.2497290014194,2037.1233349639515,2578.6010045585645,3039.645818246674,3699.5969841888764,3988.809986911405,4858.791759000929,4382.050445441081,5927.034544092609,2903.8263197081997,6994.813483979776,-3511.405729273545,7926.815701865456,-13922.671992682157,-10129.898297195972,0.0,0.0,1.9,2.6
441.73647748747453,-58.74173496785602,-248.8116075450082,-553.0399685627784,-801.8330529406879,-1102.0283631460811,-1365.6127363657836,-1667.906760692048,-1886.470142598079,-2166.947828874814,-2207.9659734255492,-2469.919890370384,-2014.8303688886583,-2460.6753791164288,-671.3229429300845,-2277.4720119961494,3086.4556102705387,-2557.1934852664617,9329.369316992459,2385.7203598929254,-410.3168905525042,145.30640315257006,410.558153430667,796.2580660366621,1162.434170152343,1610.2593680236555,2054.5786195332544,2602.008247952349,3068.96038536279,3738.067529186932,4033.063705513654,4917.445841164883,4439.549203106328,6010.525091906703,2956.2815847530633,7106.891016983538,-3525.6551154804283,8054.339801069366,-14042.053600369656,-10311.938952022403,0.0,0.0,1.9,2.6
441.6469321200151,-60.861938876747445,-252.9774200471869,-559.5668162869943,-811.4833115938193,-1115.5882040638803,-1383.8062374724548,-1692.3039400609882,-1917.0244774268385,-2207.045364964686,-2254.091264316809,-2531.0545630535216,-2074.7608562455575,-2547.6968978998248,-725.9966389582172,-2394.2895128845416,3101.3076295928527,-2690.110816444642,9453.799795501165,2575.459853504811,-410.2297237150109,147.37028954333402,414.61331232893866,802.6115456014336,1171.828095637279,1623.4590282317627,2072.288859210151,2625.7573818598576,3098.703126454715,3777.0999820608267,4077.963802093883,4976.956635671857,4497.88779823316,6095.2351180628575,3009.5030210755776,7220.605575108825,-3540.112630851223,8183.726540791075,-14163.178917843243,-10496.63852623102,0.0,0.0,1.9,2.6
441.73827546533147,-58.69916347296669,-248.72796235267856,-552.9089162325513,-801.639285760186,-1101.7560956100392,-1365.2474297412546,-1667.4168906447542,-1885.8566432579987,-2166.1427119553114,-2207.0398254440943,-2468.692369576349,-2013.6270268863573,-2458.928077312934,-670.2251518432886,-2275.126437788113,3086.157397132567,-2554.5246431705255,9326.870882090956,2381.9105877372085,-410.2611938611535,146.62515752958745,413.1492643316739,800.3177269772989,1168.4365743391336,1618.6935094118544,2065.89487033534,2617.1831501882575,3087.965002120991,3763.0079610644098,4061.7533654644644,4955.471248411219,4476.825614154208,6064.651965343644,2990.288302477683,7179.550816240425,-3534.892984244814,8137.013600181837,-14119.448626982676,-10429.955802338234,0.0,0.0,1.9,2.6
