441.68998866798154,-59.84247059300742,-250.97435152107528,-556.4284793483141,-806.8431293076233,-1109.0681577214516,-1375.058165053229,-1680.5729218970032,-1902.3328833110063,-2187.7650655051893,-2231.9126092733586,-2501.658871656261,-2045.9441793207557,-2505.8539044101676,-699.7076113828389,-2338.119567824202,3094.1662586253665,-2626.1995092089187,9393.969264216115,2484.2264608108103,-410.1690982529337,148.80574455652288,417.43371860922394,807.0304584374978,1178.361671048622,1632.6395327569414,2084.6065198829533,2642.275157911852,3119.3895202562317,3804.2474695360656,4109.192298376131,5018.3470282690905,4538.462913651987,6154.15184516299,3046.5190979432896,7299.69526368902,-3550.167987061357,8273.716398902041,-14247.422868624171,-10625.09905095492,0.0,0.0,1.9,0.0
441.7637583425585,-58.09579450558567,-247.54245279992188,-551.0515017852281,-798.8930090581348,-1097.8972275180809,-1360.0699117063355,-1660.4739259321757,-1877.1614713560643,-2154.731729811656,-2193.9134610322335,-2451.2946258151483,-1996.571970945733,-2434.163438539982,-654.6660768988031,-2241.8824396104574,3081.9308000945744,-2516.698945121844,9291.460377935442,2327.9144028156106,-410.46718267809206,141.7478722700863,403.5662917687082,785.3034644144468,1146.2372641505676,1587.500654847145,2024.0428134091533,2561.060244880043,3017.67826879142,3670.768190761103,3955.647438471834,4814.837964780316,4338.962420377486,5864.468969411458,2864.5177525886293,6910.825590202511,-3500.727621868634,7831.252566142488,-13833.210621463539,-9993.481918541856,0.0,0.0,1.9,0.0
441.5897834761204,-62.21507172998918,-255.63607836393237,-563.7323081273282,-817.6421918638996,-1124.2422142514133,-1395.4174905008385,-1707.8744353259713,-1936.5245236649055,-2232.635966500251,-2283.5288321829858,-2570.0712508901497,-2113.009022376026,-2603.2347994609595,-760.8898744524456,-2468.8434732812075,3110.7863194479196,-2774.939830672866,9533.212425432395,2696.5532734458366,-410.36493049992686,144.16894080718134,408.32324817378003,792.7564955077594,1157.2569295107355,1602.9846863790058,2044.8180383171277,2588.9194725003217,3052.5683745644865,3716.5557126722324,4008.3180754548866,4884.647869277087,4407.39726128177,5963.839157371888,2926.9498444059427,7044.219918210961,-3517.6871966081694,7983.031348760744,-13975.298236235283,-10210.146134553705,0.0,0.0,1.9,0.0
441.783215381666,-59.9864423154728,-250.8601558808382,-556.5055213644932,-806.7933673401269,-1109.1048759911778,-1375.0333159925287,-1680.5955783112993,-1902.316345164735,-2187.7885307965425,-2231.884504418591,-2501.714480794438,-2045.862900596672,-2506.0154973678705,-699.3964293627121,-2338.808567831478,3095.290890648068,-2628.358660902809,9396.463744060484,2481.934800785746,-409.9859159624744,148.52367053487126,417.66264697164706,806.8687338228045,1178.481092259008,1632.5431318127785,2084.688006041005,2642.2034634714823,3119.4504555138974,3804.196726586826,4109.21567715532,5018.367759445706,4538.323522548043,6154.515019716093,3045.7239026745146,7301.344441539306,-3552.8910296688705,8278.818955556813,-14253.125011607397,-10620.332310901926,0.0,0.0,1.9,0.0
441.8422385811456,-58.21697076040198,-247.4468055611926,-551.1157437636475,-798.8519315166943,-1097.9276370799853,-1360.0517167358737,-1660.4874885439776,-1877.1607266817696,-2154.7294835825887,-2193.92467353517,-2451.2960569109105,-1996.5514750308757,-2434.255693183507,-654.4705055936879,-2242.340499378304,3082.64997140977,-2518.183012978745,9292.674118642495,2326.813538742069,-410.3268782174874,141.53091894293004,403.7439682048137,785.1769417648286,1146.3296870445467,1587.4281839257228,2024.1023064365381,2561.009205198142,3017.7224492870373,3670.7312161894033,3955.663080276944,4814.860247139347,4338.832077795405,5864.807199310269,2863.7748383584003,6912.370579729375,-3503.2670847676914,7836.01954386601,-13838.46172819791,-9989.096381067915,0.0,0.0,1.9,0.0
441.70884142391344,-60.71606857454276,-252.46892463786207,-558.9103470930161,-810.4276164702687,-1114.1539561799402,-1381.8557517826366,-1689.697848977528,-1913.7647363297697,-2202.7508460416375,-2249.1742786377217,-2524.5136223606733,-2068.3423539414575,-2538.462676646629,-719.9811145834628,-2382.250790158827,3100.4734555608006,-2677.505234654181,9441.920909382306,2553.9198513466818,-409.62451007920913,146.54098146908382,415.57664507054227,802.3825796264788,1172.693452779374,1623.788507293251,2073.435780571646,2626.6942019015178,3100.3817794855336,3778.8434116522994,4080.3283367101008,4979.810016299583,4500.7317365284,6099.690329734694,3011.432727404952,7227.770624732871,-3543.424490142638,8195.046359731943,-14174.600614194393,-10501.227823528407,0.0,0.0,1.9,0.0
441.68984065575887,-60.73870952009747,-252.5873913497005,-559.0450963019407,-810.663695433196,-1114.4568963995757,-1382.285362590076,-1690.2564067872727,-1914.4751140828503,-2203.678503696179,-2250.2365483938015,-2525.9452635289344,-2069.697877826894,-2540.5347664247674,-721.1481450993091,-2385.106989093958,3100.9895106019108,-2680.72209312805,9444.93657146575,2558.1764188319094,-410.30087254837855,145.98155113969256,411.83700142215787,798.2867623003762,1165.4264896669397,1614.4584514095684,2060.226660322185,2609.5601496180293,3078.4418260865523,3750.4915182069217,4047.347856758473,4936.449587603876,4457.970029496681,6037.8632938834435,2972.4572629523686,7144.704044417149,-3532.9002070949923,8100.500254643775,-14086.113971732975,-10366.177916810611,0.0,0.0,1.9,0.0
441.8308650841479,-58.26405483345377,-247.57830056072748,-551.294056956174,-799.1383165722223,-1098.3071317050972,-1360.5870153822873,-1661.175117018548,-1878.0521352260118,-2155.870891363971,-2195.257029219162,-2453.0530018207946,-1998.264286630418,-2436.7794663503664,-656.0003737974487,-2245.785728185334,3083.22919916677,-2522.2361762403107,9296.724494306243,2331.80852928297,-409.9716013368542,142.45959469491845,406.84729626444914,789.1821322162992,1152.848814929101,1596.140701019082,2036.1564604838748,2576.8556059560433,3037.8401247026663,3696.8817342548964,3985.9491480732804,4854.815212271633,4378.129250840684,5921.728018561547,2899.608867334105,6988.848427950656,-3513.0455814477327,7923.1871205046955,-13920.182498402392,-10113.092137909756,0.0,0.0,1.9,0.0
442.0770988069544,-51.36307929524105,-234.20165430086615,-530.2147915685769,-768.0531522026163,-1054.5723218166981,-1301.9461317389746,-1582.5144197089112,-1779.5496662626456,-2026.6066955088445,-2046.5411452655112,-2255.9819254153317,-1805.0405423592576,-2156.243999661642,-479.6988446869023,-1869.2587080717126,3035.484893854261,-2093.9386548796356,8896.107642419454,1719.6178058455826,-410.2495295534498,147.35259370247877,414.49683677781854,802.4856819853585,1171.5997488221094,1623.173995303036,2071.8765539472242,2625.2252320732587,3098.0277807589127,3776.21302237516,4076.9309837967658,4975.661428507903,4496.396994118816,6093.701562587027,3007.484194526808,7219.686706937353,-3542.5107606943407,8185.884320878948,-14166.113863600294,-10487.716174382258,0.0,0.0,1.9,0.0
441.4937040854873,-64.92822716014382,-260.89769336850895,-572.0116013282111,-829.8737203192482,-1141.4197141096308,-1418.4887389707828,-1738.7760585520816,-1975.269153626601,-2283.431166745837,-2341.9976603743085,-2647.5619970977546,-2188.9004444168886,-2713.6731821301155,-829.8368737639744,-2617.6433359917996,3130.8614114670613,-2945.7751912720305,9693.745098170644,2934.3915604166295,-410.3223775747413,145.91144295393633,411.62046867046615,798.0061097323603,1164.9639715619992,1613.848773909828,2059.3728342056297,2608.4503452238987,3077.0229643599787,3748.64697913482,4045.2232660337872,4933.625165484406,4455.212641729432,6033.851003436613,2969.9337813216684,7139.321864818973,-3532.2110132539706,8094.355066706281,-14080.31337105645,-10357.511175033746,0.0,0.0,1.9,0.0
441.6759116951065,-60.4788880136108,-252.1785412728526,-558.335861412206,-809.6627104801978,-1113.015888008816,-1380.378782947766,-1687.676717792882,-1911.262973350192,-2199.4484362469884,-2245.3825471004016,-2519.4955472273455,-2063.379794591001,-2531.3965692764496,-715.3357300643927,-2372.852978589982,3099.4600160212717,-2666.718896374344,9431.818790016783,2538.174142461855,-409.63006269623247,147.15147512718522,416.6412522472417,804.14757296093,1175.2313372499787,1627.4090292421595,2078.251984411814,2633.1838576280857,3108.4832870871824,3789.5065385608373,4092.55888163915,4996.061379350688,4516.62767615733,6122.814974266017,3025.9369401708905,7258.801582981074,-3547.3831314861372,8230.38108895988,-14207.693465894417,-10551.578917937033,0.0,0.0,1.9,0.0
441.6263397608889,-60.855495411404604,-253.0562699145048,-559.6168606361118,-811.6236809821296,-1115.7201342497403,-1384.05133714952,-1692.5575865476817,-1917.423090440815,-2207.473646179671,-2254.677689586845,-2531.74276691868,-2075.4684983989937,-2548.7847929432874,-726.4513914881423,-2396.125859285684,3102.2284580212126,-2693.1879827171865,9456.42445959032,2576.6729481022185,-409.88080135869575,144.1819203500312,410.3062978884663,794.5476555095191,1160.82364367939,1607.3109631134084,2051.176980281662,2596.9660644681226,3063.052011419492,3729.946971012774,4024.0059868229846,4905.222657193033,4427.582959003522,5993.484552017324,2944.725681075204,7085.181771018199,-3525.2609339248684,8032.759652879406,-14022.658821374655,-10269.745039165322,0.0,0.0,1.9,0.0
441.89996653511787,-56.776808844292646,-244.63007408478245,-546.6932338388781,-792.3212871389989,-1088.742040677699,-1347.7381540486424,-1643.9633092550912,-1856.476099961297,-2127.5788372210145,-2162.69642682192,-2409.894020340124,-1955.980073642645,-2375.33791981514,-617.4272089369239,-2163.3121383883213,3072.741928876249,-2428.4813115872603,9209.150217309276,2197.5976489664945,-410.45991697723025,148.48228049414786,415.6753664656812,805.0253989930134,1174.8837777443816,1628.1229200057658,2078.2559774452498,2634.0065330425714,3108.826073798842,3790.5732327574947,4093.2931780909926,4997.492184680854,4517.70309343078,6124.72635688449,3026.9375574057076,7261.307361523299,-3547.8076829475876,8233.23970248539,-14210.457799667769,-10555.267478768295,0.0,0.0,1.9,0.0
441.6895740916558,-59.85228669988942,-250.99363837286478,-556.4586973064047,-806.887808013309,-1109.1309369863634,-1375.142397208307,-1680.685875802153,-1902.474343575056,-2187.9507088215764,-2232.1261598501674,-2501.9419125733393,-2046.2216451077315,-2506.256796082121,-699.9607393105782,-2338.6604087441415,3094.2350204109184,-2626.814889021419,9394.545351654204,2485.1049155018422,-410.4087934524082,143.13037889657346,406.28266417395423,789.5593806465162,1152.5298412390562,1596.3425260700274,2035.90612322663,2576.9687440646517,3037.6016215431982,3696.9143124314223,3985.724036321327,4854.701625895708,4378.0408767368635,5921.212486343551,2900.1684495620984,6986.9979660966765,-3510.412074883343,7917.923046476586,-13914.347138764082,-10117.204031403668,0.0,0.0,1.9,0.0
441.61032096601195,-62.24634443969785,-255.61401111329428,-563.7443843672843,-817.6392085886646,-1124.2423105832263,-1395.4228879758973,-1707.8709209736967,-1936.5324496004228,-2232.6335990847847,-2283.533373395747,-2570.0882836320316,-2112.957125500764,-2603.385895972903,-760.5820314587955,-2469.5191285159917,3111.8776257088443,-2777.0474831828196,9535.546923941638,2694.407412789411,-409.6432637705549,143.0517252771857,409.23602882940224,792.1095606780024,1157.7314903449883,1602.6054013471328,2045.1343265874193,2588.646731358378,3052.8020070609755,3716.3565176275706,4008.4648238540776,4884.570354733367,4407.343552888089,5964.115702400517,2926.251005706228,7045.750618375456,-3520.261901765026,7987.910028291944,-13980.71098077441,-10205.627983031653,0.0,0.0,1.9,0.0
441.7787351324063,-59.990014210489335,-250.88442420534966,-556.5323032807312,-806.8409159109666,-1109.1641139533797,-1375.1238731888561,-1680.6980857452427,-1902.4751986818608,-2187.9485838381916,-2232.1308947783396,-2501.960630966879,-2046.170888532699,-2506.3998300811254,-699.6568869635668,-2339.334892321244,3095.3160792496387,-2628.8765807313566,9396.894180989939,2482.901040773672,-410.1758370601031,142.77186442373932,406.5733908213209,789.3547978908643,1152.6787539487577,1596.2247669745464,2036.0047984305384,2576.8826969176407,3037.674864648667,3696.855142602929,3985.753024837386,4854.71872087822,4377.916483580177,5921.535523860313,2899.4432267568673,6988.535167682369,-3512.966279249549,7922.7419230801015,-13919.66270935553,-10112.76399974612,0.0,0.0,1.9,0.0
442.08864979475493,-52.69474501646789,-236.5432670564319,-534.0672089145254,-773.6236366844557,-1062.4892941938697,-1312.501267990402,-1596.7192993845626,-1797.303234476534,-2049.933029114259,-2073.359547010825,-2291.52716738234,-1839.8857479122585,-2206.866784558314,-511.47798147884845,-1937.180963693025,3044.0545302899527,-2171.0390116259814,8968.020347499829,1830.3759844352944,-409.6890304493278,145.68643637476907,413.7890857101731,799.6464277204914,1168.612790294822,1618.0712061991678,2065.7581889182793,2616.4024216447733,3087.485416818783,3761.9352702199026,4060.8554110048235,4954.029932258004,4475.430867746387,6062.987935478934,2988.3552973345313,7178.487770910353,-3537.1617025220685,8138.978958243794,-14122.150013958893,-10421.126902227843,0.0,0.0,1.9,0.0
441.5569257724293,-62.373686193431695,-256.05945450476224,-564.3101264954332,-818.5700483585354,-1125.4758935257676,-1397.1445721919551,-1710.1121842361144,-1939.4101244898957,-2236.3274409459686,-2287.8690631236586,-2575.7278895786385,-2118.6048717892345,-2611.386191598518,-765.8336346940471,-2480.126118399834,3112.8197782837556,-2788.6828042748416,9545.667141730848,2713.4655099163792,-409.6152189174599,147.3534281890661,417.0714265129711,804.7942010333635,1176.208507884004,1628.767248329745,2080.0828357450673,2635.637546480477,3111.550475223413,3793.544822876599,4097.186623099885,5002.214939678606,4522.645633571168,6131.567119352372,3031.420951331482,7270.572229539426,-3548.920823926348,8243.802082709675,-14220.296281567751,-10570.563257497834,0.0,0.0,1.9,0.0
442.0318889602171,-51.36819113287288,-234.3958333916412,-530.393270921898,-768.406955624227,-1055.0000983793489,-1302.5783513555261,-1583.3088380104612,-1780.5950653680866,-2027.9223730217964,-2048.1160659253674,-2257.9942594879117,-1807.0820133756731,-2159.1069881606672,-481.6599756817534,-1872.885262237845,3035.4920010403775,-2097.585290276227,8898.762269101539,1727.3663371417606,-410.49034152958166,149.1104022569159,416.66945226100313,806.7519755285324,1177.3121105786176,1631.6330651750245,2082.8830980234216,2640.285014390178,3116.624599411978,3800.8705879079776,4105.078352687598,5013.182056153474,4533.01639299923,6147.055161352624,3040.910139176356,7291.243388318393,-3551.6072757353486,8267.260184200873,-14242.249635392804,-10603.942475280233,0.0,0.0,1.9,0.0
441.5856626727746,-63.31572107195427,-257.6313515281853,-566.961726370217,-822.3567346413622,-1130.900135662036,-1404.3335656510462,-1719.8354954817842,-1951.5109709035446,-2252.2853018566416,-2306.148058587319,-2600.055034537115,-2142.3447826845895,-2646.025516164595,-787.4020807010879,-2526.7703930802027,3119.119832595689,-2842.1376181919104,9596.328315216495,2787.680408149414,-409.9012368009476,142.93102965167702,407.979449250193,790.8177038827572,1155.357963817477,1599.609626275928,2040.8460281744233,2583.121863168925,3045.700274119437,3707.191750049895,3997.806145128585,4870.543933639103,4393.526901036328,5944.121930998692,2913.6588876029173,7018.871511139154,-3516.81327307804,7957.2656441855215,-13951.983897460868,-10162.054443853584,0.0,0.0,1.9,0.0
441.95231641160393,-54.21357442813576,-239.82011449401136,-539.0057980367455,-781.0588330587995,-1072.841578501154,-1326.464867626615,-1615.3815441596403,-1820.7292732542724,-2080.624244509464,-2108.706296831593,-2338.34613085605,-1885.7987144337735,-2273.499563427472,-553.3962562735794,-2026.5795229668747,3055.3453076565347,-2272.7757522369434,9063.174948950636,1975.8448717790561,-410.23366730749,142.67039605411014,406.1673322806499,788.8476054744085,1151.8500701220569,1595.1065650361209,2034.4753962794093,2574.8556886421234,3035.11557365109,3693.513812132157,3981.8994509211543,4849.613355348098,4372.9163267362865,5914.270453121647,2894.87199495595,6978.800780250827,-3511.7592304539266,7911.699788540135,-13909.393017562581,-10096.81013585072,0.0,0.0,1.9,0.0
441.8862778939423,-56.967888739004025,-245.0281897166069,-547.3020930551235,-793.231090388758,-1090.014719093321,-1349.4478953916346,-1646.2579991682333,-1859.3414800766395,-2131.358294963671,-2167.013975670313,-2415.660734168894,-1961.5941633104446,-2383.519237015329,-622.6084405541432,-2174.153124597142,3073.8361003240293,-2440.3829481677762,9219.67208071136,2216.5299196366495,-409.65856197144313,146.92390521163134,416.12475634445286,803.3785618423422,1174.0694511892186,1625.7967412269336,2076.0668959926816,2630.2808356430105,3104.8162292596007,3784.727934785259,4087.036218197104,4988.755872673657,4509.468030778433,6112.407889732793,3019.397326463307,7244.865583088473,-3545.658501058606,8214.565712092091,-14192.964188901886,-10528.759610487834,0.0,0.0,1.9,0.0
441.7111408460761,-61.45427660366238,-253.7832549884523,-561.0609491386351,-813.5448451542874,-1118.5779851377963,-1387.7600298976063,-1697.6385941675483,-1923.6914792983705,-2215.796875973196,-2264.1595976719955,-2544.4107504395874,-2087.793529581511,-2566.816952011568,-737.6903873729084,-2420.2812112689153,3105.32674002281,-2720.722636993228,9482.254530061662,2615.7525668882417,-410.5221492055292,145.36728956687818,409.8361305381635,795.6885809069566,1161.2049204862037,1608.818188870055,2052.414852065416,2599.30428229708,3065.409016120649,3733.5558295827896,4027.730447437956,4910.583298830483,4432.510904563529,6001.00017117839,2949.2563769478825,7095.166543585536,-3526.57115757488,8044.076920808499,-14033.24218724822,-10285.825542556671,0.0,0.0,1.9,0.0
441.37142350328264,-68.95941177989289,-268.6240046694022,-584.2474439358443,-847.8739840864927,-1166.779371702595,-1452.4630418017473,-1784.374281059007,-2032.346500973363,-2358.3592359402373,-2428.1752299493487,-2761.780876226958,-2300.8836921508646,-2876.2670965532875,-932.0031542115541,-2835.846069311136,3158.4196826120574,-3193.7118788777802,9925.090762912618,3290.101525750528,-410.53308244814934,142.0369045644269,403.8117727726495,785.9080293620281,1146.9762482615242,1588.6550856494143,2025.49666179204,2563.0932126566877,3020.1571291905598,3674.0753224367613,3959.394649421545,4819.919192836968,4343.699130835943,5871.98603918212,2868.2183436780188,6921.976839904668,-3504.5136516328707,7846.949031469306,-13848.693367217316,-10004.630086409055,0.0,0.0,1.9,0.0
441.99779841457865,-52.55432775097654,-236.65448519226993,-533.9926191372592,-773.6706296132913,-1062.4565761177346,-1312.5185035170957,-1596.708286320071,-1797.3031945526952,-2049.930883903792,-2073.3581857075837,-2291.5101094519623,-1839.934771178284,-2206.7198180585406,-511.76827939283476,-1936.5626094212184,3043.112849161047,-2169.2998253302467,8966.242903836524,1832.0021505570066,-410.26319568479727,146.57775943961826,413.0561357724926,800.1718164373124,1168.2208385841227,1618.3903732312087,2065.4881466550637,2616.6377405629046,3087.281946591731,3762.111563092096,4060.722214396138,4954.104556041735,4475.485841875557,6062.706561198043,2989.0660480701004,7176.93930987209,-3534.560960851557,8134.042175059981,-14116.666929167655,-10425.714092901024,0.0,0.0,1.9,0.0
441.83769383223944,-59.309782921909914,-249.42480089430842,-554.3283449124119,-803.5248384819818,-1104.5459821476077,-1368.8974955131362,-1672.3701582985875,-1892.0289828899477,-2174.2562151508437,-2216.371947531014,-2481.0576423087973,-2025.7340753277622,-2476.6007516945065,-681.0780281703301,-2299.27381212608,3090.0078098835147,-2583.0799300803383,9353.560096403507,2418.913558335221,-409.84753469725433,140.1958042119818,403.29835411100385,783.0113939527654,1144.151924478824,1583.6054980731592,2019.5907141485986,2554.4210486238044,3009.928374467455,3660.0906468458734,3943.7563455838563,4798.766996572884,4323.2824221022365,5841.975515692107,2849.57797964588,6881.785260566983,-3499.354681989663,7801.306859169753,-13806.042126299892,-9939.429984903862,0.0,0.0,1.9,0.0
442.00892189349776,-53.03272036119256,-237.47302675525384,-535.3457624540938,-775.637122340675,-1065.2287502056504,-1316.244504105853,-1601.6884600568642,-1803.5621697119254,-2058.117338189598,-2082.799302763434,-2304.011591475599,-1852.1593494370845,-2224.605499483174,-522.7498488546071,-1960.867136473995,3046.7720338053723,-2197.7209799664965,8992.500830297216,1870.0761056250149,-410.43272521103603,140.470875740652,401.41862510401023,781.6903278555966,1141.0741758360714,1580.1072719412978,2014.2392276490873,2547.8071478560023,3001.178019679327,3649.0187873362547,3930.6930216124338,4781.760790686385,4306.3898062348,5817.678224774464,2834.194240915644,6849.10483917563,-3495.209776050161,7764.028205800719,-13771.055158280544,-9886.400596271922,0.0,0.0,1.9,0.0
441.7460093469128,-59.81812108493148,-250.70862742379893,-556.1486874138365,-806.3480858780322,-1108.4175896326963,-1374.1637446849254,-1679.3770933363005,-1900.848096988949,-2185.7877130285738,-2229.6713366843273,-2498.6616102271055,-2042.9855154995146,-2501.6916582995664,-696.8122941302116,-2332.890984530418,3094.1876353847765,-2621.1750454779312,9388.959496626623,2473.9971966255202,-409.74454123082194,144.82329317717642,412.0059022624081,796.919282740277,1164.5276008252529,1612.3744665780096,2058.080832236017,2606.130087603063,3074.609381879527,3745.037664007308,4041.4285294847964,4928.260548617475,4450.196861012784,6026.297141031504,2965.3423283205047,7129.256522894289,-3530.906451714679,8082.992965943628,-14069.79167459883,-10341.114022047386,0.0,0.0,1.9,0.0
441.9470727351703,-53.60031777710151,-238.74111531067967,-537.2311115654747,-778.4930598012156,-1069.194128038436,-1321.6006392680374,-1608.841331963674,-1812.545732103291,-2069.8812321761707,-2096.3578423340914,-2321.9495451593857,-1869.7646023745879,-2250.1731617605246,-538.7781474717266,-1995.2219876994113,3051.195479336277,-2236.8120752377868,9029.086135313471,1925.761769182991,-410.412326371069,140.42011606860797,401.40705072076065,781.6162577593955,1141.001206316966,1579.9787824463554,2014.085447200821,2547.5906755029073,3000.9067262453855,3648.673087742337,3930.279812414302,4781.233388410716,4305.846588767395,5816.9409782113835,2833.6830140344223,6848.105310698945,-3495.114858048597,7762.921171115696,-13770.106167286967,-9884.581093043871,0.0,0.0,1.9,0.0
441.9213789608419,-54.52549641069629,-240.50572583320434,-540.0304099931063,-782.6089842888978,-1074.9933948636308,-1329.3719156678035,-1619.2658350509264,-1825.600248780928,-2087.0189939643915,-2116.053036972021,-2348.0950699632845,-1895.3561008855577,-2287.3486564147693,-562.167883733643,-2045.088873255225,3057.5029735563467,-2293.6314479469074,9082.46610559062,2006.5535722513823,-409.88120329819407,144.6160100110767,411.0828788825952,795.8206314600992,1162.6550453284399,1609.9399153284053,2054.6429459211113,2601.677401709364,3068.892599170362,3737.671545631196,4032.835076376305,4916.990441455691,4439.058147828207,6010.225082663097,2955.1880455299697,7107.649951957252,-3528.170066237598,8058.389201650168,-14046.762590684148,-10305.973900969253,0.0,0.0,1.9,0.0
441.6835924875214,-61.60068219414313,-254.1588062967602,-561.5890036682358,-814.3686789852206,-1119.7031376592538,-1389.2955165299954,-1699.6742635437045,-1926.2667634977583,-2219.142243141492,-2268.0452702146267,-2549.520404720145,-2092.833708855196,-2574.101117058953,-742.2537062824767,-2430.1747828904445,3106.744418769825,-2732.112631775385,9493.19446079819,2631.166458492079,-410.13354817888006,146.5753415152726,413.5758167131914,800.6346745991352,1169.150272174641,1619.5128992244831,2067.1423994892875,2618.7279222865905,3090.0071060584696,3765.594588802963,4064.7812509766964,4959.500202983965,4480.602548798823,6070.7017852728095,2993.0891797243376,7188.794634174397,-3538.515841709726,8150.69558770701,-14133.126289806654,-10437.747243966554,0.0,0.0,1.9,0.0
441.84603858983,-57.75522751680194,-246.60249527248993,-549.7511695457376,-796.8642883848645,-1095.1089675406208,-1356.2969045238583,-1655.4214484148872,-1870.8464555021078,-2146.416182500204,-2184.3812715804092,-2438.629245996864,-1984.1588877284516,-2416.2001501063214,-643.2060388124124,-2218.0689882171946,3079.4460483609632,-2490.453481610897,9266.566150040668,2287.8443824495102,-410.2072552951119,143.00234235254698,406.87012419984643,789.9143836404797,1153.449975862936,1597.3405087142662,2037.4852658500745,2578.874071234887,3040.1702755651186,3700.1206281038912,3989.528152943197,4859.6933435053415,4382.813705143199,5928.646476029337,2903.889098773552,6998.0759320887755,-3514.1844380656585,7933.601733840727,-13929.870275060668,-10128.178578671705,0.0,0.0,1.9,0.0
441.77232672106004,-58.089444937787675,-247.50106383010723,-550.9966644383511,-798.8173341822134,-1097.7739192735773,-1359.9292893536754,-1660.2545960379678,-1876.919776135071,-2154.380111480983,-2193.5346860177924,-2450.783278978981,-1996.0347518735769,-2433.5270948828475,-653.9731284315113,-2241.4480836975936,3082.7009017428445,-2517.3342219502256,9292.082753019606,2324.8249976487796,-410.3369078942157,143.9509166340556,408.03931049187133,792.2189092693947,1156.5238713686977,1601.909306384623,2043.413413579718,2586.9994981348177,3050.1953358603664,3713.418615093937,4004.706211392787,4879.919025595931,4402.574537453227,5957.388903439272,2921.933352012819,7036.66591178255,-3519.114821973962,7977.515851456999,-13970.951156085144,-10190.853382658648,0.0,0.0,1.9,0.0
441.8542641737271,-58.06485065835204,-247.1246579309685,-550.6271045642782,-798.1182406831279,-1096.9044373900954,-1358.6728843987353,-1658.6459093585277,-1874.8411620066026,-2151.712182978833,-2190.4078381180384,-2446.7154704358018,-1991.9493452652232,-2427.7847608666307,-650.1595873850251,-2233.787491137494,3081.982223695471,-2508.853953250364,9284.55190601653,2311.3233395751586,-410.5923539989069,147.98193854914405,414.2373786052731,803.0805327771511,1171.7911357046298,1623.9404163220352,2072.5190006035186,2626.4069660397377,3099.2429392085633,3778.048539011443,4078.8457251469526,4978.382510582773,4498.941779277655,6097.507754419895,3009.8442004681256,7224.731444487639,-3543.099257602784,8191.538847857069,-14171.32947116278,-10496.07919807904,0.0,0.0,1.9,0.0
441.98161285232806,-53.151342805284685,-237.79666474281703,-535.7920473345084,-776.3382599113652,-1066.1850928446538,-1317.5507320527577,-1603.416780779115,-1805.754373603683,-2060.9585672381895,-2086.1007634569182,-2308.3626809781317,-1856.4242890223861,-2230.841227314102,-526.569104516479,-1969.3630174678708,3048.1424580116936,-2207.718230130463,9002.439839955057,1882.548267090578,-410.2430764224057,140.84542423972835,402.8541556990191,783.4747373738376,1144.0308262570002,1584.030444999003,2019.6814037913373,2554.963637861407,3010.246137682634,3660.838629899664,3944.344976631897,4799.807563840726,4324.10570985722,5843.398345243169,2850.334424484392,6883.640083333533,-3499.630669819243,7803.370286081122,-13807.932203846138,-9942.37206033769,0.0,0.0,1.9,0.0
441.5814481073804,-62.412431808718566,-256.02385478601354,-564.3398625128009,-818.5404902794143,-1125.5044377881838,-1397.1110402596462,-1710.1454571041127,-1939.3686868677435,-2236.368462635688,-2287.822424428054,-2575.761997798351,-2118.587677183106,-2611.3352344061577,-765.9791986115484,-2479.717479844455,3112.168825958612,-2787.312496759362,9544.795089241721,2714.215254599043,-410.19263587590206,148.24843416602778,416.3387057340844,805.3148309801632,1175.8250332420207,1629.0752339767196,2079.8242311990425,2635.8621891181547,3111.3581001985126,3793.707552451985,4097.067943893446,5002.277353075559,4522.70976697243,6131.277631884152,3032.147735536193,7268.988968655445,-3546.26403017331,8238.778151162705,-14214.71544931249,-10575.224701429312,0.0,0.0,1.9,0.0
442.1284134371796,-51.48055481105075,-234.20455751948316,-530.3713461940091,-768.1813870608865,-1054.8250830794316,-1302.2319896697645,-1582.9368722838922,-1780.0547244626325,-2027.2772767173033,-2047.3260748520445,-2256.986794742512,-1806.0632246847522,-2157.676669768396,-480.6893354922456,-1871.0432196435315,3035.421771812709,-2095.651857836062,8897.312913846139,1723.551026420212,-410.02672632754616,138.0311754248487,398.68151942915574,776.0293831534799,1133.64814861093,1568.9838800627822,1999.856502108709,2528.066616512373,2976.8257229423216,3616.7367757556076,3893.8153890455937,4732.637488593209,4258.415679433217,5747.826370870343,2790.404007175501,6755.389332415338,-3483.286883235419,7657.4569321009685,-13671.385484465967,-9734.126559851517,0.0,0.0,1.9,0.0
441.74257593129556,-58.81256207075853,-248.9179255877848,-553.2197023841197,-802.102312563026,-1102.389831856979,-1366.1245038953925,-1668.5578228869283,-1887.3261629167202,-2168.02447438218,-2209.2458340285853,-2471.587627091938,-2016.4385574858188,-2463.1686017076954,-672.5614710730395,-2281.2403324042775,3087.792198198108,-2562.671244703074,9334.700475176076,2389.1093619108237,-409.83918593456684,146.55693612470407,414.7357503162951,801.6496476775267,1171.2061549562345,1621.9935749653775,2070.7977373473664,2623.3445963415634,3096.035493470189,3773.274704746261,4073.81235817975,4971.276389424695,4492.291811480727,6087.518309549894,3003.7286710059316,7211.4386783186765,-3541.4073061817153,8176.495917844345,-14157.295647887455,-10474.497974448792,0.0,0.0,1.9,0.0
441.82763392139015,-57.44211226775087,-246.11642797486388,-548.902071807213,-795.6689512881462,-1093.38882473125,-1354.0132649461584,-1652.3505614647324,-1866.9946661029317,-2141.3806664004705,-2178.5550999418774,-2430.966739735053,-1976.5689260495242,-2405.3109384944137,-636.21840621092,-2203.547598246929,3077.922236284847,-2474.341425197171,9252.096012672846,2262.852950955235,-410.0702354104551,142.7136762527997,406.89947642467496,789.5686220316794,1153.2037652086321,1596.8033283707396,2036.9129346505015,2577.9844262586284,3039.154982895716,3698.7007203127732,3987.963388857344,4857.558254779378,4380.76237752773,5925.626992384135,2902.0098109144215,6994.035904349628,-3513.671705408847,7929.01789561222,-13925.557356148078,-10121.664987430262,0.0,0.0,1.9,0.0
441.7894780649584,-59.080560115622916,-249.20975326943596,-553.8332209852887,-802.9019768071028,-1103.5922032646129,-1367.6757538604888,-1670.6887461366694,-1889.955584756183,-2171.504748959427,-2213.2361223378907,-2476.872138742204,-2021.6397107742814,-2470.681419280805,-677.3166485822844,-2291.315835156444,3088.9949252782217,-2573.989505064221,9345.091202775164,2405.872709545362,-410.39563923830764,143.66860832011832,407.29360384202397,791.1784907565861,1154.901634400205,1599.6828343962657,2040.3916684540773,2582.970426626116,3045.1375581762413,3706.7829427960023,3997.0718270636376,4869.818239425318,4392.636976203769,5943.019877882753,2912.851418047599,7017.381301012202,-3516.713129558331,7955.604013802238,-13950.503581327392,-10159.338649744106,0.0,0.0,1.9,0.0
441.7011190661058,-60.266958894465915,-251.6947687160822,-557.6248167117449,-808.5768440830816,-1111.5166381476092,-1378.348782589479,-1684.9634683565348,-1907.8668481332938,-2194.979287072393,-2240.260431090415,-2512.679790852566,-2056.738077395308,-2521.6533405192104,-709.3639478248906,-2359.678050091258,3097.5663604379165,-2651.600136527806,9417.428522117918,2517.564315306957,-410.10063748802696,147.86927020196458,416.03095124594705,804.5374320324588,1174.8819030183095,1627.5972746865327,2077.963450022465,2633.2628574000214,3108.1851647833982,3789.481439960072,4092.2243804702575,4995.916463587004,4516.255970610858,6122.541079680368,3025.5973033937817,7258.39872532655,-3547.426947594628,8229.908999723997,-14207.297998409827,-10550.627794087735,0.0,0.0,1.9,0.0
441.83670914468064,-57.19221313877176,-245.6318054329298,-548.1381595933567,-794.5435828635435,-1091.8021002657983,-1351.892993233289,-1649.4938385509222,-1863.435015827491,-2136.685137899021,-2173.179807510747,-2423.8135034448974,-1969.57981816671,-2395.136984953552,-629.8457173123522,-2189.872251275237,3076.0252529016634,-2458.3804508903177,9236.618080949624,2241.558900915561,-409.93594739597086,142.26213064068088,406.63260019274315,788.7342506040093,1152.2600558292988,1595.2598781753013,2035.0226542788798,2575.28567799168,3035.9180784783916,3694.326576714045,3983.0290412480053,4850.929052250465,4374.327539983229,5916.207978581515,2896.143926758248,6981.407942472206,-3512.042116925963,7914.6414696695565,-13912.08252474462,-10101.241156468393,0.0,0.0,1.9,0.0
441.9652596130587,-55.508666757244555,-242.08986898469504,-542.7470509798227,-786.4622304579988,-1080.5276114097205,-1336.702741095985,-1629.1757541806708,-1837.9487495881601,-2103.2714161311883,-2134.7244743528026,-2372.8475063411834,-1919.6193279476977,-2322.6115879462686,-584.2468191906188,-2092.502992531079,3063.705420104644,-2347.752553530287,9133.391759300303,2082.8773635209027,-410.1485364554893,146.06328163098863,412.589316640762,799.0807840697199,1166.856043138363,1616.2856908940817,2062.820313493537,2612.918135440821,3082.7480557876397,3756.0491619059667,4053.8227687494445,4944.945562538007,4466.364680541914,6049.988276592818,2980.0898389635404,7161.024817899695,-3535.0073811044495,8119.112829028042,-14103.593129125715,-10392.56033536452,0.0,0.0,1.9,0.0
441.92419053661865,-55.74618849686328,-242.68159921565643,-543.5913255795881,-787.7662353935697,-1082.3209398893362,-1339.1389181977281,-1632.4167164779547,-1842.029189153735,-2108.6093271871123,-2140.8747491493245,-2380.9896207140328,-1927.617544515455,-2334.1852408224886,-591.5506359155563,-2108.083592272774,3065.746626346548,-2365.5967762696127,9150.149352675217,2108.0562563735552,-410.0767405941779,147.07046502617607,414.68825904803487,802.2864347019579,1171.6552318069776,1622.984576163139,2071.842281740379,2624.9909387972875,3097.884508713347,3775.904804264941,4076.6610158306285,4975.231543744234,4496.025015376979,6093.10700038663,3007.142794038945,7218.893308313951,-3542.3682332954004,8184.923215694714,-14165.135356314338,-10486.601610586988,0.0,0.0,1.9,0.0
441.6274299727886,-60.98405175184564,-253.28110308733687,-559.9895729661697,-812.1583499666617,-1116.4859925707256,-1385.065178544796,-1693.9310596115197,-1919.1252970047633,-2209.737087156506,-2257.2407864037705,-2535.192343668459,-2078.798065267243,-2553.699176990324,-729.4699373944094,-2402.725915801715,3103.101311131011,-2700.6851774189654,9463.612474997495,2587.028339991817,-410.56468569827496,143.69598297662242,406.6646141073463,790.6437468409407,1153.8053293779521,1598.3621010699935,2038.4503678314231,2580.5051547950466,3041.93898650405,3702.6828929973044,3992.279913725224,4863.530697161745,4386.431992730189,5934.062316996139,2907.1862897925066,7005.33534868616,-3515.1774997376833,7941.870230486484,-13937.646046252772,-10139.759616207597,0.0,0.0,1.9,0.0
441.91674513823386,-55.962001814370296,-243.0997775609095,-544.2494043155044,-788.7385328966301,-1083.686569879855,-1340.9714165618248,-1634.8755532127789,-1845.1050352981733,-2112.651827326845,-2145.5150956283305,-2387.162790755196,-1933.6261894173203,-2343.001998166489,-596.9937174092643,-2119.9221826582816,3067.28044319413,-2378.936339400142,9162.546103871402,2127.3051002806224,-410.2079087197148,147.20538168129974,414.4044810191754,802.2069812871132,1171.284837250026,1622.6532970232977,2071.2442668442827,2624.3206334099905,3096.938465164693,3774.7510326958213,4075.270937322994,4973.44193120882,4494.242246890922,6090.529945295624,3005.539105706779,7215.414744756861,-3541.9143603730527,8181.0049271668395,-14161.532509688559,-10480.899696781711,0.0,0.0,1.9,0.0
442.04687190203276,-51.3923938292927,-234.37149776963952,-530.41571517041,-768.3820048566822,-1055.0253856230217,-1302.547931346891,-1583.337916525695,-1780.558522994549,-2027.956258179444,-2048.0801735750756,-2258.0065159150226,-1807.0911065152636,-2159.029473670779,-481.80549054496265,-1872.5431930079378,3034.9735070043475,-2096.4572297553323,8898.051352419387,1728.019343537097,-410.17686925699047,148.62174716775155,417.0721974287407,806.4640398345941,1177.5241938695585,1631.4627707930679,2083.0276355717733,2640.157900572408,3116.737927271509,3800.7676901200457,4105.1894130757555,5013.041585682113,4533.261973728304,6146.5998676766885,3041.774357478324,7289.5575052466465,-3548.879086142142,8262.18145091862,-14236.624434105135,-10608.632912417861,0.0,0.0,1.9,0.0
441.80380103343094,-58.45242787212965,-248.02735819973634,-551.9432322363594,-800.1371781324358,-1099.6809918338486,-1362.4540155820064,-1663.6593032498895,-1881.177624238093,-2159.9643795836737,-2199.9664319152066,-2459.3031768073583,-2004.3634983003353,-2445.71457498365,-661.4946613365682,-2257.8560492971274,3084.977970361658,-2536.2094094991817,9310.135001894598,2350.56580306843,-409.905544186002,145.0260714969346,411.7180915257243,796.929546184605,1164.2198142439568,1612.1857914684194,2057.6267292052344,2605.6980636937797,3073.9158357901792,3744.2711874765173,4040.421749697176,4927.054086843462,4448.910090854915,6024.561285223347,2964.1665464882753,7126.8801842329185,-3530.6182361281726,8080.264097882282,-14067.235277740718,-10337.194570011236,0.0,0.0,1.9,0.0
442.0117321372223,-54.26867071892366,-239.67698256271922,-538.9510240135437,-780.8608611338984,-1072.6478854251466,-1326.1376918255041,-1615.0034261545297,-1820.2012279109308,-2079.982570036101,-2107.928223827826,-2337.344913845861,-1884.7976456348242,-2272.0887091438544,-552.4227469087572,-2024.8006549017696,3055.3350444329035,-2270.9386905365345,9061.859163617433,1971.99131371169,-409.9170391648802,142.58257224490694,407.2928501029821,789.7390950630763,1153.7714159670363,1597.3649947423721,2037.8593112484537,2579.0800636741405,3040.6833678346484,3700.555558331588,3990.2240968049423,4860.437856817204,4383.6672552141235,5929.750843610039,2904.6594280405857,6999.593316589824,-3514.360917479053,7935.363497422059,-13931.541887690688,-10130.678415235063,0.0,0.0,1.9,0.0
441.8422550932351,-56.54110426879049,-244.44143159184728,-546.2131913023136,-791.740050986567,-1087.8293455431485,-1346.5914268851877,-1642.35789835083,-1854.523317586813,-2124.964324279872,-2159.7240438401323,-2405.940459646201,-1952.0880995335788,-2369.736138519178,-613.838019820339,-2155.8302433145454,3071.871706616734,-2419.9614013766895,9201.1023067061,2185.4097784928263,-410.5004989818923,144.8393138458249,408.9739421288175,794.222452126668,1159.1157038364695,1605.8241584579132,2048.4468490565314,2593.9384500724173,3058.727730344684,3724.7527073713545,4017.6355794146643,4897.16850205177,4419.377316491337,5981.945498077148,2937.2347335433114,7069.6128957493165,-3523.3891059565485,8015.051334162572,-14006.168383061922,-10244.056521679597,0.0,0.0,1.9,0.0
441.80324673871814,-59.13496637246794,-249.25218272776976,-553.9419630687896,-803.0345113832774,-1103.7987457850904,-1367.9362851609849,-1671.0540313348524,-1890.3971344601655,-2172.102268671892,-2213.9001254728164,-2477.7927503921737,-2022.4882829479434,-2471.997786387893,-678.069488828095,-2293.1084636061414,3089.351172741583,-2576.1726912528634,9347.388387247325,2408.2071408925685,-410.38373704836977,149.17351320009413,417.2215143222766,807.32426096883,1178.3633608399798,1632.960373158988,2084.7833700969995,2642.7284867664353,3119.7745295736468,3804.922531675227,4109.809100480371,5019.376545756328,4539.16133553621,6155.874732532249,3046.524402679048,7303.107241392495,-3553.084123471912,8280.754263319584,-14254.83941725914,-10623.349741257414,0.0,0.0,1.9,0.0
441.9133421607668,-55.685771607233505,-242.61740568573373,-543.4533787097163,-787.5897838113283,-1082.0511188375726,-1338.7938505071688,-1631.9434070518232,-1841.4385093243104,-2107.8405300840764,-2139.9799937211405,-2379.812935117253,-1926.4596832082098,-2332.5163880829004,-590.4971076367448,-2105.797587411908,3065.355481257125,-2362.7725256846047,9147.238171037654,2104.8486087208876,-410.14157919734697,147.8070897622722,415.7555095833232,804.2058820383932,1174.3263272692302,1626.8600789512561,2076.94613366838,2631.9131241415776,3106.4928203134987,3787.2508415613775,4089.678280683556,4992.512528272695,4512.9485563814,6117.701288742779,3022.5825889431308,7251.896656116402,-3546.5806010404685,8222.533226508102,-14200.433696333586,-10540.057018205585,0.0,0.0,1.9,0.0
441.9366490640914,-54.055490113722044,-239.59972574514916,-538.6003545603158,-780.5005963033734,-1072.027919768757,-1325.3926837286963,-1613.9344668180165,-1818.9164419890253,-2078.2545486896465,-2105.9631167737416,-2334.737333513798,-1882.2213730915796,-2268.392037792347,-550.0831509561021,-2019.7598390714616,3054.5768882983552,-2265.031807317833,9056.04267190725,1964.387483306939,-410.01457258403235,144.8611495753753,410.9784876904501,796.0525676608081,1162.724477129063,1610.2346708950492,2054.8878277842114,2602.126433623486,3069.361339393299,3738.3660948250267,4033.5683736674177,4918.034010142885,4440.013260102938,6011.707823198033,2956.0551077312093,7109.606822279309,-3528.42444756138,8060.577363215659,-14048.790701136812,-10309.143302021483,0.0,0.0,1.9,0.0
441.8339575527703,-56.06045572357141,-243.61173824868695,-544.8377426669388,-789.7565648447193,-1085.008068613705,-1342.8317856080776,-1637.2932672134223,-1848.203757835805,-2116.6433233731414,-2150.1819112684393,-2393.2608718476404,-1939.677061370107,-2351.7072306133314,-602.5405894097502,-2131.524817213662,3068.5986709005765,-2392.094324258383,9174.769423261869,2146.591111950447,-410.5837195216616,144.59227581267146,408.1969289081665,793.1989774148356,1157.468986920263,1603.608239778797,2045.3988334153112,2589.9068524064705,3053.6411026853966,3718.1043934884874,4009.9681900851438,4887.0237949089005,4409.430792746012,5967.473993059248,2928.19804880645,7050.159143641628,-3520.8405608923385,7992.847273435917,-13985.299931751852,-10212.722340765236,0.0,0.0,1.9,0.0
441.82720490972395,-57.291697312876636,-245.84778409927412,-548.4639143849301,-795.0331181897832,-1092.4848399506807,-1352.8112235484184,-1650.7263244969195,-1864.9764979301187,-2138.7080289125515,-2175.513772300692,-2426.8860132093387,-1972.6136463307575,-2399.5344146768653,-632.6015627726832,-2195.739241097923,3076.737625568706,-2465.0739938616625,9242.87959530936,2251.1888310405866,-410.43678917420687,144.99170566752787,409.5000050000948,794.9010470026864,1160.2154612599402,1607.2995106122348,2050.484605984956,2596.614812359635,3062.1347733177154,3729.1678609303767,4022.7634835387635,4903.914560719587,4426.035388838271,5991.546694814248,2943.317884884353,7082.522399816318,-3525.020377746693,8029.752432739453,-14019.936003209485,-10265.054336947644,0.0,0.0,1.9,0.0
441.8354958840466,-58.09256640064336,-247.25279361803882,-550.7755972368401,-798.3774945696197,-1097.2355152191278,-1359.14731782809,-1659.2520804627477,-1875.6322673439631,-2152.709769392354,-2191.6057330047092,-2448.2273483098274,-1993.5403782501028,-2429.869577731029,-651.7317959860903,-2236.463154169382,3081.8859741683195,-2511.469541489683,9286.423063784152,2317.262882289505,-409.75416948513896,146.4497695335657,414.8853611145885,801.6427832666425,1171.3633815610515,1622.0904241787075,2071.029611962911,2623.563728835351,3096.3891159808354,3773.6677101603923,4074.323159049798,4971.892305839003,4492.951315484647,6088.397584641932,3004.347204342797,7212.613483596113,-3541.521897943685,8177.882585419993,-14158.650654803467,-10476.428612224241,0.0,0.0,1.9,0.0
441.69077612563774,-61.04534191897096,-253.13247328036744,-559.9390037820808,-811.9553026529038,-1116.2975812582945,-1384.731313830193,-1693.5578413633384,-1918.5934424240886,-2209.0951326671025,-2256.455656610967,-2534.2087861110667,-2077.763480132036,-2552.3229829517754,-728.4598640712518,-2400.978249297417,3103.175537970394,-2698.9898054140317,9462.495843400207,2582.9874299103676,-409.66502636669014,151.50783358667172,424.3193368720758,816.7633227908277,1193.4808362204312,1653.3510265178415,2112.8184206027895,2679.7426335252285,3166.618074774241,3865.9592324562173,4180.371992132648,5112.575097775454,4630.754130472735,6288.632173707196,3130.0414055067617,7481.433174889677,-3575.824165596078,8483.845322995236,-14445.114038131758,-10912.702049789183,0.0,0.0,1.9,0.0
441.54588673847104,-63.254433540932496,-257.678234029226,-566.9318854132756,-822.3729209526255,-1130.8894903689031,-1404.3362695726114,-1719.83436824366,-1951.5028041194328,-2252.2924945989566,-2306.1402733056043,-2600.0405589469137,-2142.3880172862155,-2645.8943016635867,-787.6918963978219,-2526.1094978934493,3118.067044489541,-2840.098279541598,9594.210467596635,2789.566960852222,-410.38553008514174,143.68119561972412,407.3649181813219,791.2550179611945,1155.0369226570137,1599.8652943646982,2040.6326896539588,2583.306990248247,3045.5394611254264,3707.3314205419765,3997.70712028777,4870.584060497197,4393.610470950387,5943.820173934405,2914.3723597729413,7017.34647761608,-3514.270543658262,7952.4542008478065,-13946.67345786686,-10166.497255137805,0.0,0.0,1.9,0.0
441.6902126986589,-61.69600895600695,-254.30297766257684,-561.8441267549524,-814.7240393879133,-1120.2218587412526,-1389.9721104515272,-1700.6013425558167,-1927.4085943418036,-2220.660744426018,-2269.7728992421535,-2551.8330048581006,-2095.076547676721,-2577.40299963806,-744.2695658340384,-2434.62544114052,3107.375063684227,-2737.2269495565397,9498.155858336437,2637.9827694475134,-410.2766899365647,140.9805236068787,402.9565333179574,783.7477213169301,1144.3550050372057,1584.542175093677,2020.3302721552502,2555.854737452988,3011.3518235281667,3662.2966466845446,3946.0184778173916,4802.023396160539,4326.287524167493,5846.548904619516,2852.331550883473,6887.862670578781,-3500.1507731481543,7808.1798721650175,-13812.466045116249,-9949.225371991914,0.0,0.0,1.9,0.0
441.9624273209722,-54.60706059444374,-240.48404031140967,-540.1203064878877,-782.654392604052,-1075.123155056501,-1329.490706679771,-1619.476569399682,-1825.8203796534683,-2087.3404630989307,-2116.4125985852006,-2348.5525459224973,-1895.832526254283,-2288.045142412315,-562.4749798938917,-2046.2901969965437,3058.146225150905,-2295.5112999275893,9084.933602530964,2006.6713841024834,-409.76738384196125,147.15329642396011,416.08928541360035,803.6530606091875,1174.2473221865368,1626.2083981021474,2076.49699062305,2630.9581634625943,3105.5810507367887,3785.8097747730553,4088.20961442343,4990.389752340951,4511.004007096187,6114.712640409671,3020.809992132323,7247.9188692741345,-3546.0245750758304,8217.99984399713,-14196.1248854002,-10533.81637921431,0.0,0.0,1.9,0.0
441.879585903936,-56.331684305344425,-243.91448587030493,-545.4650244964434,-790.5797049956237,-1086.2408597277006,-1344.4228685696944,-1639.485348410905,-1850.897518215367,-2120.222590249069,-2154.267847737691,-2398.6975011207787,-1945.0148017818904,-2359.415858121815,-607.3953505376871,-2141.981057739181,3070.1107800230425,-2404.2664103761117,9186.59026115079,2162.6889102986543,-410.2007475806795,147.25728943059494,414.5239750211733,802.3852684501469,1171.5519564073604,1623.028909265483,2071.7430177159513,2625.0001570115533,3097.7761036671955,3775.8649552076263,4076.536953116735,4975.140211183287,4495.879665089084,6092.96152353182,3007.013305221121,7218.680803939613,-3542.370098391758,8184.72762081075,-14165.033222640353,-10486.093470076787,0.0,0.0,1.9,0.0
441.75420028201734,-58.34587274101159,-248.03544058227203,-551.812468198672,-800.0394177816167,-1099.4784392621948,-1362.2270764614423,-1663.3257012232657,-1880.776220031326,-2159.4304804653752,-2199.350966712626,-2458.4936910588194,-2003.5733205681886,-2444.5452085347224,-660.7575797091986,-2256.3754531338354,3084.9106052340553,-2534.624586143424,9308.780980647756,2347.775147870145,-410.135182385537,141.86109204066327,405.1095316670276,786.8372274987647,1149.1175532047037,1591.0965891163628,2029.225993405148,2567.705220085493,3026.256144435297,3681.796357174095,3968.4997417174536,4831.773087195139,4355.489754345896,5888.895149335416,2878.9793213607854,6944.729008616543,-3507.377443179812,7872.920894032824,-13873.090045190815,-10041.57438373406,0.0,0.0,1.9,0.0
441.77725107689173,-58.07612674018719,-247.4578410249036,-550.9392690671352,-798.727464551636,-1097.647679364035,-1359.7671582585715,-1660.0193015614066,-1876.6519760433166,-2153.9951570703306,-2193.1223657626524,-2450.21206474196,-1995.4739802739798,-2432.7567042883375,-653.4408518511659,-2240.3565472497066,3082.5013017816364,-2515.979479364745,9290.752109458357,2323.196904053477,-410.15548227754465,142.6557026193699,406.45489210653966,789.0891265916388,1152.3479958610865,1595.707333718451,2035.3570356688624,2575.9736250378264,3036.570609858375,3695.371402127953,3984.077653470422,4852.471909651335,4375.71961383948,5918.36736443052,2897.4112705036623,6984.298889768854,-3512.473104161605,7917.936933372953,-13915.193446284757,-10105.756677396606,0.0,0.0,1.9,0.0
441.89886782994057,-55.14370150938987,-241.70397192181804,-541.9204160679085,-785.393491947817,-1078.914521287123,-1334.6223413834641,-1626.322377137724,-1834.4212181946955,-2098.605865472869,-2129.382502531028,-2365.7491211448737,-1912.6756702416658,-2312.487907630809,-577.9645364406415,-2078.837547598566,3061.794829544175,-2332.0385519810065,9118.361792161635,2061.4678903796585,-410.3217673473414,144.75280084759288,409.5453543911206,794.6189107010396,1160.0514244682659,1606.874912889592,2050.072667004295,2595.9307680059514,3061.3797660607115,3728.0946871620977,4021.5908151488557,4902.299422836891,4424.511628486237,5989.237011913766,2941.9572307283015,7079.417367774346,-3524.5531779823523,8026.201300951042,-14016.570808369856,-10260.233068627158,0.0,0.0,1.9,0.0
441.7299554619774,-61.1310616116466,-253.12886340055616,-560.0466157483883,-812.0397735273045,-1116.4645131751047,-1384.9274470059686,-1693.8310607543792,-1918.9373540919526,-2209.539692540874,-2256.9794199880944,-2534.87377357346,-2078.468310083117,-2553.235774554656,-729.1916867890742,-2402.0322519308133,3102.9252426442845,-2699.8462629011283,9462.67855964369,2586.2686171396654,-410.5273574737095,144.4694131108722,408.1926907148507,793.0427132555459,1157.3381658594085,1603.3465408634827,2045.114870840825,2589.466805635988,3053.138339706775,3717.4055784966113,4009.187456105361,4885.979533195187,4408.398327196576,5966.005588797923,2927.2292883842388,7048.219729023804,-3520.6606811802826,7990.669532059501,-13983.301856615526,-10209.388201385862,0.0,0.0,1.9,0.0
441.8474300651661,-57.014993436989016,-245.26969394731543,-547.5804330267399,-793.7126716982656,-1090.6385143422278,-1350.328339429549,-1647.4005338698362,-1860.8062342339135,-2133.2472013799083,-2169.210956381466,-2418.569257903433,-1964.4108892182362,-2387.705632982578,-625.0995691291303,-2179.8865678428183,3074.8605445381854,-2447.205826562492,9226.452287271897,2224.795786771446,-410.1309705101472,143.01236435115788,407.1895790571661,790.222607379551,1154.0311536941394,1598.0692883633255,2038.534413635411,2580.2129901985263,3041.911327020978,3702.3433765995615,3992.135852460752,4863.1029282729805,4386.18669069275,5933.51838776216,2906.9564044343406,7004.628777329918,-3515.020779036265,7941.057111803336,-13936.82557991835,-10138.855593918226,0.0,0.0,1.9,0.0
441.65981396596374,-61.01114304673172,-253.1968054342584,-559.9514761867872,-812.0350562338629,-1116.3639353605636,-1384.8579250048683,-1693.6950595212786,-1918.789923601315,-2209.335166296672,-2256.752974400112,-2534.553897944349,-2078.181170511896,-2552.785928529267,-728.9241553989623,-2401.461860296593,3102.889928592897,-2699.217621506349,9462.024704416215,2585.4108451942675,-409.76471668858323,145.24638695720068,412.6833193543385,798.085256263764,1166.176263592772,1614.74985717047,2061.219159567472,2610.3789055224875,3079.8977670648906,3752.010858181826,4049.4143671302772,4938.890749012572,4460.576012024569,6041.417907208634,2974.8108518785893,7149.546602876417,-3533.5010170054115,8106.0629042367655,-14091.328619910884,-10374.116374677917,0.0,0.0,1.9,0.0
441.79646960652167,-57.51895824798544,-246.37993942202422,-549.2398243182201,-796.2215402127582,-1094.122576906596,-1355.0364473065545,-1653.6842492703677,-1868.7043813326393,-2143.576978337692,-2181.143947586094,-2434.2954576312914,-1979.9400253809908,-2410.098155210683,-639.221575764047,-2210.1053161818927,3078.8659839486345,-2481.8104368247887,9259.107823380418,2273.239641668779,-410.6226149001988,143.97227962976535,406.9183279526319,791.2434315923348,1154.5386144042777,1599.5243121178241,2039.886219410864,2582.5531585152794,3044.3857908665614,3706.014911477723,3996.0060196462937,4868.570071264834,4391.306712060868,5941.191663989445,2911.6592289572227,7014.881173309799,-3516.375876619754,7952.709477545876,-13947.74187554395,-10155.366586470012,0.0,0.0,1.9,0.0
441.92921104730993,-54.178300140398505,-239.84529361121895,-538.9918649404617,-781.0622552661694,-1072.8427503727526,-1326.453834613405,-1615.3953312339622,-1820.7063190953788,-2080.643633378469,-2108.687900242263,-2338.336275581544,-1885.838590305168,-2273.3740408842255,-553.645653733817,-2026.0390957318498,3054.488768808448,-2271.1079933968003,9061.550558272587,1977.3333130447827,-410.41626934416604,142.95336904798444,405.93487222371203,789.0144725207208,1151.7241683329944,1595.2104531575874,2034.3871990791347,2574.9318922991274,3035.0507262152514,3693.5666821191585,3981.873165743259,4849.5976643216745,4373.037449202327,5913.947304925195,2895.6038967244667,6977.245202083214,-3509.1721216365218,7906.826152994208,-13903.958788699867,-10101.363215674864,0.0,0.0,1.9,0.0
441.6726987757787,-59.81176036670263,-250.99555034896161,-556.3956637616816,-806.8551910720013,-1109.024816843622,-1375.0625011030104,-1680.511502694084,-1902.3237938627562,-2187.6835348374907,-2231.876227981389,-2501.568595301514,-2045.8487411315245,-2505.8190707671793,-699.4201450114974,-2338.50047658753,3095.0312193628833,-2627.79235745171,9395.555724001671,2482.3779576986894,-409.7407120920477,145.16974098466721,412.63938120403685,797.9465682701064,1166.0223242821812,1614.489199719857,2060.90965474866,2609.929827389661,3079.3621481292457,3751.28356953638,4048.604999624591,4937.773918684039,4459.531741462737,6039.83560162016,2973.8664200255794,7147.411195869614,-3533.1620502975843,8103.577497734352,-14088.96557111491,-10370.816475491052,0.0,0.0,1.9,0.0
441.5433024304465,-63.00257373028478,-257.2415287563241,-566.1991444262087,-821.3363285871743,-1129.3840424519447,-1402.3680343353085,-1717.1406775121861,-1948.1800917550945,-2247.8878110222786,-2301.0926306637134,-2593.3732146916886,-2135.761517371033,-2636.517900270778,-781.3948997001887,-2513.9887147882114,3117.536257353537,-2827.67043876811,9582.901972036942,2766.68339419721,-410.7446431517061,141.03540663097976,401.1584245327427,782.2100759351782,1141.1899247389674,1580.7608540241863,2014.719254616718,2548.791842191073,3002.1237466420207,3650.5224658464927,3932.205647532701,4783.977497957487,4308.391912626976,5820.802559782849,2836.012348626909,6853.245667520967,-3495.7992183135634,7768.760752626476,-13775.58451386866,-9892.827221841442,0.0,0.0,1.9,0.0
441.692053478143,-60.700813695102056,-252.5102895394308,-558.9259900985475,-810.4868488174509,-1114.2080896591856,-1381.9537926364505,-1689.8056599735332,-1913.9219238963396,-2202.9355441443927,-2249.4006832153627,-2524.813841077425,-2068.621465355464,-2538.904792084071,-720.2025086711994,-2382.8672880772588,3100.5772356197235,-2678.1279228239036,9442.52685452492,2554.761243978951,-410.4356386918023,144.70068566005352,408.98403647106545,794.0516464863978,1158.993269562632,1605.552033771706,2048.162772587952,2593.49297239431,3058.2162553425505,3724.0475068782434,4016.84799823749,4896.098688168128,4418.367339364095,5980.390212940252,2936.3540618552047,7067.526130519809,-3523.0655893435774,8012.679866016182,-14003.931110243208,-10240.837377755417,0.0,0.0,1.9,0.0
441.8425483041164,-57.361397667919846,-245.91123646536016,-548.6116668660404,-795.2193557482672,-1092.7683516080237,-1353.1781764224447,-1651.2231548991633,-1865.6027478379428,-2139.5168189041005,-2176.4690102898776,-2428.1032231306813,-1973.8730041053068,-2401.2616621047455,-633.7361198698336,-2198.1685584564157,3077.2381508415006,-2468.2270352046307,9246.347951728427,2254.1753197148023,-410.04821056800824,149.95813160790738,419.99705276694,810.8373665253137,1184.143899880551,1640.644761137934,2095.444513719863,2656.7275484730408,3137.5549045648286,3828.028864253464,4136.5804710085085,5054.670158694413,4573.897708710515,6206.1820675076,3078.1724900101876,7370.710225966337,-3561.741017172174,8357.798708259581,-14327.093241777366,-10732.886621674328,0.0,0.0,1.9,0.0
441.93693418360687,-55.610047556620316,-242.3877168703997,-543.1460739517065,-787.1002441761574,-1081.3890094853086,-1337.883120298351,-1630.7437305821054,-1839.9179872433758,-2105.8592226661835,-2137.68455333797,-2376.810275965583,-1923.4396680431937,-2328.2769441890814,-587.6968733299057,-2100.128875435909,3064.7849416473164,-2356.473212024178,9141.617256739679,2094.9586864242074,-410.4362611880183,144.88597391113103,409.3190004421323,794.592755104692,1159.7822615757218,1606.6714478489073,2049.6587955131463,2595.491258155179,3060.743762746318,3727.321918854861,4020.661904688005,4901.107266969999,4423.302736545603,5987.546250969665,2940.8456100205944,7077.12401564289,-3524.263487450407,8023.550043330015,-14014.022289270506,-10256.576051350066,0.0,0.0,1.9,0.0
441.7470869139698,-58.35846135588861,-248.0863570623568,-551.874908752398,-800.1443306828188,-1099.614376738342,-1362.423547958474,-1663.5695044935958,-1881.1076690658733,-2159.8273639468007,-2199.860656170433,-2459.083060680711,-2004.2696425152417,-2445.3269670728832,-661.5339469764631,-2257.2407834156647,3084.4929766455284,-2535.0896543917565,9308.396006547886,2351.28871447149,-410.73940219977777,142.4314725347051,403.68888821967266,786.3120501902594,1147.1657225744798,1589.2178982095618,2026.0194072179754,2563.987992657411,3021.1131208834904,3675.4909637204664,3960.8747759205207,4822.04264026362,4345.6473954808425,5874.962624965458,2870.003972006736,6925.956921288452,-3505.0785989104643,7851.496466302831,-13853.019136724186,-10010.865020692358,0.0,0.0,1.9,0.0
441.84859221885654,-58.514463449862774,-247.95352407273026,-551.962619401718,-800.0675135842148,-1099.6613641471356,-1362.3579305650717,-1663.599001965726,-1881.038962126485,-2159.8385654079684,-2199.7851276858373,-2459.0737644904457,-2004.188697222848,-2445.291519602236,-661.4702883405578,-2257.1325082983003,3084.371716082623,-2534.7333439627864,9307.851486612282,2351.5221110819043,-409.99594011891077,143.75453890574852,409.08212639012373,792.8800425471575,1158.190679822769,1603.7308655332968,2046.276977389893,2590.482586880028,3054.8567527847845,3719.258747531715,4011.65175209123,4888.923213013233,4411.532560794612,5970.263934067831,2930.0891751757736,7053.987147323611,-3521.302696325285,7997.241853612607,-13989.405730431725,-10219.04780150464,0.0,0.0,1.9,0.0
441.8303458407398,-57.301178181973796,-245.85405006754695,-548.4794890838016,-795.0546879427259,-1092.5141794426559,-1352.8539621082614,-1650.7775080000529,-1865.0458389815774,-2138.800500295568,-2175.6089446095357,-2427.0379889751393,-1972.7178964339569,-2399.7778115106157,-632.6171755321716,-2196.212839756086,3077.1282287696886,-2465.926840540712,9244.19720106946,2250.6353968665094,-410.45840948165466,142.60364395287172,405.13879630206765,787.8346790061072,1149.9416686643117,1592.7240659258746,2031.0424353300202,2570.4540382304276,3029.431701800156,3686.2105256515124,3973.376480597075,4838.423275521829,4361.873295585718,5898.317449467767,2884.802601834933,6957.351348544987,-3509.0161684546933,7887.234626594585,-13886.433793983622,-10062.05325196507,0.0,0.0,1.9,0.0
441.8211989551453,-56.60506711618018,-244.64020444358243,-546.4770980009091,-792.1611084390134,-1088.4009309429857,-1347.3708711436943,-1643.3960841561661,-1855.8280578957247,-2126.671778335456,-2161.689934032438,-2408.5525154236193,-1954.6353251714795,-2373.45621821393,-616.1521060971993,-2160.8601093963034,3072.618514602503,-2425.831588311653,9206.850233812575,2193.0747766626173,-409.47479452552477,149.27018842009477,421.07828391266986,810.9070454848211,1185.365929554942,1641.542116373852,2097.302249407684,2658.6549254415672,3140.4403836760785,3831.4029317087543,4140.7757488157085,5059.960076708183,4579.261944136477,6213.779194340717,3083.06359049641,7380.942042388293,-3562.9841109986596,8369.446951916427,-14337.973579620724,-10749.692179442947,0.0,0.0,1.9,0.0
441.827993549466,-58.79544125501275,-248.54220809007654,-552.8591923619055,-801.4126249036597,-1101.5349244079662,-1364.8861127945534,-1666.977952721123,-1885.277184340755,-2165.398778186577,-2206.1759842347874,-2467.5631493678193,-2012.459239321794,-2457.43276009538,-668.9539166532502,-2273.4546162121733,3086.6279138541313,-2553.4774781676265,9325.644973534834,2377.3550211802904,-410.23796453593326,146.52784622691865,413.0678829487934,800.1144040928922,1168.1918709145539,1618.3056082996761,2065.4128258365704,2616.499339527922,3087.139782800338,3761.9054784806776,4060.474063276918,4953.851333913153,4475.0250808919345,6062.633790444623,2988.0077811027736,7177.977545485945,-3537.1700126464493,8138.402113521676,-14121.64595636343,-10420.081956273076,0.0,0.0,1.9,0.0
441.8159737061248,-56.859469036150244,-245.11329960686385,-547.2455904571488,-793.2657858907517,-1089.9902631863345,-1349.460984567208,-1646.2475328473975,-1859.344740530866,-2131.350202729586,-2167.0170518433215,-2415.6460013763835,-1961.6255266046821,-2383.4197720566003,-622.7849532934815,-2173.7642501393384,3073.2703454653224,-2439.1926821004154,9218.902937081282,2217.274210402722,-410.21234054069816,147.78187841939882,415.4220091086053,803.8785831240169,1173.7014716244103,1626.091359788616,2075.8207094258637,2630.4935336723765,3104.63454852867,3784.8839973908566,4086.917967521002,4988.824527710904,4509.521925358768,6112.128346482188,3020.116662947759,7243.283008845288,-3542.995809154225,8209.529386659347,-14187.334236263034,-10533.472089362735,0.0,0.0,1.9,0.0
441.83287863384396,-56.03021435212327,-243.56249158984224,-544.7530849647829,-789.6372621829777,-1084.8364226042045,-1342.6010399977072,-1636.9915617474392,-1847.8129766594998,-2116.1453293278137,-2149.59209406398,-2392.5078641761315,-1938.8975200121283,-2350.655638945131,-601.7438812492785,-2130.27953666002,3068.719000640171,-2390.8040847502934,9173.82933711918,2143.620571125402,-409.94255785206684,143.28432397630195,408.4406144584627,791.7012394408789,1156.553548271716,1601.3631930600677,2043.1487860281427,2586.2480221700926,3049.583376642574,3712.3207117996562,4003.679302366959,4878.3438425524255,4401.170945126433,5955.222699317268,2920.6238298877342,7033.792522431226,-3518.7491472143256,7974.291087132544,-13967.980384897748,-10186.137593989813,0.0,0.0,1.9,0.0
441.79241649060265,-57.58513446531629,-246.51480829073103,-549.4485974194924,-796.5309902031099,-1094.5573440102949,-1355.6211024475863,-1654.4639503510425,-1869.6857414965712,-2144.8645845135734,-2182.6143853235785,-2436.273793591829,-1981.8418292498545,-2412.901690702769,-640.9869518399711,-2213.808701632589,3079.2854502553196,-2486.0246794143686,9263.097089990866,2279.3033937267087,-410.45861046714845,145.51985461530728,410.36408056134724,796.364796066845,1162.3098543436333,1610.2907197891636,2054.457378760704,2601.9829885068684,3068.8154105630765,3737.9807693922367,4032.8611123173587,4917.335440688499,4439.167615667878,6010.633630046357,2955.307129647803,7108.136733980724,-3528.2566943416346,8058.851160227469,-14047.096171607207,-10306.794251931915,0.0,0.0,1.9,0.0
441.8305807017249,-58.083021243441294,-247.25360846221076,-550.7660581467096,-798.3683158208302,-1097.221661248926,-1359.1265641011476,-1659.2296168151368,-1875.5968447487908,-2152.6687854311685,-2191.566642698715,-2448.1384768744474,-1993.5089073341287,-2429.7463498458087,-651.7093276371129,-2236.300510448733,3081.799033760199,-2511.167747214284,9285.872822918203,2317.481663498512,-410.22874602258537,142.43741193167727,405.7637546961711,788.1838997178955,1150.8848215057133,1593.745488483171,2032.6476081537296,2572.408057785662,3032.045668437884,3689.4917593442206,3977.2626292617942,4843.487740102307,4366.884671193313,5905.553923915428,2889.368167310453,6967.0741016917,-3510.2565462269267,7898.333960613767,-13896.870162231306,-10077.789502252637,0.0,0.0,1.9,0.0
441.8080789831408,-58.30208740232115,-247.7376249794861,-551.4886427582356,-799.4614334688019,-1098.7391029739301,-1361.178575744381,-1661.9652750030123,-1879.0367537996804,-2157.177208726673,-2196.736184080207,-2455.0497849914136,-2000.1887151121007,-2439.614283527735,-657.731133397722,-2249.639427870876,3083.816649218802,-2526.6737944233973,9300.925635250404,2337.8215613842476,-410.12439012489375,146.6856868215467,413.8122087542958,800.9881529603551,1169.6892428550257,1620.2543334834131,2068.147230406552,2620.0769719455284,3091.688202976955,3767.805944078248,4067.3294472658454,4962.865813636288,4483.908261018023,6075.506375711281,2996.0948978227334,7195.253160699982,-3539.3606619146376,8158.061969370757,-14140.044878848083,-10448.151570264756,0.0,0.0,1.9,0.0
441.9938665412422,-53.63902210750666,-238.6193976021732,-537.1742064755458,-778.3155794168957,-1069.0137584475146,-1321.30354624464,-1608.4897373534495,-1812.0661701315678,-2069.2886622950027,-2095.639996425328,-2321.0478407531446,-1868.8318296775176,-2248.8768833569025,-537.8791580054472,-1993.617496515844,3051.2857324988354,-2235.3568470993378,9028.42082180786,1921.6458310955832,-409.6624575202381,147.57222180740723,417.26504154681146,805.2619741477685,1176.7844026587056,1629.6574051111525,2081.2220642308375,2637.201175254746,3113.48899906615,3796.094143982673,4100.129349542616,5006.091994655805,4526.476251836422,6137.07926146379,3034.9330729618973,7277.957575392359,-3549.808310179987,8252.191398806377,-14228.139533250827,-10582.678491958408,0.0,0.0,1.9,0.0
442.13437167471704,-51.42015821627001,-234.07066361272962,-530.1736653523164,-767.8778468314662,-1054.4109771551798,-1301.6609620659983,-1582.1916306755581,-1779.097768856632,-2026.0475928832645,-2045.8884560611982,-2255.1002145350312,-1804.206039288354,-2154.988166943822,-478.9667368386472,-1867.5156404954744,3035.1456930515524,-2091.854312842429,8894.033767559386,1717.15637538798,-410.25235012412514,142.49262318182548,405.77106632105705,788.2605108285824,1150.9556779222507,1593.871634397844,2032.7998851091643,2572.6252381789836,3032.307330041841,3689.844146455618,3977.6646714122926,4844.014753397355,4367.409022979089,5906.31323293429,2889.83450375727,6968.109275645792,-3510.4129899628897,7899.5297981845815,-13898.01119961587,-10079.385875043037,0.0,0.0,1.9,0.0
441.89167250191883,-55.489113743268604,-242.35374472638034,-542.9562981798285,-786.9150211537655,-1081.0564977218896,-1337.4979547615483,-1630.1715345247892,-1839.2505594286115,-2104.938205531453,-2136.662333318608,-2375.413902925552,-1922.1160653928514,-2326.293607920353,-586.4772730584671,-2097.5072917297266,3064.4930336319812,-2353.559214693972,9138.96381783856,2090.555307113121,-409.8349298771592,145.14454088212563,412.2210822706339,797.5332056865426,1165.2421265632443,1613.5250194569355,2059.502303561222,2608.1472613064025,3077.0354640856167,3748.321768236011,4045.113218886854,4933.242017240398,4454.999467661887,6033.377523265835,2969.7164184561825,7138.735457294946,-3532.1435982210405,8093.77320397148,-14079.870357588778,-10356.44956037723,0.0,0.0,1.9,0.0
442.14935652649723,-51.31604864836004,-233.82432683992272,-529.8142903081509,-767.3300519771311,-1053.6510475178457,-1300.6373384267945,-1580.81664498741,-1777.3801207774447,-2023.7940524114742,-2043.2834331905515,-2251.678395783156,-1800.811861941217,-2150.1109748803383,-475.9067420245018,-1860.8528158963372,3034.134156735696,-2084.0945074661195,8886.521088748119,1706.9685678498072,-410.1570186725636,142.2023758937097,405.63705276737403,787.7594177504069,1150.4135770426587,1592.9687644111764,2031.6962251306668,2571.054393632582,3030.4177339037133,3687.2900718489923,3974.7895547466815,4840.145955504416,4363.652968550859,5900.831392396531,2886.400452562061,6960.743479713583,-3509.4377685169875,7891.077756973144,-13889.998504835417,-10067.6293655072,0.0,0.0,1.9,0.0
441.72114676242364,-61.1668628395164,-253.2282970601317,-560.1836612679119,-812.2541342031249,-1116.7597672846623,-1385.32209709613,-1694.3703561574766,-1919.5999887833157,-2210.4161092586783,-2257.999427562692,-2536.1774410689522,-2079.851483092156,-2555.009404408287,-730.5495714486722,-2404.409429457557,3103.033782574837,-2702.4272494936304,9464.836375004495,2590.9309849630054,-410.1143719233278,142.86136715388227,406.99308148905664,789.8383710188729,1153.5271643604879,1597.3021044045884,2037.5593785842634,2578.85706203174,3040.2513881127907,3700.1363020956596,3989.614047750245,4859.748501827631,4382.912294888128,5928.730520035168,2903.974494297982,6998.231598323175,-3514.2343871644207,7933.826422574306,-13930.118195711339,-10128.355834447575,0.0,0.0,1.9,0.0
441.5443013993913,-65.34954821685392,-261.4478129938342,-573.0607260782117,-831.2932905878479,-1143.514265253948,-1421.2162208729462,-1742.5072546002011,-1979.8771395224514,-2289.540039823739,-2348.977679884929,-2656.842524633842,-2197.999787477147,-2726.857712738325,-838.2203588693893,-2635.1266297356487,3132.6080921829825,-2965.03512799238,9710.805551707086,2964.915011045502,-409.88655819094294,142.7651535602888,407.7370852298101,790.3853460531559,1154.7562675540653,1598.7293139558637,2039.7038620052915,2581.545037640837,3043.769446300589,3704.6171756964804,3994.8843118378695,4866.616716588071,4389.730817782853,5938.549007701124,2910.1834139304965,7011.414471760211,-3515.8557087579848,7948.753445991603,-13943.97909272749,-10150.01546492581,0.0,0.0,1.9,0.0
441.6273919599108,-61.32459959339883,-253.8864636488007,-560.9910736580584,-813.5891447003586,-1118.5471674400048,-1387.7763359259252,-1697.6277753973202,-1923.6918976633244,-2215.795256757726,-2264.1565038197386,-2544.3950777819227,-2087.8385994340533,-2566.686315886042,-737.9272703835994,-2419.7808670178497,3104.5485659373394,-2719.1153982404776,9480.952417060329,2616.8638947422587,-410.32710052573736,145.0646572327937,410.08316696246504,795.5138740312373,1161.3338464385147,1608.7132732434075,2052.50419423213,2599.226478468757,3065.4765762342386,3733.495603040631,4027.804494001667,4910.475258038545,4432.715921343906,6000.602887307807,2950.047683004027,7093.571470729379,-3523.9616863551223,8039.184550125376,-14027.866021442367,-10290.30483091791,0.0,0.0,1.9,0.0
441.74209728288423,-60.919848352867575,-252.69934238680514,-559.3855359087003,-811.0511141403256,-1115.0876133079005,-1383.0643875280584,-1691.3537055390193,-1915.8124961489202,-2205.457958162135,-2252.2738910430767,-2528.6356761025336,-2072.3773290131476,-2544.320229022377,-723.6718741296187,-2390.0708733197534,3101.298911540029,-2686.0229550294425,9449.459642541451,2567.3904266655773,-410.36284654104634,145.84970915959104,411.3422670353165,797.6801880354313,1164.3997238959055,1613.1247121658862,2058.3411530430362,2607.119275114722,3075.309962005853,3746.4473203546586,4042.6432051195443,4930.267299341411,4451.8684506217305,6029.042245827356,2966.9035475070586,7132.845617464622,-3531.379158414622,8086.974631244822,-14073.441528890395,-10346.944346209959,0.0,0.0,1.9,0.0
441.90111475039083,-57.345329584801675,-245.64433558281235,-548.3522107931052,-794.7244898313398,-1092.1572285308587,-1352.2863082727836,-1650.09609155839,-1864.1247086461829,-2137.6469005148356,-2174.252553265449,-2425.235615146462,-1971.009415567784,-2397.147368612567,-631.1609096587681,-2192.5742281907474,3076.3692449690047,-2461.5467724870923,9239.698620855343,2245.8539454181955,-409.86529792746,151.06676128719414,422.7226144750774,814.7428986351678,1190.170953968239,1648.9255215470773,2106.7100626447836,2671.6945839817618,3156.421297968479,3852.676497119139,4165.021976882216,5092.286688498216,4610.831607336153,6259.736778633494,3111.8708536801105,7442.62679772325,-3570.871006598207,8439.63030529124,-14403.672154911648,-10849.770556010102,0.0,0.0,1.9,0.0
441.85865150679865,-55.16641601647086,-241.91024057456423,-542.1329214122652,-785.7859608842425,-1079.4077219972448,-1335.3299753311971,-1627.2338086936975,-1835.5908300591732,-2100.1213459513674,-2131.131921764916,-2368.07501111442,-1914.9256700396868,-2315.845471315074,-579.9266347581992,-2083.4791912239302,3062.6901405374215,-2337.547855997075,9123.805289264395,2068.0480956871525,-410.45845900409233,143.4761444259243,406.68805856971943,790.3888419198759,1153.6152093019564,1597.973690441509,2038.009391983094,2579.8633024450796,3041.1584013433494,3701.6580454369932,3991.0839373962735,4861.976526288308,4384.877040479832,5931.8339228040495,2905.7866186467304,7002.314606012738,-3514.7494011578538,7938.354755454793,-13934.23731479362,-10135.087371236914,0.0,0.0,1.9,0.0
441.60731781826485,-61.193943238952556,-253.7383777033226,-560.6768744733029,-813.1939401113403,-1117.9270746462244,-1387.0087796610512,-1696.531312099567,-1922.3864675403602,-2214.0093049586662,-2262.1644279677207,-2541.713448329813,-2085.1856683973447,-2562.9896479992058,-735.2711766264636,-2415.2663094390527,3104.883044598357,-2715.255645539409,9477.613129635518,2606.609933617752,-410.1390048241943,146.68812521662392,413.7530160123682,800.9439931418384,1169.5844948315973,1620.138776301179,2067.9752968380244,2619.842587003327,3091.4113309871072,3767.4252997832987,4066.90119496837,4962.295018853376,4483.3488393739535,6074.695515584541,2995.574371180095,7194.177825090916,-3539.227286241271,8156.803060603773,-14138.81987762404,-10446.448081415658,0.0,0.0,1.9,0.0
441.60268278461024,-62.65079383596935,-256.37040761601315,-564.954923104362,-819.4118141661847,-1126.7452826716356,-1398.7730285714704,-1712.3664562062086,-1942.1648424037248,-2240.019923725933,-2292.0269372824814,-2581.3722808824577,-2123.960814121825,-2619.492454176533,-770.5398884271542,-2491.2212083737004,3114.85667770817,-2801.8675192633555,9558.97060936473,2728.9603676261004,-410.36140904589496,151.68037908353733,421.8147888006308,814.736726181152,1189.182822097398,1648.2546514195185,2105.2433085349367,2670.2035508554723,3154.1632346166602,3850.061333729175,4161.728519214385,5088.201865471864,4606.612435879256,6253.849444500522,3108.034591237369,7434.677577508384,-3569.9331175539755,8430.607505224603,-14395.264873110998,-10836.634117195248,0.0,0.0,1.9,0.0
441.91314943590055,-54.45659877161859,-240.41404817734337,-539.8585999506618,-782.3743636208696,-1074.6484930557685,-1328.920799879466,-1618.6531746767596,-1824.8383017135056,-2086.012682617252,-2114.905998171946,-2346.5549124005156,-1893.86457241479,-2285.1777303946105,-560.7448345275284,-2042.3300658479181,3057.4363372301136,-2290.808405541433,9080.363725653619,2000.8245368275047,-410.38207616487045,143.72936149628515,407.46119422045473,791.4061280331907,1155.261632824524,1600.1765475123657,2041.0569686497806,2583.866810800656,3046.250307016917,3708.258338692831,3998.753503228299,4872.059382379557,4394.827061838903,5946.212397002476,2914.848202810203,7021.655681087554,-3517.249570389312,7960.455549161401,-13955.023509700704,-10166.323165553838,0.0,0.0,1.9,0.0
441.5852158257878,-63.987552762149335,-258.83819296325146,-568.928409788588,-825.2122155213395,-1134.9501623901776,-1409.74025725397,-1727.1054443064784,-1960.6010672067414,-2264.2263700440926,-2319.8811378340433,-2618.244102032122,-2160.2041127865887,-2671.9066297318604,-803.7253435909687,-2561.455939705783,3123.416061246404,-2881.531594872605,9633.109717455036,2844.35969922608,-409.48106363871045,148.65828897362258,419.95752893081766,809.096819192773,1182.7261812304778,1637.8063732868197,2092.308280134429,2651.9478108586,3132.0457737557363,3820.3788293504977,4128.109985639947,5043.144942199492,4562.806589454372,6189.858680375248,3068.0347621515984,7348.849748980589,-3558.8996765766865,8332.880949428523,-14303.697077250938,-10697.621160262353,0.0,0.0,1.9,0.0
441.7221459313289,-58.65110724608098,-248.71338819316213,-552.8212477271877,-801.5689586705062,-1101.5983797299325,-1365.097692005796,-1667.1477525640412,-1885.5922653728371,-2165.712134331805,-2206.629578640186,-2468.0602135882573,-2013.0331434800034,-2458.168803527311,-669.4738031570535,-2274.454279608288,3086.717426349299,-2554.617082001016,9326.653028308008,2379.145967829735,-409.9845955103682,149.03696892359517,418.5946781639253,808.3743001658333,1180.679130902603,1635.6519352624955,2088.8424611695364,2647.788554918132,3126.4376019188185,3813.364083630586,4119.769988141644,5032.347244585043,4552.028842007996,6174.426826325609,3058.215477753677,7328.074407633079,-3556.294354988753,8309.216472690934,-14281.54915146665,-10663.7633736012,0.0,0.0,1.9,0.0
441.61984035467844,-63.629132180058605,-258.0553138441055,-567.7544710782975,-823.4404446432052,-1132.4864461435614,-1406.4133669654548,-1722.6646475955538,-1955.0196925330542,-2256.923172810608,-2311.4549310491966,-2607.118109639097,-2149.236300653274,-2656.093809251165,-793.6705504253613,-2540.272656603307,3120.8763807415935,-2857.520111791951,9610.860488759565,2809.3360762013062,-410.11207712849085,142.8577511475172,406.99584604906534,789.8379804835582,1153.523995442071,1597.3095964296126,2037.5466221844256,2578.876174747399,3040.2342647583305,3700.1526813480423,3989.5992950098976,4859.771123928765,4382.886362517447,5928.764557230377,2903.9535095445517,6998.238740728233,-3514.2262372449873,7933.814748667024,-13930.108421341849,-10128.356298063367,0.0,0.0,1.9,0.0
441.8175557688347,-58.383729518934615,-247.84526344163464,-551.6934483525478,-799.7376250409408,-1099.1488227847276,-1361.7095458755493,-1662.6943450897447,-1879.9331094066329,-2158.372699308182,-2198.095026692059,-2456.861871951777,-2001.9678274032715,-2442.159841487077,-659.4143572117663,-2252.957223349033,3083.9670863737883,-2530.095547441908,9303.588940152435,2344.414834430812,-409.7815700364122,144.5902008919653,411.43602621535086,796.1044626976061,1163.2667208121584,1610.6448583861556,2055.7282258847463,2602.997971448599,3070.671588155117,3739.8848727851446,4035.4806863642307,4920.4111562749695,4442.463998942368,6015.122586825413,2958.2917208611957,7114.218171466349,-3528.9594722573997,8065.805473900464,-14053.625522879505,-10316.829790834108,0.0,0.0,1.9,0.0
441.3089956658845,-68.86340464686452,-268.6988353293018,-584.1985738398051,-847.9025512482517,-1166.7618682964214,-1452.4669336028355,-1784.3767802078555,-2032.3338885649835,-2358.369990440558,-2428.164113916504,-2761.771518494499,-2300.9333206474985,-2876.10856660436,-932.3304285525663,-2835.148635285764,3157.357863119705,-3191.729302803488,9923.3896355497,3291.5202554155367,-410.45984203937985,141.92167974913957,403.9077916363762,785.83851433627,1147.0283612214894,1588.6122468614385,2025.534257935696,2563.060246938314,3020.1830145897616,3674.055257412797,3959.4286410152886,4819.849588022604,4343.8753283907245,5871.602712784246,2868.9997258075246,6920.401912064349,-3501.945142499343,7842.148700152257,-13843.411030670733,-10009.03615011506,0.0,0.0,1.9,0.0
441.7107135752411,-59.79819956065933,-250.8160304440113,-556.2178821663076,-806.520360251985,-1108.6067700450176,-1374.460209652052,-1679.7391501620878,-1901.3289478386882,-2186.397899794383,-2230.3838861370905,-2499.605369452433,-2043.9059726841258,-2503.0361713012107,-697.63585310412,-2334.744112045213,3094.5469832906565,-2623.4876242879623,9391.517865303093,2476.2534228282634,-410.1438149788946,147.14921928945012,414.5637670441601,802.2755926178875,1171.5119360672913,1622.879085890736,2071.6206422183213,2624.767576514704,3097.5388359771896,3775.5102418795286,4076.1661632195073,4974.59674133724,4495.414673937579,6092.171224662361,3006.6128611102768,7217.630586432749,-3542.1645620602358,8183.482416142044,-14163.771690290307,-10484.676815034387,0.0,0.0,1.9,0.0
441.6061217586971,-61.779385357406,-254.79327740862436,-562.3936698537799,-815.6874382156702,-1121.4651823868805,-1391.7280233967824,-1702.881743802102,-1930.3231999847974,-2224.43772700686,-2274.15523884215,-2557.5987594124354,-2100.774531721084,-2585.6010619233803,-749.5389129531866,-2445.4967955995453,3108.5076934065023,-2749.4180370708336,9509.209414295783,2656.66389286937,-410.4638908240579,144.98950213646583,409.39363358211887,794.7952930083518,1160.0252732730598,1607.0491921098221,2050.139111641202,2596.1604154378792,3061.553826572832,3728.4214596400316,4021.888502715704,4902.773356467038,4424.903693038441,5989.911819412802,2942.2996555752816,7080.301864949509,-3524.6886827436365,8027.159458307202,-14017.409338134974,-10261.666009176337,0.0,0.0,1.9,0.0
441.88229051917756,-58.08459719295422,-247.0472642843863,-550.5829550552926,-798.0012151812178,-1096.7751042239024,-1358.4752720240617,-1658.396335965278,-1874.5233283950517,-2151.2877030904247,-2189.9434972234644,-2446.0491438422823,-1991.3785538473403,-2426.7844671950165,-649.7331312966118,-2232.349299897983,3081.508035259103,-2507.0205068913715,9282.491521381655,2310.042648798504,-410.28565111477513,146.99345755517925,413.70775989211234,801.304109594315,1169.8193394872758,1620.6881896429904,2068.53639900668,2620.746651451002,3092.4171473711394,3768.85622605803,4068.459126291199,4964.444469050208,4485.398187614587,6077.7150350888605,2997.4764178513756,7198.192870403662,-3539.708479969373,8161.376249541081,-14143.144187395419,-10452.96727674558,0.0,0.0,1.9,0.0
441.94560051144555,-56.1305379980613,-243.2855552807183,-544.636990391295,-789.2459687132723,-1084.4465122876234,-1341.955666704337,-1636.222876399369,-1846.771414257198,-2114.8568433896094,-2148.039158127642,-2390.5109865569357,-1936.9228382135427,-2347.7465475987246,-600.0223646291113,-2126.2971249966567,3068.0750219917863,-2386.235592684192,9169.363546010321,2137.7345641575457,-410.23808718191196,141.23019316332648,403.56510754574504,784.6204575744898,1145.6990986168596,1586.3965393013452,2022.8418105179694,2559.202892753306,3015.566241557481,3667.8012029549254,3952.367906306784,4810.444130534427,4334.516949040777,5858.538259269559,2859.827161883235,6903.970037941567,-3502.2259455324474,7826.483099208353,-13829.577856927726,-9975.33885948179,0.0,0.0,1.9,0.0
441.5984728005954,-63.38643307490861,-257.70757626157683,-567.1217057025096,-822.5682650427525,-1131.2108131329458,-1404.7444013649897,-1720.3884183649277,-1952.2031515080507,-2253.1931140792367,-2307.1937325512563,-2601.4428092438447,-2143.686003912794,-2648.0359537502973,-788.5949998034193,-2529.457211320749,3119.469732579595,-2845.0851575847605,9599.008110914245,2792.081332967995,-410.3663310682971,149.76878847419016,418.3536906618706,809.1296422775528,1181.0070546602183,1636.6932545222714,2089.782442943307,2649.431552871787,3128.179049251417,3815.934514855433,4122.49845283986,5036.167302892862,4555.643203305177,6179.789409269895,3061.5447086369145,7335.242354486653,-3557.2159161152476,8317.371172819807,-14289.169302746992,-10675.400981716608,0.0,0.0,1.9,0.0
441.82335623774617,-57.25763896444346,-245.80151927987288,-548.378393883688,-794.9145208793111,-1092.3139747249315,-1352.5836372468275,-1650.421598655215,-1864.5918524879291,-2138.2107410960452,-2174.929802427493,-2426.1278571027083,-1971.8479525282028,-2398.4772873683123,-631.8613428185843,-2194.382712466838,3076.72132435359,-2463.6465496501237,9241.823090915195,2248.2772060508064,-410.12883856764404,142.36578720615955,406.04710139369155,788.3379161628202,1151.3179065261243,1594.1974055257247,2033.3871046344705,2573.275867790294,3033.244352821842,3690.959138064065,3979.0410514000505,4845.7525949539795,4369.171466383824,5908.8166356942675,2891.4360658715186,6971.469363251497,-3510.808937647986,7903.334568103633,-13901.517381766105,-10084.989695341126,0.0,0.0,1.9,0.0
442.01965229206905,-53.331640057799405,-237.96461526566168,-536.1813145169208,-776.8261822521936,-1066.9340687373385,-1318.5076732789084,-1604.7379548684212,-1807.3775592344862,-2063.118424953409,-2088.569556540421,-2311.6208164096006,-1859.67746579794,-2235.4203533740074,-529.6258834713731,-1975.4252860360134,3048.6168541390607,-2214.3307449102736,9008.260409502775,1893.4193327698958,-410.26660522007273,145.58148672731352,411.24598340779187,797.2429142042005,1163.9521792977469,1612.3445784657254,2057.4223044477803,2605.769007530088,3073.7284822342554,3744.260033238584,4040.2295279830296,4926.960325676786,4448.708506697374,6024.380495717424,2963.9834154910723,7126.639090892431,-3530.629056511748,8079.94544439353,-14066.876392739712,-10336.783035054023,0.0,0.0,1.9,0.0
442.02197850480115,-54.625675336066024,-240.27724088284276,-539.9574733442312,-782.3054277409024,-1074.7075660246905,-1328.8795318857415,-1618.6959178922032,-1824.8150264330613,-2086.0467194454995,-2114.8920544620496,-2346.598652030725,-1893.8325138149094,-2285.2679013128036,-560.6686784261348,-2042.4383059869915,3057.5271790082147,-2290.956994176768,9080.5727698611,2000.732274206257,-410.3104622150323,145.48099095586315,410.89334533191976,796.7897549793563,1163.2190994153716,1611.3549004907532,2056.063360864002,2603.978626008615,3071.449724345356,3741.315998868584,4036.7917851418497,4922.463945018154,4444.251762135429,6017.953090656479,2959.9475811080383,7117.9644082670575,-3529.4850885647184,8070.057602160279,-14057.615621264655,-10322.775487227154,0.0,0.0,1.9,0.0
442.1187143561918,-51.71630311538229,-234.66693340950405,-531.0965251888722,-769.2523558506796,-1056.3328621692576,-1304.249056632114,-1585.6505645473883,-1783.4428931984473,-2031.7373506849049,-2052.4402447362054,-2263.7859643208717,-1812.7100212158477,-2167.356570851566,-486.7246728626342,-1884.102786307232,3037.2458698826813,-2110.72184887624,8911.653637436582,1744.1750145305,-410.22544467881755,151.20707800903256,421.50951318763543,813.8467703547367,1188.1457353629428,1646.597113804166,2103.17221302119,2667.3058027179277,3150.6265486664242,3845.341195390909,4156.35932087919,5081.032995133386,4599.617905783206,6243.661490346132,3101.6660306406066,7420.958348327702,-3568.089027487916,8414.887414101342,-14380.413337299324,-10814.70666541846,0.0,0.0,1.9,0.0
441.8028544008366,-59.24308839984508,-249.44697571893596,-554.2597933099485,-803.495237370302,-1104.4520994323757,-1368.810968337938,-1672.2240933371788,-1891.8713263710229,-2174.0196737386727,-2216.1331585171956,-2480.7005952057743,-2025.421506449334,-2476.092863795683,-680.8474769545022,-2298.463671129325,3089.660192661025,-2581.959951594865,9352.261153930773,2418.380889412724,-409.6331212765852,147.56965685967805,417.3796146115103,805.3583789793895,1176.9862093749039,1629.899896605821,2081.575754845171,2637.6544508877505,3114.072690215792,3796.8467642237674,4101.005147221571,5007.242388280138,4527.613978157409,6138.718217127029,3035.962298248844,7280.183665176456,-3550.113868305304,8254.723848266034,-14230.501253885233,-10586.26355176626,0.0,0.0,1.9,0.0
441.6565066395973,-60.63523888395059,-252.5319960674476,-558.8689417454402,-810.4514704790581,-1114.1383360475465,-1381.8609214825756,-1689.6953039959221,-1913.757495675779,-2202.7579890684074,-2249.159378728419,-2524.517819212222,-2068.3528683240993,-2538.3922373530513,-720.1507264811376,-2381.7989564473637,3099.7195971156643,-2675.8988069971947,9440.495231529483,2555.172209647374,-410.22541521710923,147.47230370507725,414.8137514765524,802.9255865722876,1172.2924203335997,1624.111463493089,2073.1642442319676,2626.9312584701,3100.17325619549,3779.0292854047366,4080.1831324222185,4979.898146296426,4500.771369168333,6099.422180998194,3012.1336601334447,7226.226279446961,-3540.827239610381,8190.121892636321,-14169.165922570875,-10505.767891155789,0.0,0.0,1.9,0.0
441.72016776394844,-59.12790725523166,-249.5703653874964,-554.2287635202631,-803.5907435305646,-1104.498142002469,-1368.9264864776592,-1672.3504439274861,-1892.0352853302375,-2174.2511628468046,-2216.367197959137,-2481.054912005519,-2025.7460611468218,-2476.525410724622,-681.2811673124384,-2298.749060562838,3089.1607454955574,-2581.4029443753466,9352.032987372308,2420.2793633761103,-410.4905758148522,141.19398299180807,402.4780007440342,783.5983685205828,1143.716197763623,1583.958235895235,2019.28988131211,2554.6866427782825,3009.696150459357,3660.2929740798318,3943.5975106283704,4798.866934997771,4323.3059760642145,5841.735171924396,2850.2346103180876,6880.307789027753,-3496.847629835708,7796.528790554152,-13800.70398012581,-9943.913728015046,0.0,0.0,1.9,0.0
441.9794949522282,-52.98770664872927,-237.5059953804938,-535.3267351908288,-775.6431844411438,-1065.2282665593943,-1316.2373342484007,-1601.6951758617324,-1803.5486334415891,-2058.126994624118,-2082.78639571805,-2304.0063023611233,-1852.184823371137,-2224.5073948663685,-522.9438205815151,-1960.4406145240046,3046.148666487187,-2196.4687057465817,8991.677034667331,1870.785728034809,-410.51566385314095,140.59996277328958,401.31085977483656,781.769733317988,1141.0124725624717,1580.159158073257,2014.1925850412051,2547.851254102671,3001.135703732981,3649.0587965564864,3930.674529400485,4781.738756243762,4306.515175439741,5817.354242678521,2834.916611584784,6847.578881699381,-3492.686520752666,7759.289173361951,-13765.84213520647,-9890.754173531448,0.0,0.0,1.9,0.0
441.69437559363195,-59.73859948537677,-250.7702638111034,-556.1087219414444,-806.3703525836673,-1108.4038462874573,-1374.1668455396166,-1679.3776774017615,-1900.8359930369475,-2185.8006433660994,-2229.652880835076,-2498.663817191752,-2043.0081192116986,-2501.590625048427,-697.0290872291073,-2332.396550717658,3093.4386419586654,-2619.687743811701,9387.873279011836,2474.9309155403353,-410.3009245772405,145.6844364048353,411.3009195525913,797.4218057363238,1164.1548153339393,1612.6770933714915,2057.822528443057,2606.358275310516,3074.4082361318324,3745.216936761257,4041.28786430734,4928.346179054498,4450.234834244697,6026.041065359581,2966.02992778324,7127.719626596055,-3528.3032367819433,8078.03901720443,-14064.239607099946,-10345.769583650184,0.0,0.0,1.9,0.0
441.95319902444373,-53.61032656748239,-238.72932952707936,-537.2434118749848,-778.4770832135446,-1069.2102548061207,-1321.580044978424,-1608.8596612039662,-1812.5212314909213,-2069.902052930196,-2096.3315668827418,-2321.9591345188887,-1869.7840339897487,-2250.0621684875214,-538.9993197796971,-1994.7452880337567,3050.5101163547665,-2235.5012617860393,9028.217338194832,1926.504702768405,-410.5164508926349,140.58132771964938,401.2742453034042,781.7123670607505,1140.9276537874134,1580.0399769063617,2014.032677361194,2547.6368205905737,3000.867153289483,3648.7063682955313,3930.2691215463306,4781.201426809417,4305.988429921143,5816.589386641514,2834.4360694496154,6846.552140589238,-3492.555982273685,7758.120926419375,-13764.748481542541,-9889.08650099526,0.0,0.0,1.9,0.0
441.9149379364947,-54.51625068333692,-240.5093045538133,-540.0322138060034,-782.6004611604676,-1075.0041253137783,-1329.3537932203876,-1619.2841270125373,-1825.576536528982,-2087.034992261309,-2116.04005492309,-2348.0808552092003,-1895.391228448579,-2287.2448621693284,-562.3603840344846,-2044.6592565895685,3056.8561109180864,-2292.294391570944,9081.384192003756,2007.5768969637375,-410.31750346949013,145.29189083692563,410.5296393905829,796.2133912447867,1162.368116322791,1610.1665539899836,2054.4540891481106,2601.84125479695,3068.7512478764065,3737.7930706535362,4032.747988367254,4917.027388206605,4439.13899252356,6009.929449362783,2955.90735571366,7106.091427705302,-3525.5534567793075,8053.430012107147,-14041.201901987602,-10310.640228255867,0.0,0.0,1.9,0.0
441.61988333393396,-61.50238453950169,-254.23577851767936,-561.5383678429962,-814.3983455069352,-1119.6841975035074,-1389.3019111772865,-1699.673546182893,-1926.2539629175196,-2219.157545761049,-2268.024236689618,-2549.5213887158193,-2092.863936106993,-2573.983310269665,-742.5118106038022,-2429.576336688071,3105.793948724248,-2730.2608830897507,9491.386255904745,2632.7740746437566,-410.25533712538567,146.76382995073368,413.42173025250116,800.744616946135,1169.0677517154368,1619.5803939104462,2067.084820439599,2618.7788532888035,3089.963415383957,3765.6305495898882,4064.770200672558,4959.469775670661,4480.745381396853,6070.343627697391,2993.8642480802214,7187.191291623523,-3535.8643839678825,8145.707088649759,-14127.587030909031,-10442.365757346404,0.0,0.0,1.9,0.0
441.782300738304,-57.6567582878979,-246.67982701241283,-549.6999702046753,-796.89470453438,-1095.0893554787701,-1356.3025354245838,-1655.4219376230853,-1870.8345046187503,-2146.428627207588,-2184.362175335661,-2438.6353078257357,-1984.1620067889467,-2416.1436630205835,-643.3446503936277,-2217.692731453483,3078.85535326365,-2489.1754026242434,9265.694230415114,2288.6245452033836,-410.4014864885719,143.30338901489984,406.6225973782573,790.0919759726006,1153.317309074012,1597.4490185446834,2037.3907256032437,2578.9595709138443,3040.094876570971,3700.186299337064,3989.487892221662,4859.690257816807,4382.931246295339,5928.313502957706,2904.629861282474,6996.530355627768,-3511.6240100167497,7928.7691933858405,-13924.500752577362,-10132.68690639033,0.0,0.0,1.9,0.0
441.7645180439531,-58.077806727137954,-247.50711010927114,-550.9961281067725,-798.8111364084192,-1097.7821860307831,-1359.915558315624,-1660.266940627836,-1876.902248837238,-2154.391542916131,-2193.522134755449,-2450.775960167964,-1996.063521588926,-2433.4251492783815,-654.2022260808267,-2240.8913616830605,3081.8047957849626,-2515.57127647508,9290.404711619243,2326.3046557951225,-410.37192104080304,144.00342277446214,407.99803554529456,792.2469638598284,1156.5035624341922,1601.92610980778,2043.397725635703,2587.0148570525907,3050.183088248325,3713.425416932121,4004.7172107719643,4879.875266665305,4402.7186658477085,5957.045645448257,2922.681631082729,7035.1003223193575,-3516.527743500725,7972.654886859537,-13965.584317755534,-10195.333734928468,0.0,0.0,1.9,0.0
441.7705321974654,-57.93540704932184,-247.22732081309732,-550.5577641313547,-798.1629941615522,-1096.871463730664,-1358.693624571833,-1658.628348003689,-1874.8501219526768,-2151.6984641019512,-2190.4242126430363,-2446.669959952729,-1992.0383983127444,-2427.580505654987,-650.530165729304,-2233.0455245704557,3080.807286649056,-2506.644123250074,9282.047562573529,2313.561144338981,-410.22781826114107,147.41540582296489,414.7019575523411,802.7504318069392,1172.033445577244,1623.747571019912,2072.6760026541974,2626.2765347164386,3099.353298752895,3777.953226203398,4078.9453121336696,4978.257533593487,4499.16307203424,6097.0868677809085,3010.666434477355,7223.091359973547,-3540.428670181737,8186.554917425374,-14165.826700902948,-10500.67603395187,0.0,0.0,1.9,0.0
441.97311220263816,-53.13883374010743,-237.8029324452864,-535.7919656845534,-776.3310501285031,-1066.1948053466217,-1317.534158053359,-1603.434194800156,-1805.726531390895,-2060.9851272627575,-2086.0741837522123,-2308.363951742782,-1856.4566390152272,-2230.710245897759,-526.8409347270245,-1968.7673084955463,3047.2073111145405,-2205.942987696979,9000.546377935205,1884.3102657615282,-410.48920450441983,141.22645208461438,402.54179656850914,783.6983215613452,1143.8639831483692,1584.1658931583956,2019.568499083348,2555.060264528761,3010.164063733328,3660.907033246349,3944.3038796588185,4799.803159759169,4324.223759766547,5843.067831397112,2851.0718907970904,6882.096748256665,-3497.0750756964094,7798.564304792183,-13802.60952553837,-9946.819424640817,0.0,0.0,1.9,0.0
441.6544343489477,-60.68430539520011,-252.62840277859743,-559.0199883715591,-810.6748001892217,-1114.452142697814,-1382.2819619412046,-1690.2599121782746,-1914.464594934689,-2203.685940477298,-2250.2268265779367,-2525.9326195012586,-2069.739800928979,-2540.4061202205944,-721.4160045557394,-2384.5023885058304,3100.0633078168444,-2678.9748270409104,9443.374845816827,2559.5632283387536,-410.28913186915673,145.96365737327415,411.8495376372022,798.2813611500252,1165.4257094053833,1614.462861198217,2060.218527713246,2609.5712700830386,3078.4320995716457,3750.4975953122303,4047.362350062085,4936.397330410701,4458.127400008216,6037.501393651672,2973.2301986381567,7143.103946809741,-3530.2591784799797,8095.543610002827,-14080.626520970829,-10370.757390312792,0.0,0.0,1.9,0.0
442.04836833643606,-51.35696211556888,-234.30188093873744,-530.3066419817395,-768.2207348947163,-1054.7987808131304,-1302.2438912857847,-1582.9302039111233,-1780.047915290575,-2027.286169599482,-2047.3093523803805,-2256.9848659584504,-1806.0895802599061,-2157.5752165857816,-480.89181297526994,-1870.5910014036785,3034.7253079987972,-2094.2359863953734,8895.971936800335,1724.8485185921827,-410.58747094954975,138.89975552716396,397.9702638122258,776.535805693086,1133.2738585318093,1569.2854210132114,1999.603081487159,2528.286974913377,2976.633955886361,3616.904284798566,3893.6863163337666,4732.714408532889,4258.456472877505,5747.571040970735,2791.0733690006114,6753.902060821946,-3480.7765762387457,7652.701779094841,-13666.060411074432,-9738.600665532027,0.0,0.0,1.9,0.0
441.73403305400126,-58.79961286368314,-248.92532701361222,-553.2181402050949,-802.0964882934715,-1102.3985233256542,-1366.1093874458134,-1668.5727614475745,-1887.304223037198,-2168.0424221852777,-2209.2251140056023,-2471.5887610863138,-2016.4663674297412,-2463.0509159106573,-672.8154401693147,-2280.660927513337,3086.861044683934,-2560.8218982756625,9332.766053618347,2390.899919552848,-410.23797319722473,147.17496315425342,414.2295317144901,802.0102517196538,1170.9390536684866,1622.2098111870514,2070.6127605079673,2623.5097616603234,3095.888270720521,3773.4059471584596,4073.714452852717,4971.324528647261,4492.36662826286,6087.2181534538795,3004.4661394821196,7209.843618945527,-3538.7443702762866,8171.481367929413,-14151.715606736132,-10479.1585416663,0.0,0.0,1.9,0.0
441.7935726063224,-57.38986945147769,-246.15543931291438,-548.8783780992037,-795.6799410438773,-1093.3824582568504,-1354.012358372938,-1652.3508486671835,-1866.9883599957946,-2141.3811953556765,-2178.555976623153,-2430.9397453486467,-1976.6180257796805,-2405.1894940480765,-636.4623882474583,-2202.98787842881,3076.9857981056393,-2472.4439214278887,9250.031064497205,2264.7403553776458,-410.4045795522336,143.23015323812217,406.4787024831285,789.8665265405575,1152.9839712314265,1596.9806364761616,2036.7622883124077,2578.1168470638686,3039.0394731449937,3698.801256030123,3987.8946390777314,4857.57855277248,4380.8611360466875,5925.307618209811,2902.7413303616086,6992.495262364389,-3511.1109937078427,7924.177982107151,-13920.202692939381,-10126.13295217404,0.0,0.0,1.9,0.0
441.7262824356519,-58.98312756135283,-249.28589979617868,-553.783072890508,-802.9317684727926,-1103.5721982248228,-1367.6841297829928,-1670.6844644690598,-1889.9488599521023,-2171.5130729042003,-2213.217498316487,-2476.8802856135358,-2021.6536634411614,-2470.5830818785626,-677.5477334949726,-2290.7720910161684,3088.1465643596102,-2572.3265859969147,9343.536160013953,2407.3228615571893,-410.3867361903408,143.652638123663,407.30880793489206,791.167106407865,1154.9069411944333,1599.6826538744772,2040.3876373732573,2582.9783792551107,3045.127918047455,3706.7913379796905,3997.0858485663593,4869.760624099936,4392.80325399129,5942.648061894501,2913.6359476963235,7015.7730369179535,-3514.0704985321554,7950.663907982236,-13944.997476292183,-10163.941612029153,0.0,0.0,1.9,0.0
441.6738327671189,-60.22500076216238,-251.72595326694716,-557.6060623874109,-808.584242535769,-1111.5146432763063,-1378.3406620912042,-1684.9746952854857,-1907.845539340501,-2194.9995193178743,-2240.234599078337,-2512.6888752178015,-2056.756922073291,-2521.5544491252367,-709.5719164564828,-2359.1959455039746,3096.845880822582,-2650.180640894062,9416.419186013747,2518.4595269034344,-410.2020267659719,148.02608204882824,415.9018245336164,804.6303409633038,1174.8129817913443,1627.6531729558624,2077.9162243931787,2633.3035840423754,3108.1537758378518,3789.502404069248,4092.2306468594034,4995.865977339461,4516.424677748288,6122.15142527247,3026.413941720869,7256.737968398655,-3544.7064545437133,8224.838713612824,-14201.666053353041,-10555.32615397348,0.0,0.0,1.9,0.0
